tree
version=v4
num_class=1
num_tree_per_iteration=1
label_index=0
max_feature_idx=18
objective=regression
feature_names=temp_lag_1 temp_lag_2 temp_lag_3 temp_lag_4 temp_lag_5 temp_lag_6 humidity_lag_1 humidity_lag_2 humidity_lag_3 humidity_lag_4 humidity_lag_5 humidity_lag_6 hour dayofweek month hour_sin hour_cos month_sin month_cos
feature_infos=[15.6:40.200000000000003] [15.4:40.200000000000003] [15.4:40.200000000000003] [15.4:40.200000000000003] [15.4:40.200000000000003] [15.6:40.200000000000003] [5:98] [4:98] [4:98] [4:98] [5:98] [5:98] [0:23] [0:6] [1:12] [-1:1] [-1:1] [-1:1] [-1:1]
tree_sizes=2670 2761 2760 2772 2758 2764 2783 2770 2780 2797 2773 2781 2778 2785 2793 2818 2797 2802 2798 2806 2797 2809 2788 2802 2819 2816 2809 2799 2820 2824 2816 2826 2815 2837 2837 2789 2820 2808 2819 2828 2814 2826 2786 2819 2821 2820 2784 2816 2802 2819 2813 2794 2825 2836 2787 2804 2835 2819 2839 2818 2811 2835 2830 2798 2827 2822 2812 2815 2856 2792 2815 2806 2820 2789 2802 2831 2817 2796 2823 2829 2806 2811 2821 2820 2836 2829 2826 2841 2822 2823 2850 2854 2805 2856 2825 2861 2828 2839 2843 2818

Tree=0
num_leaves=31
num_cat=0
split_feature=0 0 0 0 0 0 0 16 16 16 0 16 16 0 15 0 0 16 12 12 16 0 12 0 0 0 0 0 6 0
split_gain=89114 19264.8 15505.3 3630.46 2649.51 2418.27 2369.31 697.019 570.286 561.956 535.205 507.396 422.562 404.815 363.206 326.465 262.153 250.826 233.204 213.58 205.661 181.959 170.791 169.965 154.149 153.88 128.98 101.41 99.373 93.2857
threshold=27.050000000000004 32.050000000000004 23.050000000000004 20.550000000000004 29.350000000000005 24.950000000000003 35.050000000000004 -0.37940952255126015 -0.37940952255126015 -0.12940952255126037 18.950000000000003 -0.12940952255126037 -0.60355339059327384 37.350000000000001 1.0000000180025095e-35 21.750000000000004 30.750000000000004 -0.37940952255126015 13.500000000000002 6.5000000000000009 1.0000000180025095e-35 24.050000000000004 14.500000000000002 25.950000000000003 33.150000000000013 28.450000000000003 33.250000000000007 26.250000000000004 81.500000000000014 30.450000000000003
decision_type=2 2 2 2 2 2 2 2 2 2 2 2 2 2 2 2 2 2 2 2 2 2 2 2 2 2 2 2 2 2
left_child=2 4 3 10 8 9 12 27 18 28 17 -5 26 22 16 -13 -6 -1 -2 -16 -12 -11 -8 -9 -14 -10 -3 -7 -4 -21
right_child=1 6 5 11 14 7 13 23 25 21 20 15 24 -15 19 -17 -18 -19 -20 29 -22 -23 -24 -25 -26 -27 -28 -29 -30 -31
leaf_value=25.80393957122536 26.697134054399385 27.116419329294942 26.34038174915537 26.098201640800127 26.718489075533952 26.434515418482615 27.464202767769002 26.275291280763906 26.470951714177886 26.094551772589462 25.914435823113205 25.857263570500688 26.920252898188117 27.582142383890211 26.736150085871188 25.988962814882765 26.854902228023402 25.526172351146506 26.57410429908446 26.898894758453693 25.715018781867212 26.184541610403119 27.289719461358327 26.367334312791328 27.07895429796454 26.58250145233151 27.266880290279317 26.530555516526611 26.230339642359016 27.040541378712724
leaf_weight=38 374 104 177 291 354 271 95 425 373 478 70 282 107 129 50 566 234 225 262 94 198 424 137 380 143 185 126 185 153 92
leaf_count=38 374 104 177 291 354 271 95 425 373 478 70 282 107 129 50 566 234 225 262 94 198 424 137 380 143 185 126 185 153 92
internal_value=26.4146 26.8445 26.1194 25.8836 26.6769 26.2773 27.2466 26.3747 26.5817 26.1777 25.6677 25.9843 27.101 27.4401 26.8148 25.9452 26.7728 25.5663 26.6465 26.9196 25.7671 26.1369 27.3612 26.3187 27.011 26.5079 27.1988 26.4735 26.2894 26.969
internal_weight=0 2859 4163 1670 2018 2493 841 1261 1194 1232 531 1139 480 361 824 848 588 263 636 236 268 902 232 805 250 558 230 456 330 186
internal_count=7022 2859 4163 1670 2018 2493 841 1261 1194 1232 531 1139 480 361 824 848 588 263 636 236 268 902 232 805 250 558 230 456 330 186
is_linear=0
shrinkage=1


Tree=1
num_leaves=31
num_cat=0
split_feature=0 0 0 0 0 0 0 16 16 0 16 12 0 16 3 0 16 12 0 0 0 5 0 17 0 17 0 16 0 6
split_gain=72266.6 14172.6 13928.8 3410.72 2000.04 1924.43 1653.15 538.638 536.987 455.248 447.451 436.819 389.004 348.648 321.086 306.556 238.466 181.185 173.844 152.141 142.323 136.775 134.3 116.32 112.153 111.101 106.517 105.997 101.767 96.2147
threshold=27.450000000000003 23.350000000000005 32.050000000000004 20.550000000000004 25.250000000000004 35.150000000000013 29.650000000000002 -0.37940952255126015 -0.12940952255126037 18.250000000000004 -0.37940952255126015 15.500000000000002 21.950000000000003 -0.60355339059327384 28.250000000000004 37.350000000000001 1.0000000180025095e-35 5.5000000000000009 30.750000000000004 26.450000000000003 24.250000000000004 31.750000000000004 33.150000000000013 0.68301270189221941 33.150000000000013 0.68301270189221941 28.550000000000004 -0.37940952255126015 30.850000000000005 93.500000000000014
decision_type=2 2 2 2 2 2 2 2 2 2 2 2 2 2 2 2 2 2 2 2 2 2 2 2 2 2 2 2 2 2
left_child=1 3 6 9 8 13 11 23 -3 27 29 17 -12 24 28 21 -11 -2 -16 -9 -10 -7 -15 -6 -4 -19 -13 -1 -8 -5
right_child=2 4 5 10 7 15 14 19 20 16 12 26 -14 22 18 -17 -18 25 -20 -21 -22 -23 -24 -25 -26 -27 -28 -29 -30 -31
leaf_value=-0.60169828041740092 0.13005123926947515 -0.081524971323632608 0.62795402449790882 -0.21419290216058814 0.060662683990887006 0.93195932305377471 0.42305747950222439 -0.093745382335996302 -0.26970862208343133 -0.46684244229243355 -0.47559482855497354 0.046864480463744598 -0.35324546313473698 0.45507752516559352 0.26565156317275507 1.0507779627807381 -0.6548362293462644 0.23423039784530297 0.3898477013833922 -0.0038598975237411786 -0.18900917258758387 0.77409995669410347 0.60192700552460332 0.22773343674514607 0.767649823035637 0.3633903419429606 0.15349899723407734 -0.8316557178130517 0.55949739188682746 -0.38515049993991851
leaf_weight=23 156 359 99 186 443 115 164 466 410 91 414 215 698 107 230 129 261 493 221 316 468 105 149 46 137 77 166 156 82 40
leaf_count=23 156 359 99 186 443 115 164 466 410 91 414 215 698 107 230 129 261 493 221 316 468 105 149 46 137 77 166 156 82 40
internal_value=0 -0.249381 0.41268 -0.457828 -0.0940431 0.748778 0.255997 -0.00594474 -0.184563 -0.672264 -0.372726 0.180037 -0.398796 0.621374 0.376638 0.928384 -0.606236 0.225544 0.32651 -0.0574234 -0.226693 0.856617 0.540549 0.076379 0.709049 0.251678 0.0933247 -0.802108 0.468537 -0.244451
internal_weight=0 4377 2645 1869 2508 841 1804 1271 1237 531 1338 1107 1112 492 697 349 352 726 451 782 878 220 256 489 236 570 381 179 246 226
internal_count=7022 4377 2645 1869 2508 841 1804 1271 1237 531 1338 1107 1112 492 697 349 352 726 451 782 878 220 256 489 236 570 381 179 246 226
is_linear=0
shrinkage=0.1


Tree=2
num_leaves=31
num_cat=0
split_feature=0 0 0 0 0 0 0 16 16 16 16 16 15 0 16 0 0 0 12 0 12 0 0 0 12 6 0 0 0 17
split_gain=58583.6 13333.8 9624.07 2091.41 1794.35 1715.67 1652.13 424.209 405.93 367.718 353.892 326.082 288.691 272.484 262.322 259.701 197.162 183.246 156.079 155.272 153.173 133.624 106.165 102.77 92.8983 91.6541 84.2415 80.5012 74.9344 74.0164
threshold=26.850000000000005 31.750000000000004 22.750000000000004 20.050000000000004 35.050000000000004 29.050000000000004 24.850000000000005 -0.37940952255126015 -0.12940952255126037 -0.37940952255126015 -0.12940952255126037 -0.60355339059327384 1.0000000180025095e-35 36.750000000000007 -0.37940952255126015 21.550000000000004 18.450000000000003 30.450000000000003 13.500000000000002 23.850000000000005 6.5000000000000009 33.150000000000013 33.150000000000013 25.850000000000005 13.500000000000002 83.500000000000014 28.450000000000003 38.350000000000001 30.150000000000002 0.68301270189221941
decision_type=2 2 2 2 2 2 2 2 2 2 2 2 2 2 2 2 2 2 2 2 2 2 2 2 2 2 2 2 2 2
left_child=2 5 3 14 11 9 8 -8 25 18 -5 22 17 24 -1 -12 -16 -7 29 -10 -14 -13 -3 -9 -6 -4 -11 -15 -22 -2
right_child=1 4 6 10 13 12 7 23 19 26 15 21 20 27 16 -17 -18 -19 -20 -21 28 -23 -24 -25 -26 -27 -28 -29 -30 -31
leaf_value=-0.44364737366873125 0.19232577824505506 0.55905396766662596 -0.06934486370312401 -0.27400575475219419 0.85273457440462996 0.22018303273269885 0.037741905969764608 -0.11943887522245931 -0.27591503975708365 0.037840444151920061 -0.4803661914290609 0.40076911726468051 0.2490513152653171 0.86717480651119294 -0.74201415626482037 -0.36218109240531926 -0.59627888705862231 0.32960904864667673 0.10549839845173843 -0.19643787590415884 0.36810878091133559 0.53771605308239279 0.68788463468770045 -0.047005200760150467 0.69696714159042117 -0.17194993557785854 0.12734223834419853 1.0059503930987734 0.48815237283706669 0.31373086820046109
leaf_weight=63 308 125 202 272 55 385 416 437 519 432 296 142 62 114 174 500 199 254 219 467 104 143 131 355 126 153 139 66 104 60
leaf_count=63 308 125 202 272 55 385 416 437 519 432 296 142 62 114 174 500 199 254 219 467 104 143 131 355 126 153 139 66 104 60
internal_value=0 0.337474 -0.247215 -0.447825 0.658277 0.197482 -0.128848 -0.044024 -0.205259 0.116763 -0.37248 0.543063 0.300312 0.830939 -0.632385 -0.406129 -0.664263 0.263679 0.172341 -0.238272 0.387009 0.469483 0.624979 -0.0869718 0.7443 -0.113566 0.0596281 0.918059 0.428131 0.21212
internal_weight=0 2969 4053 1504 902 2067 2549 1208 1341 1158 1068 541 909 361 436 796 373 639 587 986 270 285 256 792 181 355 571 180 208 368
internal_count=7022 2969 4053 1504 902 2067 2549 1208 1341 1158 1068 541 909 361 436 796 373 639 587 986 270 285 256 792 181 355 571 180 208 368
is_linear=0
shrinkage=0.1


Tree=3
num_leaves=31
num_cat=0
split_feature=0 0 0 0 0 0 0 16 16 0 12 16 16 16 0 14 16 0 0 16 0 0 0 12 12 12 0 12 6 6
split_gain=47559.7 9316.05 9116.99 2016.67 1541.52 1211.28 1150.34 388.177 341.947 335.649 286.349 283.016 266.555 236.898 179.778 166.824 139.198 138.803 134.1 131.423 121.992 108.163 108.001 106.702 101.962 98.3321 91.8642 89.0366 79.8279 74.3026
threshold=27.450000000000003 23.150000000000002 32.150000000000013 20.650000000000002 25.150000000000002 35.750000000000007 29.450000000000003 -0.37940952255126015 -0.12940952255126037 18.950000000000003 15.500000000000002 -0.37940952255126015 -0.37940952255126015 -0.60355339059327384 21.850000000000005 6.5000000000000009 -0.37940952255126015 34.050000000000004 38.350000000000001 -0.37940952255126015 26.350000000000005 24.250000000000004 30.450000000000003 6.5000000000000009 14.500000000000002 11.500000000000002 33.95000000000001 11.500000000000002 77.500000000000014 92.500000000000014
decision_type=2 2 2 2 2 2 2 2 2 2 2 2 2 2 2 2 2 2 2 2 2 2 2 2 2 2 2 2 2 2
left_child=1 3 6 9 8 12 10 25 28 19 23 29 17 15 -13 -8 -11 -4 24 -1 -9 -10 -15 -2 -7 -6 -14 -25 -3 -5
right_child=2 4 5 11 7 18 13 20 21 16 -12 14 26 22 -16 -17 -18 -19 -20 -21 -22 -23 -24 27 -26 -27 -28 -29 -30 -31
leaf_value=-0.45039318109813498 0.10944722296359639 -0.0298516110559542 0.52933144059410708 -0.16723390177388181 0.096186018620786462 0.82467771741476936 0.40730595419804261 -0.084913773315994048 -0.22411160140604008 -0.29327927619218824 0.067104338161058014 -0.38835383527978534 0.39127503024588389 0.18778818499370567 -0.29876479256133853 0.27341696264124232 -0.49414032255985818 0.66480084047542787 0.90535530755014126 -0.65145513174268943 -0.0076364878524862708 -0.15595279544734159 0.29131187080190729 0.25781958709160485 0.6841658708572389 0.0072126426109869234 0.52139325034752326 0.16985599872740834 -0.12338199556100793 -0.31330420388115776
leaf_weight=38 168 170 187 154 298 88 240 474 524 40 354 351 139 177 619 152 251 127 66 225 359 419 234 180 125 213 89 319 197 45
leaf_count=38 168 170 187 154 298 88 240 474 524 40 354 351 139 177 619 152 251 127 66 225 359 419 234 180 125 213 89 319 197 45
internal_value=0 -0.202308 0.334784 -0.383374 -0.0847591 0.611512 0.210226 -0.00951704 -0.161954 -0.540528 0.139798 -0.308897 0.524365 0.299774 -0.331183 0.35539 -0.466531 0.584123 0.780809 -0.622404 -0.0516094 -0.193827 0.246729 0.178379 0.742218 0.0590993 0.442067 0.201586 -0.0800573 -0.200265
internal_weight=0 4377 2645 1723 2654 821 1824 1344 1310 554 1021 1169 542 803 970 392 291 314 279 263 833 943 411 667 213 511 228 499 367 199
internal_count=7022 4377 2645 1723 2654 821 1824 1344 1310 554 1021 1169 542 803 970 392 291 314 279 263 833 943 411 667 213 511 228 499 367 199
is_linear=0
shrinkage=0.1


Tree=4
num_leaves=31
num_cat=0
split_feature=0 0 0 0 0 0 0 16 16 0 12 16 15 15 0 12 0 16 0 0 12 6 12 12 6 0 0 0 17 16
split_gain=38573.7 8996.11 6157.82 1291.94 1200.14 1181.89 1078.38 319.324 284.005 277.653 272.96 241.663 216.178 192.719 184.809 160.186 151.14 132.338 110.914 98.8418 91.6683 80.7395 79.2528 78.2429 76.7901 73.4513 73.2511 73.1238 72.7925 64.4759
threshold=26.750000000000004 31.750000000000004 22.350000000000005 24.550000000000004 29.050000000000004 34.45000000000001 19.350000000000005 -0.37940952255126015 -0.37940952255126015 36.350000000000001 14.500000000000002 -0.37940952255126015 0.25881904510252091 1.0000000180025095e-35 21.050000000000004 6.5000000000000009 30.450000000000003 -0.37940952255126015 23.450000000000003 25.550000000000004 14.500000000000002 75.500000000000014 6.5000000000000009 17.500000000000004 84.500000000000014 32.95000000000001 28.150000000000002 17.650000000000002 0.68301270189221941 -0.78656609248549325
decision_type=2 2 2 2 2 2 2 2 2 2 2 2 2 2 2 2 2 2 2 2 2 2 2 2 2 2 2 2 2 2
left_child=2 4 6 8 10 13 17 21 24 20 15 -8 16 25 -13 -2 29 -1 -10 -9 -7 -5 -14 -11 -4 -3 -12 -19 -17 -6
right_child=1 5 3 7 12 9 11 19 18 23 26 14 22 -15 -16 28 -18 27 -20 -21 -22 -23 -24 -25 -26 -27 -28 -29 -30 -31
leaf_value=-0.39112865265379559 0.06274183880550277 0.34543641467994834 -0.05624938304835593 0.051582053296592795 0.23568179869348077 0.65430403421091476 -0.21464751422819167 -0.11657364204310568 -0.24195292371447824 0.75352464703222122 0.00737055757388589 -0.4170390870484007 0.21872324096529105 0.54627406404475976 -0.3170083613575253 0.14948486387012369 0.27649804993137106 -0.64368368550350796 -0.17887186397331856 -0.050900128509642352 0.52258380982127506 -0.03850743961278591 0.38275324251815568 0.55834825246230424 -0.16335475390607662 0.43519595167731162 0.084756887578076201 -0.5352416486210293 0.26121917205917489 0.15616818113489353
leaf_weight=47 223 188 171 281 157 86 144 467 562 192 320 301 38 99 478 409 292 95 553 450 137 154 131 23 110 177 198 180 68 291
leaf_count=47 223 188 171 281 157 86 144 467 562 192 320 301 38 99 478 409 292 95 553 450 137 154 131 23 110 177 198 180 68 291
internal_value=0 0.269101 -0.204134 -0.120547 0.156874 0.533742 -0.38863 -0.0508732 -0.188024 0.651559 0.091982 -0.33366 0.243825 0.422528 -0.35566 0.132705 0.220519 -0.5462 -0.210667 -0.0843456 0.573382 0.0196883 0.345871 0.732645 -0.0981768 0.388964 0.0369507 -0.572703 0.165413 0.184033
internal_weight=0 3029 3993 2748 2127 902 1245 1352 1396 438 1218 923 909 464 779 700 740 322 1115 917 223 435 169 215 281 365 518 275 477 448
internal_count=7022 3029 3993 2748 2127 902 1245 1352 1396 438 1218 923 909 464 779 700 740 322 1115 917 223 435 169 215 281 365 518 275 477 448
is_linear=0
shrinkage=0.1


Tree=5
num_leaves=31
num_cat=0
split_feature=0 0 0 0 0 0 0 0 16 12 2 0 3 15 16 16 16 12 16 0 12 0 17 0 18 12 0 0 0 0
split_gain=31329.3 6297.26 5829.38 1759.38 931.483 684.912 629.405 283.621 237.74 223.694 219.927 204.987 194.874 171.223 115.674 107.194 101.177 94.6263 92.2116 91.3458 81.1168 79.7404 79.4848 75.2566 69.614 68.6052 61.6278 60.1219 52.5288 47.513
threshold=27.550000000000004 23.750000000000004 32.650000000000013 20.950000000000003 29.950000000000003 25.650000000000002 36.050000000000004 19.350000000000005 -0.12940952255126037 15.500000000000002 25.950000000000003 22.350000000000005 29.150000000000002 1.0000000180025095e-35 -0.12940952255126037 -0.37940952255126015 -0.12940952255126037 6.5000000000000009 -0.37940952255126015 34.050000000000004 17.500000000000004 31.350000000000005 0.68301270189221941 31.250000000000004 0.25000000000000017 11.500000000000002 28.550000000000004 17.450000000000003 38.850000000000001 24.550000000000004
decision_type=2 2 2 2 2 2 2 2 2 2 2 2 2 2 2 2 2 2 2 2 2 2 2 2 2 2 2 2 2 2
left_child=1 3 4 7 9 8 13 15 22 17 -7 14 21 19 -5 -1 -13 -2 -9 -4 28 -6 -3 -14 -12 -19 -11 -17 -8 -10
right_child=2 5 6 11 12 10 20 18 29 26 24 16 23 -15 -16 27 -18 25 -20 -21 -22 -23 -24 -25 -26 -27 -28 -29 -30 -31
leaf_value=-0.3520157854607765 0.096162859337955875 -0.049551163786400454 0.36764513104339769 -0.198056761904154 0.29963771739521544 0.072626860459345063 0.64535275071354237 -0.22174625646236332 -0.15516081088367212 0.028301358697382969 -0.0011001905633611952 -0.13459679361630753 0.19283683261180179 0.56148024741734304 -0.29699520326293677 -0.59041171878963328 -0.21461170602667923 0.22712504780202203 -0.3794970089819894 0.46715713518281138 0.49301776806513464 0.41196129893263178 0.094608744584717033 0.2773504232002803 -0.069416679678963394 0.1547216834616244 0.1064189439383792 -0.48627476246670043 0.7735582938561073 -0.10727759728544713
leaf_weight=47 179 346 183 160 185 376 177 43 367 200 482 207 235 107 452 77 668 198 268 186 30 96 43 191 216 386 204 198 39 476
leaf_count=47 179 346 183 160 185 376 177 43 367 200 482 207 235 107 452 77 668 198 268 186 30 96 43 191 216 386 204 198 39 476
internal_value=0 -0.161768 0.275803 -0.286171 0.18279 -0.0473986 0.517224 -0.425796 -0.098283 0.127914 0.0109715 -0.226734 0.273369 0.450102 -0.271129 -0.49158 -0.195682 0.159773 -0.357686 0.417806 0.647101 0.338012 -0.0336157 0.230729 -0.0222411 0.179269 0.0677469 -0.515433 0.668501 -0.128124
internal_weight=0 4426 2596 2120 1874 2306 722 633 1232 1167 1074 1487 707 476 612 322 875 763 311 369 246 281 389 426 698 584 404 275 216 843
internal_count=7022 4426 2596 2120 1874 2306 722 633 1232 1167 1074 1487 707 476 612 322 875 763 311 369 246 281 389 426 698 584 404 275 216 843
is_linear=0
shrinkage=0.1


Tree=6
num_leaves=31
num_cat=0
split_feature=0 0 0 0 0 0 0 15 16 12 16 16 15 0 0 12 0 16 0 12 0 5 0 0 0 12 18 15 12 16
split_gain=25420.7 5425.68 4439.31 1005.12 791.212 706.961 670.611 197.588 192.587 177.263 174.88 168.282 156.357 151.168 132.373 124.31 120.06 99.4488 86.919 84.6145 71.6285 67.2828 59.514 58.509 57.8925 53.8131 52.2305 51.7649 51.5508 49.8595
threshold=27.050000000000004 31.750000000000004 22.950000000000003 19.950000000000003 35.050000000000004 24.950000000000003 29.150000000000002 1.0000000180025095e-35 -0.12940952255126037 14.500000000000002 -0.37940952255126015 -0.12940952255126037 0.25881904510252091 21.550000000000004 37.250000000000007 6.5000000000000009 17.850000000000005 1.0000000180025095e-35 30.750000000000004 6.5000000000000009 33.750000000000007 30.750000000000004 26.350000000000005 23.950000000000003 25.950000000000003 6.5000000000000009 1.0000000180025095e-35 -0.91597561503675329 10.500000000000002 -0.78656609248549325
decision_type=2 2 2 2 2 2 2 2 2 2 2 2 2 2 2 2 2 2 2 2 2 2 2 2 2 2 2 2 2 2
left_child=2 6 3 16 10 11 9 22 -5 19 20 26 18 -10 21 -9 -1 -18 29 -2 -3 -6 -7 -13 -17 -14 -4 -11 -21 -8
right_child=1 4 5 8 14 7 12 15 13 27 -12 23 25 -15 -16 24 17 -19 -20 28 -22 -23 -24 -25 -26 -27 -28 -29 -30 -31
leaf_value=-0.5012831176510294 0.063292461452398072 0.3708570383693004 -0.099636535942989102 -0.17266438438267007 0.55867547209446256 -0.085600607377476989 0.20237801196979502 -0.03589993373732487 -0.3208476175100376 -0.0022943283182386524 0.29112287683689847 -0.1738732246856308 0.18547478963931402 -0.23455165406102363 0.62459125631917134 0.01490868304227894 -0.28939048143533558 -0.42214883215287158 0.23507611704427142 0.19734596774334046 0.47276569723373368 0.44878277391195298 -0.020846963798422539 -0.1241543878669263 0.09339656461533663 0.32487526327371596 -0.020136361760829669 0.065057525268396907 0.12152178036873458 0.13545454288570088
leaf_weight=131 187 201 206 305 104 400 171 265 312 189 235 481 36 581 137 191 78 204 215 127 105 120 220 466 185 120 138 288 305 319
leaf_count=131 187 201 206 305 104 400 171 265 312 189 235 481 36 581 137 191 78 204 215 127 105 120 220 466 185 120 138 288 305 319
internal_value=0 0.229593 -0.157677 -0.287648 0.432507 -0.0756297 0.136068 -0.0223744 -0.24127 0.084184 0.356001 -0.127647 0.202114 -0.264702 0.547161 0.0165561 -0.422177 -0.385428 0.182068 0.119488 0.405826 0.499804 -0.0626235 -0.149408 0.0535264 0.292706 -0.067744 0.0383709 0.143813 0.158809
internal_weight=0 2859 4163 1611 902 2552 1957 1261 1198 1096 541 1291 861 893 361 641 413 282 705 619 306 224 620 947 376 156 344 477 432 490
internal_count=7022 2859 4163 1611 902 2552 1957 1261 1198 1096 541 1291 861 893 361 641 413 282 705 619 306 224 620 947 376 156 344 477 432 490
is_linear=0
shrinkage=0.1


Tree=7
num_leaves=31
num_cat=0
split_feature=0 0 0 0 0 0 0 0 15 16 15 16 0 16 12 16 1 1 3 17 17 12 0 3 15 8 15 0 0 0
split_gain=20652.8 4532.85 3505.76 1166.25 565.263 539.66 352.296 193.61 173.196 162.404 157.235 142.029 137.568 110.227 108.909 105.055 78.3695 75.5702 67.586 68.8873 61.6213 58.8509 47.9857 46.2452 45.928 43.4119 42.2676 41.0068 40.4568 38.7698
threshold=27.850000000000005 23.750000000000004 32.95000000000001 20.950000000000003 30.450000000000003 25.650000000000002 36.250000000000007 18.150000000000002 1.0000000180025095e-35 -0.12940952255126037 -0.91597561503675329 -0.60355339059327384 22.350000000000005 1.0000000180025095e-35 6.5000000000000009 -0.78656609248549325 20.950000000000003 21.850000000000005 28.150000000000002 0.68301270189221941 0.68301270189221941 10.500000000000002 38.350000000000001 37.050000000000004 -0.91597561503675329 44.500000000000007 -0.98296291314453399 19.650000000000002 28.750000000000004 34.750000000000007
decision_type=2 2 2 2 2 2 2 2 2 2 2 2 2 2 2 2 2 2 2 2 2 2 2 2 2 2 2 2 2 2
left_child=1 3 4 7 10 9 15 -1 24 20 -2 21 16 -9 -10 -4 -5 -14 19 28 -3 -6 23 -8 -7 -11 -13 -15 -12 -17
right_child=2 5 6 12 11 8 22 13 14 25 18 26 17 27 -16 29 -18 -19 -20 -21 -22 -23 -24 -25 -26 -27 -28 -29 -30 -31
leaf_value=-0.43744682532090406 0.036696051891201023 -0.040208768125252016 0.44270517354953792 -0.10951024869392659 0.39305207753181459 -0.06019304300282801 0.53869393327019433 -0.23037004948647555 -0.00086761905783505156 -0.14679255906273336 0.11411253952075828 0.0911345601465334 -0.052793127653144659 -0.38178463870081414 0.086967149997750917 0.31097766011039174 -0.23168468603507925 -0.1664853952568153 0.10844161869147605 0.24731475077097931 0.086722310026024665 0.27291416479991032 0.60595022187088476 0.41739111407236618 -0.0033421091536970774 -0.092173343831062793 0.20913968300019051 -0.31179105205969382 0.1728445267526012 0.38661318426502161
leaf_weight=169 183 346 167 58 50 212 110 121 231 187 213 34 63 145 363 163 554 812 443 79 43 221 66 44 431 656 283 198 261 116
leaf_count=169 183 346 167 58 50 212 110 121 231 187 213 34 63 145 363 163 554 812 443 79 43 221 66 44 431 656 283 198 261 116
internal_value=0 -0.124874 0.23553 -0.232129 0.161835 -0.0327792 0.431055 -0.345808 0.0138782 -0.0796259 0.121893 0.241925 -0.183737 -0.312431 0.0528092 0.379974 -0.220106 -0.1583 0.137546 0.160861 -0.0261778 0.29508 0.53461 0.504036 -0.0220861 -0.104289 0.196483 -0.34138 0.146452 0.342425
internal_weight=0 4589 2433 2120 1767 2469 666 633 1237 1232 1179 588 1487 464 594 446 612 875 996 553 389 271 220 154 643 843 317 343 474 279
internal_count=7022 4589 2433 2120 1767 2469 666 633 1237 1232 1179 588 1487 464 594 446 612 875 996 553 389 271 220 154 643 843 317 343 474 279
is_linear=0
shrinkage=0.1


Tree=8
num_leaves=31
num_cat=0
split_feature=0 0 0 0 0 0 0 16 16 0 2 16 16 15 16 0 12 14 0 12 0 18 0 0 7 12 0 12 10 15
split_gain=16780.7 3893.8 2671.46 662.207 525.051 490.277 433.229 161.749 131.454 124.749 124.653 119.213 106.493 105.632 86.8785 74.6188 64.875 62.1223 59.272 57.4766 55.6567 55.6129 54.3592 52.1433 45.1633 40.7631 39.1323 38.7806 38.2557 37.1791
threshold=26.750000000000004 31.250000000000004 22.550000000000004 34.45000000000001 19.850000000000005 24.350000000000005 28.450000000000003 -0.37940952255126015 -0.60355339059327384 36.750000000000007 28.050000000000004 -0.37940952255126015 -0.37940952255126015 1.0000000180025095e-35 -0.37940952255126015 21.350000000000005 13.500000000000002 4.5000000000000009 29.850000000000005 6.5000000000000009 29.950000000000003 0.6830127018922193 17.750000000000004 25.250000000000004 88.500000000000014 13.500000000000002 32.95000000000001 11.500000000000002 48.500000000000007 -0.91597561503675329
decision_type=2 2 2 2 2 2 2 2 2 2 2 2 2 2 2 2 2 2 2 2 2 2 2 2 2 2 2 2 2 2
left_child=2 6 4 8 14 12 13 17 27 16 20 24 -4 29 -1 -13 -5 -7 -12 -15 -8 23 -16 -9 -6 -19 -10 -3 -14 -2
right_child=1 3 5 9 11 7 10 21 26 -11 18 15 28 19 22 -17 -18 25 -20 -21 -22 -23 -24 -25 -26 -27 -28 -29 -30 -31
leaf_value=-0.23391419351100923 -0.023867581931791636 0.37630773097276693 -0.063551205301389149 0.45920757423212505 -0.088185602962970733 0.092586306959100362 0.16527945321147977 -0.078377823344949485 0.19455614725011403 0.49355125781148673 0.091718545988402969 -0.26211278964155399 -0.17536005840087548 0.033967638493993799 -0.42425101825169159 -0.19955833398233183 0.3511589137005941 0.0083533574557272585 0.14825205917086673 0.11140578154899071 0.25626990896590213 -0.11903996277600526 -0.33770491929764446 -0.029625049620735075 -0.20035153520958768 -0.080063101114524957 0.26753953895648991 0.2932447282725541 -0.12850077443174429 0.034445450876800114
leaf_weight=60 158 80 224 81 100 77 236 394 192 180 408 313 234 148 105 488 177 328 340 272 94 140 235 495 56 62 119 189 682 355
leaf_count=60 158 80 224 81 100 77 236 394 192 180 408 313 234 148 105 488 177 328 340 272 94 140 235 495 56 62 119 189 682 355
internal_value=0 0.177491 -0.13464 0.336847 -0.248641 -0.0759533 0.0968219 -0.038306 0.266758 0.429658 0.140002 -0.208426 -0.125357 0.046931 -0.344855 -0.224002 0.385081 0.0105035 0.117416 0.0841181 0.191198 -0.0604576 -0.364432 -0.051232 -0.12845 -0.00570259 0.222482 0.317947 -0.140471 0.0164855
internal_weight=0 3029 3993 1018 1357 2636 2011 1496 580 438 1078 957 1140 933 400 801 258 467 748 420 330 1029 340 889 156 390 311 269 916 513
internal_count=7022 3029 3993 1018 1357 2636 2011 1496 580 438 1078 957 1140 933 400 801 258 467 748 420 330 1029 340 889 156 390 311 269 916 513
is_linear=0
shrinkage=0.1


Tree=9
num_leaves=31
num_cat=0
split_feature=0 0 0 0 0 0 0 0 16 15 15 2 16 15 0 12 16 15 18 12 12 12 16 17 18 15 15 16 18 0
split_gain=13610 3180.48 2139.97 799.685 386.075 312.728 232.923 155.277 130.322 107.941 103.472 100.077 92.4887 76.551 72.6158 68.4557 66.316 56.1021 51.5423 51.2377 50.105 47.4494 43.8072 41.6782 41.338 40.808 36.0997 32.9135 32.2576 32.1665
threshold=28.050000000000004 23.850000000000005 32.95000000000001 21.150000000000002 26.150000000000002 30.450000000000003 36.050000000000004 18.950000000000003 -0.12940952255126037 0.25881904510252091 -0.91597561503675329 29.550000000000004 -0.12940952255126037 1.0000000180025095e-35 22.650000000000002 13.500000000000002 1.0000000180025095e-35 0.25881904510252091 1.0000000180025095e-35 17.500000000000004 5.5000000000000009 6.5000000000000009 -0.37940952255126015 0.68301270189221941 -0.24999999999999994 -0.98296291314453399 -0.91597561503675329 -0.12940952255126037 0.25000000000000017 30.950000000000003
decision_type=2 2 2 2 2 2 2 2 2 2 2 2 2 2 2 2 2 2 2 2 2 2 2 2 2 2 2 2 2 2
left_child=1 3 5 7 8 10 13 22 15 26 28 -7 18 27 -14 23 -9 -12 -5 -8 -11 -19 -1 -3 -10 -13 -6 -4 -2 -27
right_child=2 4 6 12 9 11 19 16 24 20 17 25 14 -15 -16 -17 -18 21 -20 -21 -22 -23 -24 -25 -26 29 -28 -29 -30 -31
leaf_value=-0.23531910086932936 0.071581410296241071 -0.010176338259483076 0.30602441040714784 -0.13747228141000961 -0.037137064245594216 0.25924457280976432 0.44398234332739206 -0.17144852512705644 -0.054874240629096162 0.014558242513011247 0.10334426119246268 0.064063562167917976 -0.18549282918299051 0.38182808574365112 -0.13431552557631787 -0.10823677577651465 -0.26034678639444103 0.09284840037357317 -0.063199199227984629 0.30451430181662242 0.090229949267813941 0.18967624424081861 -0.35140187252892391 0.082327357546559399 -0.096205194383903625 0.12660018268686077 0.014857930321528327 0.24022294100888864 -0.017441670601702718 0.19480333471567268
leaf_weight=38 92 374 199 192 187 175 216 113 481 129 660 34 532 98 579 65 326 73 182 30 272 165 225 56 487 91 467 123 73 288
leaf_count=38 92 374 199 192 187 175 216 113 481 129 660 34 532 98 579 65 326 73 182 30 272 165 225 56 487 91 467 123 73 288
internal_value=0 -0.0976971 0.198388 -0.185918 -0.0210734 0.137349 0.349701 -0.273866 -0.054325 0.0250375 0.10498 0.195867 -0.144342 0.304442 -0.158822 -0.0125879 -0.237464 0.118354 -0.101329 0.426974 0.0658867 0.159977 -0.334629 0.00187065 -0.0756678 0.169012 -9.13999e-06 0.280889 0.0321954 0.178427
internal_weight=0 4705 2317 2187 2518 1651 666 702 1463 1055 1063 588 1485 420 1111 495 439 898 374 246 401 238 263 430 968 413 654 322 165 379
internal_count=7022 4705 2317 2187 2518 1651 666 702 1463 1055 1063 588 1485 420 1111 495 439 898 374 246 401 238 263 430 968 413 654 322 165 379
is_linear=0
shrinkage=0.1


Tree=10
num_leaves=31
num_cat=0
split_feature=0 0 0 0 0 0 0 15 16 15 15 12 16 0 12 16 0 0 5 12 15 0 0 6 0 18 6 6 15 18
split_gain=11055.7 2298.83 1986.4 438.435 331.209 323.906 306.546 107.338 91.7768 85.8882 84.7464 83.2278 72.1344 68.9375 61.5181 59.8098 59.6766 55.5823 48.3623 44.5872 41.8971 41.7314 40.3096 39.5811 35.7503 34.8721 27.3434 26.7366 25.8794 25.3308
threshold=27.150000000000002 32.050000000000004 22.950000000000003 20.050000000000004 24.850000000000005 29.250000000000004 35.45000000000001 0.25881904510252091 -0.12940952255126037 0.25881904510252091 1.0000000180025095e-35 14.500000000000002 -0.37940952255126015 17.550000000000004 5.5000000000000009 1.0000000180025095e-35 21.650000000000002 38.350000000000001 33.250000000000007 5.5000000000000009 -0.91597561503675329 33.850000000000001 30.850000000000005 67.500000000000014 26.350000000000005 0.25000000000000017 92.500000000000014 62.500000000000007 -0.91597561503675329 -0.5
decision_type=2 2 2 2 2 2 2 2 2 2 2 2 2 2 2 2 2 2 2 2 2 2 2 2 2 2 2 2 2 2
left_child=2 5 3 13 12 11 10 24 26 20 21 19 -4 -1 -9 -15 -10 18 -8 -2 29 -3 -22 -16 -6 -14 -5 -21 -13 -7
right_child=1 6 4 8 7 9 17 14 16 -11 -12 28 25 15 23 -17 -18 -19 -20 27 22 -23 -24 -25 -26 -27 -28 -29 -30 -31
leaf_value=-0.34967569616652028 0.037856477812115402 0.1987194896085685 -0.039075525141856908 -0.093035452393609788 -0.054811106233403552 0.11957210074771535 0.38645564344796268 -0.028279634502684999 -0.20812535490726403 0.2072597101151657 0.32028286103474896 -0.0020611854330185924 -0.083689310371556108 -0.18625782018012191 0.07327677529958608 -0.28008728285225071 -0.1541473083860645 0.45202447481904973 0.29683306417786159 0.11600406144480438 0.11747612963883343 0.2641963910288031 0.17225796450388256 0.0096264715516008442 -0.010433185619665638 -0.12268275597150409 -0.16413915530896525 0.064353683110947413 0.045600260317414293 0.025986974820738935
leaf_weight=97 163 251 259 227 500 55 143 193 326 156 118 186 606 94 191 245 551 66 104 302 397 159 203 200 285 369 71 150 294 61
leaf_count=97 163 251 259 227 500 55 143 193 326 156 118 186 606 94 191 245 551 66 104 302 397 159 203 200 285 369 71 150 294 61
internal_value=0 0.153713 -0.102427 -0.189699 -0.0484142 0.0945504 0.292089 -0.0145477 -0.157921 0.140024 0.245605 0.0583379 -0.0859856 -0.27534 0.0179164 -0.25407 -0.174212 0.370503 0.34872 0.0826941 0.125374 0.224112 0.136011 0.0407191 -0.0386994 -0.0984468 -0.109976 0.0988634 0.0271315 0.0703592
internal_weight=0 2808 4214 1611 2603 1967 841 1369 1175 872 528 1095 1234 436 584 339 877 313 247 615 716 410 600 391 785 975 298 452 480 116
internal_count=7022 2808 4214 1611 2603 1967 841 1369 1175 872 528 1095 1234 436 584 339 877 313 247 615 716 410 600 391 785 975 298 452 480 116
is_linear=0
shrinkage=0.1


Tree=11
num_leaves=31
num_cat=0
split_feature=0 0 0 0 0 0 0 15 16 2 16 2 16 0 7 16 12 6 12 12 15 11 7 9 6 15 0 12 15 0
split_gain=8974.37 2101.03 1408.52 446.609 333.645 181.052 179.166 93.4664 79.9492 78.0415 72.3127 68.472 67.4929 64.8851 62.5652 49.5199 47.5343 39.9177 36.4559 34.4107 33.6363 33.3091 32.7168 32.3046 31.4107 30.4222 25.5051 29.6348 24.5388 26.5719
threshold=28.050000000000004 23.450000000000003 32.650000000000013 20.350000000000005 25.550000000000004 36.050000000000004 29.950000000000003 0.25881904510252091 -0.12940952255126037 29.550000000000004 -0.12940952255126037 28.050000000000004 -0.37940952255126015 17.650000000000002 73.500000000000014 1.0000000180025095e-35 6.5000000000000009 74.500000000000014 17.500000000000004 10.500000000000002 -0.91597561503675329 60.500000000000007 40.500000000000007 38.500000000000007 92.500000000000014 -0.91597561503675329 38.850000000000001 13.500000000000002 -0.98296291314453399 30.950000000000003
decision_type=2 2 2 2 2 2 2 2 2 2 2 2 2 2 2 2 2 2 2 2 2 2 2 2 2 2 2 2 2 2
left_child=1 3 6 13 10 12 11 20 24 19 17 -2 -4 -1 -10 -15 -9 -3 26 -8 22 -18 -6 -12 -5 -13 27 -7 -11 -30
right_child=2 4 5 8 7 18 9 16 14 28 23 25 -14 15 -16 -17 21 -19 -20 -21 -22 -23 -24 -25 -26 -27 -28 -29 29 -31
leaf_value=-0.31120751017615911 0.11415646211127062 0.015595813474582533 0.27262503716253467 -0.075027534351667702 -0.11070246472954751 0.40058466763265677 0.25428724609888514 0.0056220108668806907 -0.17036040654684614 0.040306685211629993 -0.11112152849319119 0.015730526680471722 0.19617154002189638 -0.1650697733792994 -0.12209825608095055 -0.24474064442610827 0.1146182185419056 -0.048766702284418081 0.24334495544433593 0.16933821672209481 0.0019320766563590581 0.045596333997721068 -0.022285086287233118 -0.064935139932375152 -0.14743545616143627 0.070380004304433127 0.43419247773977426 0.31481318892344184 0.099431736089124534 0.14982525716130171
leaf_weight=105 338 158 279 283 54 62 65 218 508 34 189 135 197 108 570 281 98 247 30 179 618 244 186 762 76 415 39 115 181 248
leaf_count=105 338 158 279 283 54 62 65 218 508 34 189 135 197 108 570 281 98 247 30 179 618 244 186 762 76 415 39 115 181 248
internal_value=0 -0.0793331 0.161097 -0.159427 -0.0235793 0.276983 0.10864 0.0103348 -0.13123 0.146201 -0.0590441 0.0787345 0.240984 -0.24145 -0.144841 -0.222621 0.0421137 -0.0236574 0.346641 0.191968 -0.0104067 0.0653745 -0.042179 -0.0741141 -0.0903562 0.056966 0.360987 0.344857 0.122083 0.128564
internal_weight=0 4705 2317 1931 2774 722 1595 1418 1437 707 1356 888 476 494 1078 389 560 405 246 244 858 342 240 951 359 550 216 177 463 429
internal_count=7022 4705 2317 1931 2774 722 1595 1418 1437 707 1356 888 476 494 1078 389 560 405 246 244 858 342 240 951 359 550 216 177 463 429
is_linear=0
shrinkage=0.1


Tree=12
num_leaves=31
num_cat=0
split_feature=0 0 0 0 0 0 0 15 16 12 16 15 15 12 11 1 0 0 16 16 6 12 12 11 0 12 18 18 11 12
split_gain=7301.29 1690.28 1181.26 301.507 234.562 214.935 193.104 89.3298 71.2073 66.6068 65.2439 64.6087 54.1382 53.6554 48.1914 42.9633 41.1327 35.7663 36.974 33.5538 32.781 28.8475 28.358 27.9594 27.3356 26.9806 23.4154 22.3494 20.3228 19.4838
threshold=26.750000000000004 31.250000000000004 22.550000000000004 34.45000000000001 19.350000000000005 24.150000000000002 28.550000000000004 0.25881904510252091 -0.60355339059327384 17.500000000000004 -0.37940952255126015 0.25881904510252091 1.0000000180025095e-35 5.5000000000000009 69.500000000000014 22.450000000000003 37.650000000000013 16.650000000000002 1.0000000180025095e-35 -0.9159756150367534 67.500000000000014 6.5000000000000009 6.5000000000000009 83.500000000000014 25.250000000000004 13.500000000000002 -0.5 0.6830127018922193 65.500000000000014 11.500000000000002
decision_type=2 2 2 2 2 2 2 2 2 2 2 2 2 2 2 2 2 2 2 2 2 2 2 2 2 2 2 2 2 2
left_child=2 6 4 8 17 15 12 24 29 16 23 19 -2 -9 -12 -4 25 -1 -19 -8 -15 -13 -14 -6 -7 -5 -21 -17 -24 -3
right_child=1 3 5 9 10 7 11 13 -10 -11 14 21 22 20 -16 27 -18 18 -20 26 -22 -23 28 -25 -26 -27 -28 -29 -30 -31
leaf_value=-0.330268847314935 0.01092701329369582 0.25381808623671537 -0.026492770492534984 0.32160566998463053 -0.051627941772926095 -0.067661138974083004 0.11949800687722406 -0.037201712521925279 0.14218983125193135 0.20156590376473682 -0.17199451867671847 0.087064105868339542 0.023756872136145829 0.052819670348738634 -0.12394526026336386 -0.085406506026660917 0.35671818585080262 -0.16780553073078008 -0.24897203514541408 0.093787893667592437 -0.0020020931841874564 0.16674158968376798 0.11527226471131849 -0.13477938264163572 -0.03270690668335495 0.25538003425444328 0.054686426053297925 -0.12562478158403845 0.058318589693953982 0.19494218693050758
leaf_weight=38 540 80 109 102 102 395 179 255 311 79 515 65 155 183 351 738 102 77 207 257 270 151 93 67 516 155 379 170 192 189
leaf_count=38 540 80 109 102 102 395 179 255 311 79 515 65 155 183 351 738 102 77 207 257 270 151 93 67 516 155 379 170 192 189
internal_value=0 0.117076 -0.0888116 0.22207 -0.164618 -0.0497867 0.0639271 -0.027155 0.174777 0.284696 -0.141428 0.0941386 0.0321433 -0.00050989 -0.15252 -0.0858151 0.302989 -0.239157 -0.226966 0.0812513 0.0201444 0.142765 0.0581814 -0.0845933 -0.0478627 0.281664 0.0704869 -0.0929364 0.0769035 0.212452
internal_weight=0 3029 3993 1018 1357 2636 2011 1619 580 438 1035 1031 980 708 866 1017 359 322 284 815 453 216 440 169 911 257 636 908 285 269
internal_count=7022 3029 3993 1018 1357 2636 2011 1619 580 438 1035 1031 980 708 866 1017 359 322 284 815 453 216 440 169 911 257 636 908 285 269
is_linear=0
shrinkage=0.1


Tree=13
num_leaves=31
num_cat=0
split_feature=0 0 0 0 0 0 0 12 15 2 15 3 0 16 2 12 18 16 16 12 12 18 17 0 5 0 15 18 15 11
split_gain=5939.16 1518.38 848.709 248.582 196.747 176.222 135.021 66.9477 63.5322 62.7712 53.8833 52.9853 43.2699 38.9706 38.8486 30.9393 30.9203 29.6439 27.9485 24.3386 22.1781 22.1622 21.9683 21.5481 21.2658 21.1224 20.7401 19.6093 20.8089 19.4707
threshold=26.350000000000005 31.250000000000004 22.050000000000004 33.850000000000001 28.450000000000003 24.050000000000004 19.250000000000004 17.500000000000004 1.0000000180025095e-35 23.750000000000004 0.25881904510252091 30.550000000000004 37.250000000000007 -0.37940952255126015 21.650000000000002 6.5000000000000009 0.6830127018922193 -0.37940952255126015 -0.9159756150367534 6.5000000000000009 13.500000000000002 0.6830127018922193 -0.6830127018922193 25.150000000000002 37.550000000000004 16.650000000000002 -0.91597561503675329 -0.5 -0.91597561503675329 87.500000000000014
decision_type=2 2 2 2 2 2 2 2 2 2 2 2 2 2 2 2 2 2 2 2 2 2 2 2 2 2 2 2 2 2
left_child=2 4 6 11 8 14 17 12 26 -7 18 -3 20 29 -4 -10 23 -1 -6 -12 -5 -16 -15 -11 -9 -19 -2 -20 -29 -8
right_child=1 3 5 7 10 9 13 24 15 16 19 -13 -14 22 21 -17 -18 25 27 -21 -22 -23 -24 -25 -26 -27 -28 28 -30 -31
leaf_value=-0.14314781858565959 -0.022278484238159372 0.1865857998110319 -0.020630254355965411 0.27783910507957138 0.10595056147920708 0.012203151627909394 -0.057457573744468395 0.11970226224966166 0.017527034892625509 -0.05052276449128687 0.077450728438038755 0.12045583965230296 0.31485625597238542 -0.11524323417692428 -0.081445266162608193 0.068308612262725429 -0.083528760263636231 -0.30290641924914197 0.083567365912451438 0.14870770089565569 0.2220870516178283 -0.11589255324703583 -0.15824822097192293 -0.021554472182610203 0.21252866622901734 -0.21850910150799258 0.015871034782716117 0.0027961602385039443 0.059817150062735892 -0.14874857413497838
leaf_weight=47 211 213 91 120 189 262 80 41 186 499 69 281 125 157 910 338 155 34 263 157 176 235 488 529 62 232 439 80 320 33
leaf_count=47 211 213 91 120 189 262 80 41 186 499 69 281 125 157 910 338 155 34 263 157 176 235 488 529 62 232 439 80 320 33
internal_value=0 0.0985121 -0.0858568 0.199863 0.0526973 -0.0557964 -0.161106 0.247843 0.0243739 -0.0320851 0.0835429 0.148969 0.265523 -0.13829 -0.0835172 0.0502831 -0.0418936 -0.216361 0.0720282 0.126952 0.244689 -0.0885152 -0.14778 -0.0356159 0.175578 -0.229297 0.00348711 0.0623581 0.048413 -0.0841178
internal_weight=0 3270 3752 1018 2252 2681 1071 524 1174 1445 1078 494 421 758 1236 524 1183 313 852 226 296 1145 645 1028 103 266 650 663 400 113
internal_count=7022 3270 3752 1018 2252 2681 1071 524 1174 1445 1078 494 421 758 1236 524 1183 313 852 226 296 1145 645 1028 103 266 650 663 400 113
is_linear=0
shrinkage=0.1


Tree=14
num_leaves=31
num_cat=0
split_feature=0 0 0 0 0 0 0 15 0 16 16 2 15 16 14 16 12 18 0 1 7 18 0 9 5 11 18 12 12 14
split_gain=4813.5 954.116 924.212 215.355 168.699 140.562 100.964 57.6519 52.4984 51.1561 43.8125 42.2903 42.1447 41.6412 37.1047 30.686 27.9268 23.9878 23.0271 26.633 22.3761 22.0507 21.0376 20.8217 20.6617 20.4905 19.4737 18.8602 17.76 17.4036
threshold=27.350000000000005 32.650000000000013 23.150000000000002 20.950000000000003 29.750000000000004 25.150000000000002 36.650000000000013 0.25881904510252091 18.150000000000002 -0.37940952255126015 -0.12940952255126037 22.450000000000003 -0.91597561503675329 -0.12940952255126037 6.5000000000000009 -0.37940952255126015 5.5000000000000009 0.25000000000000017 28.250000000000004 27.850000000000005 72.500000000000014 0.6830127018922193 34.050000000000004 43.500000000000007 21.150000000000002 83.500000000000014 0.6830127018922193 15.500000000000002 10.500000000000002 4.5000000000000009
decision_type=2 2 2 2 2 2 2 2 2 2 2 2 2 2 2 2 2 2 2 2 2 2 2 2 2 2 2 2 2 2
left_child=2 4 3 8 12 11 10 24 -1 14 22 -4 21 25 28 -10 -9 -11 -14 -20 -15 -2 -3 -13 -7 -5 -26 -8 -6 -18
right_child=1 6 5 13 9 7 27 16 15 17 -12 23 18 20 -16 -17 29 -19 19 -21 -22 -23 -24 -25 26 -27 -28 -29 -30 -31
leaf_value=-0.21635981219760062 0.020815660927770988 0.17041791180124533 -0.00012781818960283005 -0.03204799281241047 0.19043835467762418 0.031055816685530681 0.2911371763633645 -0.012329369813327076 -0.089202094356091152 0.085704372026171399 0.13539701388707678 -0.085730129916753092 0.035036927943532713 -0.1256071090361493 0.084496668045935419 -0.16191764577019097 0.075513444773175509 0.0042825678772315749 0.10466307501911241 0.0542412036869536 -0.09214683495794701 -0.059515050505417305 0.2183443380239527 -0.050948394116301504 -0.018815839857197848 -0.086666768230806226 -0.061023742502199156 0.22668006547292074 0.13349788409523569 0.024305471535599619
leaf_weight=169 142 154 146 126 72 67 115 170 68 308 152 210 412 354 138 396 88 41 136 456 459 45 226 954 557 151 136 75 229 270
leaf_count=169 142 154 146 126 72 67 115 170 68 308 152 210 412 354 138 396 88 41 136 456 459 45 226 954 557 151 136 75 229 270
internal_value=0 0.10472 -0.0654591 -0.122249 0.068821 -0.027796 0.20312 -0.00433792 -0.168641 0.104715 0.180772 -0.0508601 0.0450722 -0.0953074 0.127433 -0.151261 0.0210448 0.0761391 0.0531906 0.0658246 -0.106716 0.00148474 0.198922 -0.0572234 -0.0219723 -0.0618221 -0.0270991 0.265694 0.147118 0.0368929
internal_weight=0 2701 4321 1723 1979 2598 722 1288 633 788 532 1310 1191 1090 439 464 528 349 1004 592 813 187 380 1164 760 277 693 190 301 358
internal_count=7022 2701 4321 1723 1979 2598 722 1288 633 788 532 1310 1191 1090 439 464 528 349 1004 592 813 187 380 1164 760 277 693 190 301 358
is_linear=0
shrinkage=0.1


Tree=15
num_leaves=31
num_cat=0
split_feature=0 0 0 0 0 0 0 12 15 12 15 15 16 12 0 16 12 18 16 12 5 16 9 14 0 18 11 18 14 15
split_gain=3926.79 1001.32 562.958 169.995 118.009 116.121 90.1194 47.531 45.9149 43.4472 42.3452 35.9857 30.7238 29.5006 27.1464 26.8186 25.2492 24.2276 23.2475 22.5454 18.2708 18.0632 17.7955 17.7855 16.9973 16.9711 16.8305 16.3272 15.5746 15.1296
threshold=26.350000000000005 31.150000000000002 22.050000000000004 34.050000000000004 28.550000000000004 24.150000000000002 19.150000000000002 14.500000000000002 0.25881904510252091 17.500000000000004 1.0000000180025095e-35 0.25881904510252091 -0.12940952255126037 5.5000000000000009 38.95000000000001 -0.37940952255126015 5.5000000000000009 1.0000000180025095e-35 1.0000000180025095e-35 13.500000000000002 37.45000000000001 -0.37940952255126015 44.500000000000007 4.5000000000000009 17.050000000000004 1.0000000180025095e-35 61.500000000000007 0.25000000000000017 7.5000000000000009 -0.91597561503675329
decision_type=2 2 2 2 2 2 2 2 2 2 2 2 2 2 2 2 2 2 2 2 2 2 2 2 2 2 2 2 2 2
left_child=2 4 6 10 7 12 18 13 29 14 -3 21 17 -2 19 -8 -10 -4 -1 -5 -11 28 -14 -18 -20 -9 -17 -23 -6 -7
right_child=1 3 5 9 11 8 15 25 16 20 -12 -13 22 -15 -16 26 23 -19 24 -21 -22 27 -24 -25 -26 -27 -28 -29 -30 -31
leaf_value=-0.13445906457544743 0.0064846272655686259 0.10813448494516331 -0.063593948456979493 0.24225588535916978 0.094078921737805521 -0.066190005029260965 -0.068795617051615285 0.016780038217723135 -0.031537196753759003 0.085635202527046206 0.17444757950161735 0.1039514576076208 -0.10083034497252258 0.051414812980683511 0.30520302996490944 -0.13509838585931111 0.050472520493230845 -0.0082930717063035165 -0.26429752419071811 0.19087283856351861 0.17654917066295941 0.050161433810624871 -0.068371055482304974 -0.0009260166067660095 -0.18409433293275992 -0.01946411612337794 -0.10287293244739769 -0.0085016640524069476 0.05595622665115401 -0.033505284713943845
leaf_weight=87 207 431 186 138 176 189 116 253 228 35 124 214 217 497 33 369 86 138 31 224 60 283 762 310 179 264 289 57 274 565
leaf_count=87 207 431 186 138 176 189 116 253 228 35 124 214 217 497 33 369 86 138 31 224 60 283 762 310 179 264 289 57 274 565
internal_value=0 0.0801025 -0.0698121 0.160848 0.0421793 -0.0453298 -0.131098 0.0212959 -0.0250924 0.203773 0.12295 0.0675763 -0.066732 0.0382038 0.218376 -0.113129 -0.0050271 -0.0400399 -0.177926 0.210461 0.143055 0.0577228 -0.0755658 0.0102363 -0.195934 -0.00172762 -0.120945 0.0403267 0.0708664 -0.0416981
internal_weight=0 3270 3752 1045 2225 2681 1071 1221 1378 490 555 1004 1303 704 395 774 624 324 297 362 95 790 979 396 210 517 658 340 450 754
internal_count=7022 3270 3752 1045 2225 2681 1071 1221 1378 490 555 1004 1303 704 395 774 624 324 297 362 95 790 979 396 210 517 658 340 450 754
is_linear=0
shrinkage=0.1


Tree=16
num_leaves=31
num_cat=0
split_feature=0 0 0 0 0 0 0 15 15 15 2 12 1 6 15 12 16 16 12 14 15 11 0 12 18 9 11 18 5 9
split_gain=3180.7 814.908 457.563 124.06 112.499 86.7151 80.7733 45.1123 38.195 37.2321 32.9783 28.0536 23.9237 23.2953 22.5903 21.9788 21.9512 21.6373 20.4454 20.3203 16.9377 16.3624 15.909 15.9051 15.6782 15.456 15.3495 15.2648 15.0288 17.3122
threshold=26.350000000000005 31.650000000000002 22.150000000000002 29.250000000000004 35.550000000000004 24.150000000000002 19.550000000000004 1.0000000180025095e-35 1.0000000180025095e-35 1.0000000180025095e-35 28.850000000000005 6.5000000000000009 21.950000000000003 61.500000000000007 -0.98296291314453399 5.5000000000000009 -0.37940952255126015 1.0000000180025095e-35 15.500000000000002 3.5000000000000004 -0.91597561503675329 88.500000000000014 17.150000000000002 10.500000000000002 -0.24999999999999994 50.500000000000007 31.500000000000004 -0.5 29.250000000000004 40.500000000000007
decision_type=2 2 2 2 2 2 2 2 2 2 2 2 2 2 2 2 2 2 2 2 2 2 2 2 2 2 2 2 2 2
left_child=2 3 6 7 8 12 17 20 14 25 23 -9 -4 -13 19 -11 21 -1 -6 -3 28 -8 -19 -5 -12 -7 -14 -17 29 -2
right_child=1 4 5 10 18 9 16 11 -10 15 24 13 26 -15 -16 27 -18 22 -20 -21 -22 -23 -24 -25 -26 -27 -28 -29 -30 -31
leaf_value=-0.11764473063605173 -0.08072001229350767 -0.022394115240736444 -0.0099671587135399808 0.14926015253710961 0.22433832179733187 -0.064724283667593419 -0.033707037817959383 0.016608642499483964 0.17337462475402751 -0.028498569548764077 0.072965180319269754 0.081233055515742475 -0.094376899508664208 0.033983859701352731 0.12073722344863674 -0.012672886120764396 -0.10494247334471707 -0.228723212277017 0.17206134983807578 0.11352113574235277 0.018844496167251618 -0.11709599336891463 -0.16051386267814824 0.08918886403800641 0.037846187464134817 -0.030370324581354954 -0.058708604467566594 0.024634624250104716 0.017817793335524145 -0.0091286778662419115
leaf_weight=105 48 22 92 56 171 182 82 234 139 289 311 230 137 191 437 208 667 41 133 22 632 33 206 207 215 467 1011 232 108 114
leaf_count=105 48 22 92 56 171 182 82 234 139 289 311 230 137 191 437 208 667 41 133 22 632 33 206 207 215 467 1011 232 108 114
internal_value=0 0.0720922 -0.0628309 0.0407628 0.151636 -0.0398474 -0.115892 0.0243929 0.127203 -0.0225831 0.0730669 0.0443679 -0.0590331 0.059797 0.113861 -0.00707382 -0.0979856 -0.155671 0.201467 0.0455635 0.00988782 -0.057636 -0.171836 0.10198 0.0586105 -0.0400043 -0.0629652 0.00699835 -0.0110774 -0.0303409
internal_weight=0 3270 3752 2346 924 2618 1134 1557 620 1378 789 655 1240 421 481 729 782 352 304 44 902 115 247 263 526 649 1148 440 270 162
internal_count=7022 3270 3752 2346 924 2618 1134 1557 620 1378 789 655 1240 421 481 729 782 352 304 44 902 115 247 263 526 649 1148 440 270 162
is_linear=0
shrinkage=0.1


Tree=17
num_leaves=31
num_cat=0
split_feature=0 0 0 0 0 0 0 15 16 0 1 16 12 18 17 12 16 1 14 14 8 14 15 0 0 2 10 0 16 14
split_gain=2591.73 561.16 463.557 134.078 84.9172 84.0972 45.8895 36.2353 35.5786 33.6759 29.7012 28.0944 25.7677 22.7115 22.4084 21.7034 20.9296 20.2011 19.1809 19.0563 14.7738 13.3984 13.2995 13.1226 13.0962 22.5483 12.8487 12.2745 12.6407 11.667
threshold=27.750000000000004 23.350000000000005 33.150000000000013 21.150000000000002 25.850000000000005 29.950000000000003 36.650000000000013 0.37940952255126054 -0.37940952255126015 18.450000000000003 26.050000000000004 -0.37940952255126015 5.5000000000000009 0.6830127018922193 0.68301270189221941 13.500000000000002 0.25881904510252057 21.050000000000004 2.5000000000000004 6.5000000000000009 36.500000000000007 3.5000000000000004 -0.91597561503675329 24.550000000000004 38.95000000000001 36.750000000000007 37.500000000000007 16.650000000000002 1.0000000180025095e-35 4.5000000000000009
decision_type=2 2 2 2 2 2 2 2 2 2 2 2 2 2 2 2 2 2 2 2 2 2 2 2 2 2 2 2 2 2
left_child=1 3 5 9 7 11 15 23 14 27 29 19 -9 -13 -7 -4 -11 -5 -10 -2 22 -14 -12 -3 25 -8 -19 -1 -29 -6
right_child=2 4 6 17 10 8 24 12 18 16 20 13 21 -15 -16 -17 -18 26 -20 -21 -22 -23 -24 -25 -26 -27 -28 28 -30 -31
leaf_value=-0.20720481856873163 0.076974177714392258 -0.056664071734673506 0.17114203151153484 -0.014536460576920021 0.069368581119924791 0.081592046323908721 0.22316172215845681 -0.034720267916338581 -0.0049887318900504775 -0.080096795081338865 -0.082590276630861423 0.026199688493402692 0.047280888855457309 -0.054587920539473235 0.12738441810839707 0.12339628113840224 -0.12282621717971305 -0.094249235657648867 0.066309440198472347 0.039597715664422141 0.0047375099039561582 -0.0039975335451425745 -0.015127398364908867 -0.032386610461125044 0.25314592403524067 0.14711858256708218 -0.064826010193035286 -0.10220795962214471 -0.1625153492417252 0.022444268218018683
leaf_weight=38 207 406 138 71 70 263 77 310 43 178 35 413 60 38 180 307 322 177 308 400 559 338 177 493 34 79 919 50 114 218
leaf_count=38 207 406 138 71 70 263 77 310 43 178 35 413 60 38 180 307 322 177 308 400 559 338 177 493 34 79 919 50 114 218
internal_value=0 -0.0449898 0.082038 -0.0870024 -0.0155368 0.0567579 0.155769 -0.0300248 0.081356 -0.121536 0.00644826 0.0382976 -0.0131039 0.0193928 0.100198 0.138203 -0.107615 -0.0662291 0.0575749 0.0523439 -0.00378721 0.00373288 -0.0262651 -0.0433506 0.196909 0.184653 -0.0695778 -0.155995 -0.144129 0.0338495
internal_weight=0 4535 2487 1869 2666 1852 635 1607 794 702 1059 1058 708 451 443 445 500 1167 351 607 771 398 212 899 190 156 1096 202 164 288
internal_count=7022 4535 2487 1869 2666 1852 635 1607 794 702 1059 1058 708 451 443 445 500 1167 351 607 771 398 212 899 190 156 1096 202 164 288
is_linear=0
shrinkage=0.1


Tree=18
num_leaves=31
num_cat=0
split_feature=0 0 0 0 0 0 0 15 2 15 15 1 16 6 16 16 7 16 14 9 18 0 10 0 12 0 0 3 15 6
split_gain=2104.34 442.578 392.645 79.1441 70.5791 67.9167 52.9288 31.5345 27.5911 25.7645 24.4503 22.334 20.3236 19.9227 18.7388 16.6776 15.7624 15.6697 17.9521 14.7238 13.8241 12.6886 12.4683 12.3857 12.2018 12.0615 10.8115 19.4505 10.641 9.31248
threshold=27.150000000000002 32.350000000000001 22.550000000000004 24.650000000000002 29.750000000000004 19.850000000000005 36.650000000000013 -0.78656609248549303 29.550000000000004 -0.91597561503675329 -0.78656609248549303 22.250000000000004 0.25881904510252057 74.500000000000014 -0.12940952255126037 1.0000000180025095e-35 52.500000000000007 0.25881904510252057 6.5000000000000009 36.500000000000007 0.25000000000000017 32.95000000000001 76.500000000000014 17.450000000000003 10.500000000000002 33.550000000000004 38.850000000000001 37.050000000000004 -0.98296291314453399 62.500000000000007
decision_type=2 2 2 2 2 2 2 2 2 2 2 2 2 2 2 2 2 2 2 2 2 2 2 2 2 2 2 2 2 2
left_child=2 4 5 11 10 15 9 16 24 21 20 -4 13 -9 -7 -1 -5 18 29 -13 -2 -3 -16 -17 -6 -11 27 -8 -10 -12
right_child=1 6 3 7 8 14 26 12 28 25 17 19 -14 -15 22 23 -18 -19 -20 -21 -22 -23 -24 -25 -26 -27 -28 -29 -30 -31
leaf_value=-0.091825017887048235 0.026534214021144982 0.025532353284858891 0.0016134138646963483 -0.06703333238176272 0.12995605225477255 -0.05104630892438651 0.18810041483561948 0.02587783375739704 -0.0041715502859123298 0.10771975691119831 0.073253726403731692 -0.072358392010074712 -0.013541763675201572 -0.013154273095513839 -0.09275892252668673 -0.17930541417815471 -0.02067319989620112 0.017592117173238771 0.032005211671868691 -0.040811561361621534 -0.013123726847346176 0.096427255181890159 -0.065020804674852467 -0.12643601212307418 0.080577704450790433 0.14284148466211696 0.22341210186481475 0.10900854348967022 0.056487203300595638 0.017821202166378499
leaf_weight=117 170 31 111 102 66 251 106 397 31 156 226 172 561 195 454 55 261 291 394 1058 182 136 252 228 207 262 40 44 431 35
leaf_count=117 170 31 111 102 66 251 106 397 31 156 226 172 561 195 454 55 261 291 394 1058 182 136 252 228 207 262 40 44 431 35
internal_value=0 0.067062 -0.0446867 -0.0236496 0.04255 -0.088978 0.131362 -0.00799579 0.0673107 0.116469 0.0285291 -0.0413461 9.66933e-05 0.013021 -0.0745145 -0.123582 -0.0337 0.0369011 0.0454796 -0.045223 0.00602926 0.0832671 -0.0828581 -0.136711 0.0925153 0.129734 0.177218 0.1649 0.052417 0.0658202
internal_weight=0 2808 4214 2857 2033 1357 775 1516 735 585 1298 1341 1153 592 957 400 363 946 655 1230 352 167 706 283 273 418 190 150 462 261
internal_count=7022 2808 4214 2857 2033 1357 775 1516 735 585 1298 1341 1153 592 957 400 363 946 655 1230 352 167 706 283 273 418 190 150 462 261
is_linear=0
shrinkage=0.1


Tree=19
num_leaves=31
num_cat=0
split_feature=0 0 0 0 0 0 12 15 15 0 15 0 16 1 12 16 18 12 15 10 5 12 15 7 10 10 5 5 0 15
split_gain=1713.67 417.654 262.919 103.078 58.5424 43.9914 29.5776 27.2628 26.7434 25.1926 25.171 20.5611 19.9502 18.948 18.2453 16.9688 15.3184 13.9623 13.7989 12.1045 12.0013 11.9804 11.4105 11.2968 10.6642 10.5104 9.70346 9.47746 9.42822 9.31457
threshold=28.150000000000002 23.650000000000002 33.250000000000007 21.350000000000005 26.050000000000004 30.650000000000002 17.500000000000004 0.37940952255126054 0.25881904510252091 18.450000000000003 0.25881904510252091 37.750000000000007 -0.37940952255126015 21.050000000000004 6.5000000000000009 -0.37940952255126015 -0.24999999999999994 10.500000000000002 -0.98296291314453399 58.500000000000007 38.650000000000013 13.500000000000002 -0.91597561503675329 17.500000000000004 40.500000000000007 37.500000000000007 23.650000000000002 31.050000000000004 16.550000000000004 -0.78656609248549303
decision_type=2 2 2 2 2 2 2 2 2 2 2 2 2 2 2 2 2 2 2 2 2 2 2 2 2 2 2 2 2 2
left_child=1 3 5 9 7 12 11 22 24 28 18 21 17 -5 -9 -11 -14 -2 -7 -16 23 -4 -3 -8 29 -15 -20 -18 -1 -6
right_child=2 4 6 13 8 10 20 14 -10 15 -12 -13 16 25 19 -17 27 -19 26 -21 -22 -23 -24 -25 -26 -27 -28 -29 -30 -31
leaf_value=-0.17816653943830921 0.087429450126900066 -0.054103923068185782 0.14940425456038811 0.00056324226692702403 -0.046782297070603822 0.0065194677757589442 0.030095501699381407 -0.021569979087101412 0.027944238515906956 -0.043900061226277438 0.12336069197339171 0.17961241762552943 0.035910435439032037 -0.075426488706564654 0.055668383105745858 -0.093389131219781527 -0.036419267581606456 0.044273170562320552 0.10348290835108076 0.0031641814592148878 0.13232749324196424 0.11364203099219594 -0.026467093868708727 0.099159083686769012 0.0048181074954269393 -0.049739214508349575 0.062950043108255152 0.015642331845204659 -0.11822723655237094 -0.0047167596388442493
leaf_weight=31 87 190 159 68 88 38 45 333 446 81 85 98 292 188 53 479 55 542 70 256 39 228 699 50 503 1043 378 96 171 131
leaf_count=31 87 190 159 68 88 38 45 333 446 81 85 98 292 188 53 479 55 542 70 256 39 228 699 50 503 1043 378 96 171 131
internal_value=0 -0.0340546 0.0716622 -0.0679521 -0.00816995 0.050736 0.127206 -0.0210337 0.0086917 -0.0971513 0.0731564 0.138696 0.0387937 -0.0508236 -0.00533076 -0.0862309 0.0225383 0.0502423 0.0643758 0.0121698 0.0856196 0.128335 -0.0323737 0.0664448 -0.00320115 -0.0536622 0.0692833 -0.0033205 -0.127426 -0.0216198
internal_weight=0 4760 2262 2061 2699 1643 619 1531 1168 762 571 485 1072 1299 642 560 443 629 486 309 134 387 889 95 722 1231 448 151 202 219
internal_count=7022 4760 2262 2061 2699 1643 619 1531 1168 762 571 485 1072 1299 642 560 443 629 486 309 134 387 889 95 722 1231 448 151 202 219
is_linear=0
shrinkage=0.1


Tree=20
num_leaves=31
num_cat=0
split_feature=0 0 0 0 0 0 3 15 0 15 12 2 1 12 16 0 9 14 12 11 5 12 12 10 6 15 4 15 4 18
split_gain=1388.07 338.459 213.446 75.7007 54.3738 45.8887 25.5707 22.7066 21.4659 21.3203 18.9383 17.4817 16.8483 14.3411 13.9616 12.9229 12.2286 10.8412 10.7853 13.548 10.6683 9.78055 9.25008 9.18657 8.9465 8.87111 8.76104 9.15593 8.70954 9.22424
threshold=28.150000000000002 23.450000000000003 33.850000000000001 21.450000000000003 25.850000000000005 30.850000000000005 30.550000000000004 0.25881904510252091 18.150000000000002 0.37940952255126054 17.500000000000004 26.250000000000004 21.050000000000004 5.5000000000000009 -0.37940952255126015 37.750000000000007 27.500000000000004 7.5000000000000009 6.5000000000000009 60.500000000000007 37.45000000000001 10.500000000000002 13.500000000000002 41.500000000000007 62.500000000000007 -0.91597561503675329 33.850000000000001 -0.98296291314453399 22.650000000000002 0.6830127018922193
decision_type=2 2 2 2 2 2 2 2 2 2 2 2 2 2 2 2 2 2 2 2 2 2 2 2 2 2 2 2 2 2
left_child=1 3 5 8 9 11 21 28 -1 25 15 -2 -5 -11 -10 22 -13 -18 -9 -20 -12 -7 -4 -24 -15 -3 27 -8 -6 -30
right_child=2 4 10 12 7 6 26 18 14 13 20 16 -14 24 -16 -17 17 -19 19 -21 -22 -23 23 -25 -26 -27 -28 -29 29 -31
leaf_value=-0.11815854068294432 0.068822226361602762 -0.051433773044309475 0.14108065746258944 0.0052608392046143617 0.025560568493340957 0.13121995905207262 -0.023649763936797779 0.0041826992687550397 -0.042248722401532712 -0.024587227113238755 0.040777948923791073 0.007365310261825804 -0.049191688493680552 0.03126456355676055 -0.084221624676659432 0.16165117436297693 0.046912499385456857 0.023864958325366364 0.066977901554302041 0.021216902298876298 0.10712833995348775 0.083525650261490836 0.11422271071529458 0.045617097666995093 -0.0040163278117307001 -0.0264580187949317 0.065432010209573913 0.044205037475531478 -0.0016703820274995161 -0.029635625196776046
leaf_weight=169 141 179 128 60 89 54 24 183 93 292 39 177 1073 96 536 98 445 377 92 218 64 211 173 22 286 692 193 116 552 150
leaf_count=169 141 179 128 60 89 54 24 183 93 292 39 177 1073 96 536 98 445 377 92 218 64 211 173 22 286 692 193 116 552 150
internal_value=0 -0.0306491 0.064496 -0.0629248 -0.00861865 0.0476289 0.0700641 0.00658893 -0.0865172 -0.0212572 0.12044 0.0358603 -0.0463081 -0.00790318 -0.0780158 0.129844 0.031208 0.036342 0.0234334 0.0347976 0.0820054 0.0932445 0.120193 0.106483 0.00485007 -0.0315908 0.0516173 0.0325728 -0.00390961 -0.00764586
internal_weight=0 4760 2262 1931 2829 1738 598 1284 798 1545 524 1140 1133 674 629 421 999 822 493 310 103 265 323 195 382 871 333 140 791 702
internal_count=7022 4760 2262 1931 2829 1738 598 1284 798 1545 524 1140 1133 674 629 421 999 822 493 310 103 265 323 195 382 871 333 140 791 702
is_linear=0
shrinkage=0.1


Tree=21
num_leaves=31
num_cat=0
split_feature=0 0 0 0 0 0 0 2 15 15 15 1 2 12 16 7 16 6 0 0 3 14 18 12 14 10 1 11 6 11
split_gain=1128.85 238.334 214.745 43.7295 39.9174 37.2292 31.3277 19.294 17.7496 16.7579 14.7318 13.9479 13.7988 12.7663 12.2337 11.3171 11.1662 10.5897 10.273 9.69865 13.6804 9.02371 8.87692 11.9695 8.80488 8.59203 8.51144 8.48774 8.38003 7.82363
threshold=27.150000000000002 32.350000000000001 22.550000000000004 24.750000000000004 29.250000000000004 19.850000000000005 35.550000000000004 29.350000000000005 -0.78656609248549303 0.60355339059327384 -0.91597561503675329 27.850000000000005 22.450000000000003 3.5000000000000004 1.0000000180025095e-35 52.500000000000007 -0.12940952255126037 54.500000000000007 28.250000000000004 38.95000000000001 35.350000000000001 3.5000000000000004 -0.24999999999999994 1.0000000180025095e-35 6.5000000000000009 95.500000000000014 17.050000000000004 25.500000000000004 74.500000000000014 48.500000000000007
decision_type=2 2 2 2 2 2 2 2 2 2 2 2 2 2 2 2 2 2 2 2 2 2 2 2 2 2 2 2 2 2
left_child=2 4 5 9 11 14 10 17 15 -4 21 18 24 -10 -1 -5 25 -6 -2 20 -8 -3 23 -9 -11 -7 -16 -22 -15 -18
right_child=1 6 3 8 7 16 19 22 13 12 -12 -13 -14 28 26 -17 29 -19 -20 -21 27 -23 -24 -25 -26 -27 -28 -29 -30 -31
leaf_value=-0.063905767063236127 0.022627573841247084 0.020185108397466442 -0.039050173329481748 -0.053082857281900944 0.074342776216497583 -0.030783842837467601 0.13668164686432907 -0.014339316684392193 -0.019513060471572086 0.075264936472688407 0.091012732472205371 0.0089105265318768865 -0.023571107868899044 0.013253544350831231 -0.16208265857263046 -0.013232611936625966 -0.074594017585946457 0.035523742807931018 0.057026857438794647 0.17166318863301594 0.11022331528694314 0.073796848557889469 0.019512097568188263 0.050793758479827894 0.0017873891578247287 -0.094912682408871865 -0.097314272252878475 0.056513693638973767 -0.0081451721201501511 -0.052932875113852251
leaf_weight=117 321 54 814 100 270 228 140 31 234 21 342 655 498 607 22 248 270 95 119 34 85 75 228 314 73 23 261 45 262 436
leaf_count=117 321 54 814 100 270 228 140 31 234 21 342 655 498 607 22 248 270 95 119 34 85 75 228 314 73 23 261 45 262 436
internal_value=0 0.0491175 -0.0327295 -0.0171716 0.0311298 -0.0654846 0.0963035 0.0462695 -0.00499322 -0.0297398 0.080151 0.0181608 -0.0169381 0.00121923 -0.0911045 -0.0246838 -0.0547762 0.0642392 0.031931 0.121329 0.114991 0.0513547 0.0348228 0.0449412 0.0182026 -0.0366602 -0.102349 0.0916315 0.00680192 -0.0612169
internal_weight=0 2808 4214 2857 2033 1357 775 938 1451 1406 471 1095 592 1103 400 348 957 365 440 304 270 129 573 345 94 251 283 130 869 706
internal_count=7022 2808 4214 2857 2033 1357 775 938 1451 1406 471 1095 592 1103 400 348 957 365 440 304 270 129 573 345 94 251 283 130 869 706
is_linear=0
shrinkage=0.1


Tree=22
num_leaves=31
num_cat=0
split_feature=0 0 0 0 0 0 3 0 15 15 12 1 2 12 18 16 5 6 18 9 6 12 4 9 18 0 16 5 15 2
split_gain=919.367 238.958 137.036 47.7926 34.9707 24.3702 19.826 17.6979 17.529 16.2253 13.8694 13.555 12.7931 12.3655 9.80722 9.76927 9.53871 8.72439 8.70142 8.57702 11.1422 8.48041 8.02647 7.94917 7.74626 7.25344 8.45141 6.89675 6.81608 6.79261
threshold=26.350000000000005 30.850000000000005 21.650000000000002 34.350000000000001 23.850000000000005 28.650000000000002 31.150000000000002 18.650000000000002 0.25881904510252091 0.37940952255126054 17.500000000000004 21.050000000000004 28.750000000000004 6.5000000000000009 -0.5 0.1294095225512602 37.45000000000001 27.500000000000004 -0.24999999999999994 40.500000000000007 64.500000000000014 10.500000000000002 33.850000000000001 50.500000000000007 0.6830127018922193 16.450000000000003 1.0000000180025095e-35 26.550000000000004 -0.98296291314453399 32.150000000000013
decision_type=2 2 2 2 2 2 2 2 2 2 2 2 2 2 2 2 2 2 2 2 2 2 2 2 2 2 2 2 2 2
left_child=2 5 7 6 11 8 21 25 19 23 17 -4 -7 -11 -15 -9 -12 -5 -14 -2 -21 -3 28 -6 -13 -1 -27 -25 -8 -30
right_child=1 3 4 10 9 12 22 15 -10 13 16 24 18 14 -16 -17 -18 -19 -20 20 -22 -23 -24 27 -26 26 -28 -29 29 -31
leaf_value=-0.13984376011150224 -0.013033460331337079 0.1122490141344698 0.014754333798415387 0.11620703168345131 -0.037354879967557889 0.046773010446418281 -0.024359702008465926 -0.043898302000556999 0.026649332111618598 -0.014908017709779627 0.020511151312459862 -0.032848988509313178 0.033363298899948796 -0.0054319031702304132 0.029182915921712418 -0.06927981743165508 0.090105907439633648 0.074263768175900996 0.0072921140496101646 0.021766761256934938 -0.006166114852491641 0.069628723167503875 0.055004983138021935 -0.027958434709764432 -0.051065746864469186 -0.054066436085850003 -0.09882957126263163 -0.0074596161278474892 -0.0049112858716398484 0.049320411151387245
leaf_weight=28 263 57 52 311 240 353 24 241 436 325 31 945 297 157 171 409 54 59 225 307 267 258 213 285 310 60 142 387 32 83
leaf_count=28 263 57 52 311 240 353 24 241 436 325 31 945 297 157 171 409 54 59 225 307 267 258 213 285 310 60 142 387 32 83
internal_value=0 0.0387589 -0.0337798 0.076162 -0.023201 0.0192215 0.0591158 -0.0683049 0.0103907 -0.0131168 0.101151 -0.0352758 0.0320691 -0.00108367 0.0126142 -0.0598691 0.0647243 0.109519 0.0221257 0.00192144 0.00877359 0.077341 0.0428064 -0.0217327 -0.0373487 -0.0921453 -0.0855336 -0.0161533 0.0241137 0.0342299
internal_weight=0 3270 3752 1122 2872 2148 667 880 1273 1565 455 1307 875 653 328 650 85 370 522 837 574 315 352 912 1255 230 202 672 139 115
internal_count=7022 3270 3752 1122 2872 2148 667 880 1273 1565 455 1307 875 653 328 650 85 370 522 837 574 315 352 912 1255 230 202 672 139 115
is_linear=0
shrinkage=0.1


Tree=23
num_leaves=31
num_cat=0
split_feature=0 0 0 0 15 0 0 12 3 0 15 16 2 12 5 12 0 16 15 4 8 12 6 0 12 9 14 2 0 10
split_gain=744.687 193.556 112.604 38.953 21.7623 21.0132 19.4895 17.1688 16.233 13.8977 12.3366 12.2065 11.432 11.3988 10.4977 10.0891 9.70324 8.99173 7.42456 7.16689 7.10507 7.03201 7.6105 6.85831 6.7672 6.65339 6.62022 6.47805 6.3944 6.22266
threshold=26.350000000000005 30.850000000000005 22.250000000000004 34.150000000000013 -0.91597561503675329 18.650000000000002 24.350000000000005 2.5000000000000004 31.250000000000004 28.750000000000004 -0.78656609248549303 0.25881904510252057 23.450000000000003 14.500000000000002 29.250000000000004 10.500000000000002 38.95000000000001 0.1294095225512602 -0.98296291314453399 33.850000000000001 27.500000000000004 6.5000000000000009 57.500000000000007 20.750000000000004 9.5000000000000018 40.500000000000007 4.5000000000000009 26.350000000000005 37.050000000000004 17.500000000000004
decision_type=2 2 2 2 2 2 2 2 2 2 2 2 2 2 2 2 2 2 2 2 2 2 2 2 2 2 2 2 2 2
left_child=2 4 5 8 14 -1 10 -6 24 15 -4 26 -8 28 25 21 -15 -7 -14 -10 -20 -9 -23 -19 -3 -2 -12 -11 -5 -21
right_child=1 3 6 13 7 17 12 9 19 27 11 -13 18 16 -16 -17 -18 23 20 29 -22 22 -24 -25 -26 -27 -28 -29 -30 -31
leaf_value=-0.082930736952744749 -0.050630689648512223 0.12103157568237055 -0.053812548017823231 0.095956548401713374 -0.0062221943900316991 -0.036585717247706699 0.012989164671080531 0.013831404519733043 0.018405005853535154 0.063056318592280156 0.017321965047468742 -0.031089771126658269 -0.045176470018923283 0.071726598546008838 0.013063122725594352 0.010479569725321311 0.13469933227256492 -0.070509073004540471 -0.040869890809469664 0.027576964120352529 -0.009056262112386795 0.067329886669562342 0.02617762770541773 -0.048532902988810821 0.064678990709804138 -0.0094007783811712927 -0.01564807306055661 0.032668721275353037 0.13462573791066043 0.063129580133279004
leaf_weight=230 56 23 153 125 196 353 189 120 127 80 75 752 70 261 161 654 27 225 76 83 920 83 98 385 290 130 324 570 65 121
leaf_count=230 56 23 153 125 196 353 189 120 127 80 75 752 70 261 161 654 27 225 76 83 920 83 98 385 290 130 324 570 65 121
internal_value=0 0.034883 -0.0304018 0.0685458 0.0172994 -0.0557741 -0.0185732 0.0217176 0.0524932 0.0251295 -0.0271347 -0.0235885 -0.00967751 0.0901732 -0.00563186 0.0174526 0.0776303 -0.0492881 -0.0136963 0.0370544 -0.0114838 0.0326032 0.0450486 -0.0566389 0.0688199 -0.0218141 -0.0094507 0.0364087 0.109185 0.0486645
internal_weight=0 3270 3752 1122 2148 1193 2559 1801 644 1605 1304 1151 1255 478 347 955 288 963 1066 331 996 301 181 610 313 186 399 650 190 204
internal_count=7022 3270 3752 1122 2148 1193 2559 1801 644 1605 1304 1151 1255 478 347 955 288 963 1066 331 996 301 181 610 313 186 399 650 190 204
is_linear=0
shrinkage=0.1


Tree=24
num_leaves=31
num_cat=0
split_feature=0 0 0 0 0 15 0 16 15 2 12 0 16 14 2 5 8 18 0 16 15 18 12 6 8 9 11 14 4 12
split_gain=607.431 135.977 109.013 27.1772 24.8906 18.5115 18.4052 15.8297 14.0158 13.0443 11.1153 9.64876 9.31236 10.3123 9.04696 8.92299 9.0382 8.87732 8.7168 8.94512 8.64821 8.28427 7.24147 7.02289 6.71895 8.01147 6.71686 7.74597 6.4313 8.4975
threshold=27.750000000000004 22.850000000000005 32.750000000000007 25.550000000000004 20.350000000000005 -0.91597561503675329 30.350000000000005 -0.12940952255126037 0.60355339059327384 24.050000000000004 1.0000000180025095e-35 37.050000000000004 -0.12940952255126037 5.5000000000000009 22.650000000000002 38.650000000000013 17.500000000000004 0.6830127018922193 16.650000000000002 1.0000000180025095e-35 0.37940952255126054 -0.24999999999999994 7.5000000000000009 77.500000000000014 91.500000000000014 50.500000000000007 25.500000000000004 7.5000000000000009 36.750000000000007 13.500000000000002
decision_type=2 2 2 2 2 2 2 2 2 2 2 2 2 2 2 2 2 2 2 2 2 2 2 2 2 2 2 2 2 2
left_child=1 4 5 8 18 17 10 11 24 -5 -7 28 13 22 -10 16 -9 -2 -1 23 -8 -11 -6 -20 25 -3 -12 -28 29 -4
right_child=2 3 7 9 12 6 20 15 14 21 26 -13 -14 -15 -16 -17 -18 -19 19 -21 -22 -23 -24 -25 -26 -27 27 -29 -30 -31
leaf_value=-0.1103536501036663 0.010759689610858915 -0.037698162624664189 0.086990945093720629 0.027699076468124986 -0.034001538343727593 -0.031459961831569676 0.041306879924879455 0.0018231466412544251 0.020243293828716889 0.0058521277318486411 0.0038645144555602196 0.10380825838932756 -0.042633208109887161 -0.033029751696775918 -0.011117728708428819 0.085466878029496179 0.056106911994464381 -0.037043044557596778 -0.025081180644278625 -0.069300282435542954 0.079450725807227951 -0.011762696428785486 0.033044207734721047 -0.079689512882501853 -0.066203338285354338 -0.017718928592080668 0.037047514477684486 0.017833356301004782 0.12861566752195361 0.056818773467168932
leaf_weight=38 224 270 170 170 24 36 429 54 111 591 129 141 787 196 537 43 71 47 98 327 69 487 49 31 37 782 464 383 20 207
leaf_count=38 224 270 170 170 24 36 429 54 111 591 129 141 787 196 537 43 71 47 98 327 69 487 49 31 37 782 464 383 20 207
internal_value=0 -0.0217805 0.0397163 -0.00930266 -0.0458103 0.0265346 0.0308536 0.0729693 -0.0173906 0.00195434 0.0231089 0.0813368 -0.037143 -0.0210807 -0.0057457 0.0461733 0.0326563 0.00246918 -0.064338 -0.0605033 0.0465919 -0.00210559 0.0110018 -0.0382041 -0.0243198 -0.0228467 0.0251217 0.0283592 0.0733558 0.0704243
internal_weight=0 4535 2487 2985 1550 1781 1510 706 1737 1248 1012 538 1056 269 648 168 125 271 494 456 498 1078 73 129 1089 1052 976 847 397 377
internal_count=7022 4535 2487 2985 1550 1781 1510 706 1737 1248 1012 538 1056 269 648 168 125 271 494 456 498 1078 73 129 1089 1052 976 847 397 377
is_linear=0
shrinkage=0.1


Tree=25
num_leaves=31
num_cat=0
split_feature=0 0 0 0 0 15 2 12 0 15 0 1 0 16 15 12 12 6 12 5 18 15 12 12 10 5 16 4 12 11
split_gain=494.29 127.199 74.5179 30.6277 16.6809 14.5128 12.5243 11.4304 11.2329 10.5259 9.60028 8.65672 7.98816 7.48268 7.21352 7.10965 7.02508 6.93592 6.87047 6.86296 6.97311 9.38754 7.73058 6.54413 6.44078 6.68802 6.32487 6.1497 5.89165 5.66383
threshold=28.250000000000004 23.650000000000002 33.550000000000004 21.450000000000003 25.950000000000003 0.25881904510252091 24.150000000000002 14.500000000000002 29.950000000000003 0.37940952255126054 17.550000000000004 21.050000000000004 38.850000000000001 -0.37940952255126015 0.78656609248549325 5.5000000000000009 19.500000000000004 65.500000000000014 6.5000000000000009 23.650000000000002 -0.24999999999999994 -0.98296291314453399 1.0000000180025095e-35 9.5000000000000018 40.500000000000007 29.650000000000002 -0.60355339059327384 26.150000000000002 6.5000000000000009 56.500000000000007
decision_type=2 2 2 2 2 2 2 2 2 2 2 2 2 2 2 2 2 2 2 2 2 2 2 2 2 2 2 2 2 2
left_child=1 3 5 10 9 8 -6 -4 17 16 -1 -5 -9 -12 24 -11 -3 -2 -7 -10 22 -22 -21 -20 25 26 -8 -13 -16 -30
right_child=2 4 7 11 6 18 14 12 19 15 13 27 -14 -15 28 -17 -18 -19 23 20 21 -23 -24 -25 -26 -27 -28 -29 29 -31
leaf_value=-0.08156372400135109 0.016695898282705457 -0.026119254146928356 0.08800275449487216 0.0093859056536588943 0.031577919272356668 0.0207850737701336 0.003580720205630722 0.054265570127038934 0.057578695116825 -0.013685608878746989 -0.023519848823055346 -0.026208932014199188 0.10827594061692557 -0.052358577686084144 0.0061313391725819275 0.0078752940051731082 -0.0076087873967484497 -0.024979770114255506 0.079407011774144609 -0.0144803063047153 -0.042611660704016688 0.021981230656305951 0.041059645005624562 0.044337767603424338 0.0026844455543285949 -0.0034993693895568412 -0.051731499712655532 -0.047731246298874458 0.069451902136584184 0.0044301733019806088
leaf_weight=97 560 495 224 62 150 73 29 314 93 267 106 1049 30 595 104 358 350 43 79 27 25 225 349 163 699 174 72 152 37 21
leaf_count=97 560 495 224 62 150 73 29 314 93 267 106 1049 30 595 104 358 350 43 79 27 25 225 349 163 699 174 72 152 37 21
internal_value=0 -0.0179505 0.0392143 -0.0367416 -0.00389804 0.0283856 0.00441976 0.070423 0.0237895 -0.0111747 -0.0520779 -0.0270518 0.0589758 -0.0479978 0.000833735 -0.00133552 -0.0184522 0.013724 0.0476747 0.0322311 0.0284654 0.0155219 0.0370714 0.055786 -0.00241611 -0.0153808 -0.0358498 -0.0289328 0.0203729 0.0459096
internal_weight=0 4817 2205 2061 2756 1637 1286 568 1322 1470 798 1263 344 701 1136 625 845 603 315 719 626 250 376 242 974 275 101 1201 162 58
internal_count=7022 4817 2205 2061 2756 1637 1286 568 1322 1470 798 1263 344 701 1136 625 845 603 315 719 626 250 376 242 974 275 101 1201 162 58
is_linear=0
shrinkage=0.1


Tree=26
num_leaves=31
num_cat=0
split_feature=0 0 0 0 0 0 0 2 15 15 15 15 8 2 12 16 5 12 8 11 17 15 0 5 3 18 9 14 11 8
split_gain=401.381 86.2988 78.0877 17.4401 14.2459 13.2116 12.4294 10.7042 10.2528 8.78362 8.57582 8.3688 9.2075 7.27053 6.90174 6.82047 6.60519 6.43518 6.52157 6.03718 5.96879 5.94661 5.83235 5.52842 5.41216 6.68113 5.16603 5.06133 7.00569 5.01582
threshold=27.150000000000002 32.350000000000001 22.450000000000003 24.650000000000002 29.550000000000004 18.650000000000002 36.650000000000013 29.850000000000005 -0.98296291314453399 0.60355339059327384 0.60355339059327384 -0.98296291314453399 21.500000000000004 23.350000000000005 5.5000000000000009 0.1294095225512602 28.650000000000002 6.5000000000000009 53.500000000000007 48.500000000000007 0.68301270189221941 0.25881904510252091 38.850000000000001 24.850000000000005 25.250000000000004 -0.68301270189221952 31.500000000000004 11.500000000000002 91.500000000000014 41.500000000000007
decision_type=2 2 2 2 2 2 2 2 2 2 2 2 2 2 2 2 2 2 2 2 2 2 2 2 2 2 2 2 2 2
left_child=2 4 5 10 9 -1 11 20 -5 24 -4 12 -3 -10 -12 27 -8 -11 -19 -17 -6 29 -18 -22 -2 -26 -15 28 -7 -13
right_child=1 6 3 8 7 15 16 -9 13 17 14 21 -14 26 -16 19 22 18 -20 -21 23 -23 -24 -25 25 -27 -28 -29 -30 -31
leaf_value=-0.061621683674096386 0.021175337034084998 -0.017593204730323383 -0.025273519539764477 -0.03328976991066996 0.032257990859069337 -0.011319985929332043 0.12673130150024708 0.018438819632710612 0.017497707674127054 0.015638277876069365 -0.020856747279744067 0.053264055657940568 0.067462436035275464 -0.017892387607825574 0.00065253402167600265 -0.05150929640811415 0.061769201867319948 0.089202266465872537 0.028635068740695713 -0.032576527621035967 0.045546225873732027 0.079626657856227481 0.10568317850120366 0.09169401663380701 0.017071434567675597 -0.0021772190487468136 -0.00062608419982907023 -0.048119760774075988 -0.046945890775081558 0.016975244418496179
leaf_weight=230 249 35 797 104 238 248 26 451 189 92 281 409 20 209 318 312 124 32 40 366 87 79 40 37 272 535 1014 75 71 42
leaf_count=230 249 35 797 104 238 248 26 451 189 92 281 409 20 209 318 312 124 32 40 366 87 79 40 37 272 535 1014 75 71 42
internal_value=0 0.0292885 -0.0195164 -0.010414 0.0184645 -0.0398743 0.0576822 0.028719 -0.00298775 0.011631 -0.0184787 0.0504649 0.0133361 -0.000755872 -0.0094378 -0.0352084 0.0799038 0.0331622 0.0555538 -0.041289 0.0415265 0.0543179 0.0724799 0.0593161 0.00828719 0.00431056 -0.00357674 -0.0247449 -0.0192493 0.0498846
internal_weight=0 2808 4214 2912 2033 1302 775 813 1516 1220 1396 585 55 1412 599 1072 190 164 72 678 362 530 164 124 1056 807 1223 394 319 451
internal_count=7022 2808 4214 2912 2033 1302 775 813 1516 1220 1396 585 55 1412 599 1072 190 164 72 678 362 530 164 124 1056 807 1223 394 319 451
is_linear=0
shrinkage=0.1


Tree=27
num_leaves=31
num_cat=0
split_feature=0 0 0 0 0 15 15 12 1 2 8 1 0 6 6 9 14 4 16 6 9 15 15 14 0 10 2 15 17 18
split_gain=327.686 85.247 50.8642 18.1094 13.5972 12.1317 12.0887 11.0708 7.84411 7.6493 7.95862 7.21958 7.18362 6.99427 6.97488 6.9813 9.02679 6.87093 5.91322 6.24274 5.88573 5.76007 5.21506 12.2426 4.87941 8.87104 4.7828 4.4171 4.37997 4.31036
threshold=26.350000000000005 30.950000000000003 21.450000000000003 35.050000000000004 23.850000000000005 0.25881904510252091 -0.91597561503675329 2.5000000000000004 23.950000000000003 32.350000000000001 43.500000000000007 21.050000000000004 16.650000000000002 30.500000000000004 66.500000000000014 26.500000000000004 7.5000000000000009 35.250000000000007 -0.12940952255126037 89.500000000000014 30.500000000000004 -0.78656609248549303 -0.98296291314453399 3.5000000000000004 38.95000000000001 23.500000000000004 30.050000000000004 -0.98296291314453399 -0.6830127018922193 -0.5
decision_type=2 2 2 2 2 2 2 2 2 2 2 2 2 2 2 2 2 2 2 2 2 2 2 2 2 2 2 2 2 2
left_child=2 6 12 5 11 22 9 26 29 10 -2 -4 -1 17 15 -9 -17 -5 19 -14 -10 -13 23 -3 25 27 -8 -19 -12 -6
right_child=1 3 4 13 8 -7 7 14 20 -11 28 21 18 -15 -16 16 -18 24 -20 -21 -22 -23 -24 -25 -26 -27 -28 -29 -30 -31
leaf_value=-0.084999742653024832 -0.03373319869476956 -0.047557160630822187 0.011486777638128843 0.079925480472630844 -0.014153911610197087 0.067168324906378987 -0.021191891526325127 0.0037715449353061996 -0.028739754069280234 0.043822903630066794 -0.014197322573372216 -0.044087273013005912 -0.019331393859956122 0.0067230982892215255 0.0012927178740501405 0.030593959072851659 0.012855002340396913 0.023969432750018314 -0.045754168941480808 -0.073662404110655194 -0.0082373624466130762 -0.020849454179534821 0.034209576621834818 0.048583486165713383 0.089671294584318439 -0.013216359751380009 0.01032896820565357 0.070139060479435897 0.013809603854414014 0.017123733734010837
leaf_weight=38 97 26 64 194 59 112 111 217 159 29 106 117 178 20 225 696 488 30 558 24 1173 1208 572 27 27 23 85 67 118 174
leaf_count=38 97 26 64 194 59 112 111 217 159 29 106 117 178 20 225 696 488 30 558 24 1173 1208 572 27 27 23 85 67 118 174
internal_value=0 0.0231396 -0.020167 0.0458484 -0.0141154 0.0368602 0.0116597 0.0149295 -0.0077237 -0.00536183 -0.00980531 -0.0213169 -0.0425685 0.0641982 0.0176359 0.0202606 0.0232826 0.0675692 -0.040447 -0.0257866 -0.0106847 -0.0229014 0.031429 0.00142015 0.0512622 0.0426202 -0.00752213 0.0558598 0.000556326 0.00920364
internal_weight=0 3270 3752 1098 2954 737 2172 1822 1565 350 321 1389 798 361 1626 1401 1184 341 760 202 1332 1325 625 53 147 120 196 97 224 233
internal_count=7022 3270 3752 1098 2954 737 2172 1822 1565 350 321 1389 798 361 1626 1401 1184 341 760 202 1332 1325 625 53 147 120 196 97 224 233
is_linear=0
shrinkage=0.1


Tree=28
num_leaves=31
num_cat=0
split_feature=0 0 0 18 0 16 14 18 16 1 1 12 15 12 0 15 18 15 5 11 11 0 13 0 5 2 10 12 17 6
split_gain=267.679 68.5105 40.5495 16.2704 12.4754 9.17471 12.9465 8.58047 8.4589 7.86428 7.78469 6.08298 5.71764 5.7166 6.28412 5.567 5.55076 5.6539 5.8933 7.78973 4.9514 4.90626 4.89771 4.45249 4.16112 3.87147 6.38227 3.64058 3.84445 3.70598
threshold=28.250000000000004 23.250000000000004 33.850000000000001 0.6830127018922193 25.550000000000004 -0.37940952255126015 7.5000000000000009 0.25000000000000017 -0.37940952255126015 22.750000000000004 25.250000000000004 1.0000000180025095e-35 -0.91597561503675329 12.500000000000002 38.95000000000001 -0.98296291314453399 -0.68301270189221952 -0.78656609248549303 29.650000000000002 39.500000000000007 77.500000000000014 18.850000000000005 2.5000000000000004 35.850000000000001 29.550000000000004 31.850000000000005 19.500000000000004 1.0000000180025095e-35 -0.24999999999999994 91.500000000000014
decision_type=2 2 2 2 2 2 2 2 2 2 2 2 2 2 2 2 2 2 2 2 2 2 2 2 2 2 2 2 2 2
left_child=1 3 5 -1 9 6 20 11 -5 -3 -6 22 -11 23 -15 -9 -12 18 19 -18 -2 -10 -7 -4 -17 -13 -27 28 -14 -29
right_child=2 4 13 8 10 7 -8 15 21 12 16 25 27 14 -16 24 17 -19 -20 -21 -22 -23 -24 -25 -26 26 -28 29 -30 -31
leaf_value=-0.01846083190404502 0.039645133473525065 0.014717279405337187 0.06002835598702614 -0.016611334882236973 0.021281477123940074 -0.045697985102350902 0.012836749621304964 -0.051383755622165544 -0.054610912251734624 -0.030511478041269215 0.0084377997617772586 0.01255698073122136 -0.013970585833303632 0.044600002743711377 0.08941263148889822 -0.027379848438343315 -0.055786068645026936 0.0010078335834144475 0.0065896009717699754 -0.013407451130868057 0.0081553203256970099 -0.036975462216979414 0.013154744645280223 0.10559590695193039 0.01837134450301528 0.011195234681820564 0.042611594779228219 -0.0078568656924596306 -0.056059338163365335 -0.047579771119247501
leaf_weight=837 542 114 65 161 190 26 365 28 216 158 468 286 60 393 34 33 58 556 86 172 55 585 31 32 50 112 153 1098 34 24
leaf_count=837 542 114 65 161 190 26 365 28 216 158 468 286 60 393 34 33 58 556 86 172 55 585 31 32 50 112 153 1098 34 24
internal_value=0 -0.0132097 0.0288576 -0.0286563 -0.00400208 0.0212863 0.0276732 0.0127409 -0.0375271 -0.0105215 0.0023384 0.0174085 -0.0126156 0.0531465 0.0481682 -0.0128262 -0.000347554 -0.00506263 -0.0157436 -0.0240942 0.0367441 -0.0417311 -0.0136904 0.075061 0.000181111 0.0206257 0.0293337 -0.0102903 -0.0291942 -0.00870655
internal_weight=0 4817 2205 1799 3018 1681 962 719 962 1488 1530 608 1374 524 427 111 1340 872 316 230 597 801 57 97 83 551 265 1216 94 1122
internal_count=7022 4817 2205 1799 3018 1681 962 719 962 1488 1530 608 1374 524 427 111 1340 872 316 230 597 801 57 97 83 551 265 1216 94 1122
is_linear=0
shrinkage=0.1


Tree=29
num_leaves=31
num_cat=0
split_feature=0 0 0 16 17 0 18 0 1 17 0 15 15 11 16 12 2 9 1 17 5 10 14 6 12 12 12 14 16 11
split_gain=217.174 56.3497 34.2009 10.2112 12.9029 9.67358 9.57596 7.80948 6.54801 8.43159 6.26823 6.0815 5.45888 5.44822 7.47678 5.08384 5.04385 4.86035 4.59496 4.83083 4.45687 4.23923 5.39734 4.21437 4.13577 4.08033 7.07863 4.02307 4.2964 4.82321
threshold=26.350000000000005 31.650000000000002 21.850000000000005 -0.37940952255126015 0.68301270189221941 35.550000000000004 -0.24999999999999994 24.550000000000004 21.750000000000004 0.68301270189221941 16.350000000000005 -0.91597561503675329 -0.91597561503675329 59.500000000000007 -0.37940952255126015 2.5000000000000004 30.050000000000004 17.500000000000004 24.550000000000004 0.68301270189221941 29.550000000000004 66.500000000000014 9.5000000000000018 35.500000000000007 12.500000000000002 18.500000000000004 13.500000000000002 6.5000000000000009 -0.12940952255126037 50.500000000000007
decision_type=2 2 2 2 2 2 2 2 2 2 2 2 2 2 2 2 2 2 2 2 2 2 2 2 2 2 2 2 2 2
left_child=2 3 10 4 21 11 15 8 9 -4 -1 17 -10 14 -12 16 -5 -3 19 -9 -8 22 -2 -13 -7 26 -20 28 29 -17
right_child=1 5 7 6 -6 24 20 18 12 -11 13 23 -14 -15 -16 27 -18 -19 25 -21 -22 -23 -24 -25 -26 -27 -28 -29 -30 -31
leaf_value=-0.084158079002214517 0.029408583256783555 -0.0093259111609099044 -0.0046696277872166217 -0.021495007815593409 0.042159772180882155 0.084332028701901443 -0.023868670597063806 0.0023620203709068537 -0.039571030324857148 0.06749508867040277 -0.0043944995294535353 0.042915323386810957 -0.015194002323438023 -0.021613680233940235 -0.041106994828121801 0.078779208242893223 0.013478628027448317 0.028401168417864636 -0.0064261949770674431 0.043480272092582553 -0.0014856970936031732 0.0070394063018600767 0.008092423428571997 0.01934198671853856 0.049826940693045885 0.0020345510645111003 -0.032749386004395323 -0.0016304142968285652 0.016325636182752561 0.01884204845490127
leaf_weight=23 261 53 85 84 173 40 127 179 98 20 62 376 1467 359 527 25 81 96 464 34 297 589 218 95 264 303 131 105 357 29
leaf_count=23 261 53 85 84 173 40 127 179 98 20 62 376 1467 359 527 25 81 96 464 34 297 589 218 95 264 303 131 105 357 29
internal_value=0 0.0188378 -0.0164178 0.0105994 0.0168249 0.0397549 0.00360776 -0.0107763 -0.0150986 0.00907603 -0.0325755 0.0325901 -0.0167205 -0.031324 -0.0372425 0.0109532 -0.00432613 0.0149815 -0.00427932 0.0089255 -0.00819003 0.012721 0.0197073 0.0381606 0.0543671 -0.00741142 -0.0122217 0.0158391 0.0203021 0.0465907
internal_weight=0 3270 3752 2346 1241 924 1105 2781 1670 105 971 620 1565 948 589 681 165 149 1111 213 424 1068 479 471 304 898 595 516 411 54
internal_count=7022 3270 3752 2346 1241 924 1105 2781 1670 105 971 620 1565 948 589 681 165 149 1111 213 424 1068 479 471 304 898 595 516 411 54
is_linear=0
shrinkage=0.1


Tree=30
num_leaves=31
num_cat=0
split_feature=0 0 0 0 18 15 15 15 16 7 15 12 11 2 16 18 12 8 15 12 4 12 11 6 12 0 8 5 12 9
split_gain=177.303 46.2201 27.1003 10.7077 8.09525 7.00322 6.62281 6.2368 6.13107 6.1268 5.76855 6.39297 7.3502 5.2159 5.18779 5.06485 5.74659 5.10026 5.7707 4.98537 4.68566 5.85574 7.55147 4.14815 4.48985 4.19212 3.90882 3.8905 3.84592 3.75877
threshold=28.250000000000004 22.750000000000004 33.550000000000004 25.150000000000002 0.6830127018922193 0.37940952255126054 0.60355339059327384 -0.98296291314453399 -0.9159756150367534 17.500000000000004 0.60355339059327384 6.5000000000000009 56.500000000000007 22.550000000000004 -0.37940952255126015 -0.24999999999999994 13.500000000000002 58.500000000000007 -0.98296291314453399 6.5000000000000009 21.950000000000003 18.500000000000004 40.500000000000007 31.500000000000004 12.500000000000002 39.250000000000007 91.500000000000014 26.750000000000004 15.500000000000002 50.500000000000007
decision_type=2 2 2 2 2 2 2 2 2 2 2 2 2 2 2 2 2 2 2 2 2 2 2 2 2 2 2 2 2 2
left_child=1 4 5 6 -1 8 26 9 -2 -4 20 -12 -13 -8 -6 16 -10 18 -17 -7 -5 22 28 24 27 -26 29 -9 -22 -3
right_child=2 3 7 10 14 19 13 23 15 -11 11 12 -14 -15 -16 17 -18 -19 -20 -21 21 -23 -24 -25 25 -27 -28 -29 -30 -31
leaf_value=-0.016480568415816427 0.025267767545353439 -0.025046226300161324 -0.022419412673584053 0.012691838771300996 -0.014097691975405505 0.012059459831463556 0.018699647081407287 0.047265282912518497 -0.0068508468099858569 0.049034558901829381 0.0001726782651230428 0.050392827764153485 0.0092201265775590045 -0.0062621273368917004 -0.034776210669280203 -0.034024976419680046 0.021826218608640372 -0.030073538103273942 0.0093426273131393574 0.04395798585977681 -0.015693063494843354 0.0059035168976943296 -0.003974605834461185 0.01814573034644127 0.0411303538021335 0.087101472559429349 -0.04736478767684988 0.088858124192642135 -0.045998399076052014 -0.010359230897202079
leaf_weight=616 378 236 28 189 145 73 101 44 83 21 218 72 109 489 743 33 442 42 437 149 109 385 634 50 358 21 37 46 68 666
leaf_count=616 378 236 28 189 145 73 101 44 83 21 218 72 109 489 743 33 442 42 437 149 109 385 634 50 358 21 37 46 68 666
internal_value=0 -0.0107509 0.0234861 -0.00415091 -0.0252892 0.0169558 -0.0102918 0.0423067 0.0143651 0.00820372 0.00111222 0.0117066 0.0255982 -0.00198901 -0.0313997 0.0103909 0.0172925 0.00331409 0.00629767 0.0334688 -0.00193987 -0.00425207 -0.00907316 0.0455265 0.0484455 0.0436776 -0.0155087 0.0685238 -0.0273358 -0.0142019
internal_weight=0 4817 2205 3313 1504 1637 1529 568 1415 49 1784 399 181 590 888 1037 525 512 470 222 1385 1196 811 519 469 379 939 90 177 902
internal_count=7022 4817 2205 3313 1504 1637 1529 568 1415 49 1784 399 181 590 888 1037 525 512 470 222 1385 1196 811 519 469 379 939 90 177 902
is_linear=0
shrinkage=0.1


Tree=31
num_leaves=31
num_cat=0
split_feature=0 0 0 16 6 9 15 6 0 15 5 5 7 14 12 0 1 14 1 11 11 16 14 0 6 12 15 3 0 3
split_gain=144.525 37.8886 22.9557 8.41741 6.82522 8.02193 6.55704 6.48128 6.09387 5.51601 6.10269 5.21967 5.20646 4.73231 7.31783 4.60411 4.41804 4.06068 4.04352 3.88039 3.44859 3.81363 3.40574 3.38857 3.3944 3.2671 3.17951 3.06119 3.02465 3.83868
threshold=26.350000000000005 31.150000000000002 21.450000000000003 -0.12940952255126037 66.500000000000014 33.500000000000007 -0.98296291314453399 34.500000000000007 23.650000000000002 -0.78656609248549303 25.850000000000005 38.050000000000004 20.500000000000004 6.5000000000000009 4.5000000000000009 16.350000000000005 21.050000000000004 4.5000000000000009 23.950000000000003 31.500000000000004 59.500000000000007 -0.37940952255126015 11.500000000000002 30.350000000000005 26.500000000000004 17.500000000000004 0.25881904510252091 31.150000000000002 29.750000000000004 30.650000000000002
decision_type=2 2 2 2 2 2 2 2 2 2 2 2 2 2 2 2 2 2 2 2 2 2 2 2 2 2 2 2 2 2
left_child=2 4 15 7 5 6 -2 -3 16 10 -10 12 -5 14 -7 -1 -4 -13 -11 -18 21 -17 -22 24 -8 -14 -6 -9 29 -26
right_child=1 3 8 11 26 13 23 27 9 18 -12 17 25 -15 -16 20 19 -19 -20 -21 22 -23 -24 -25 28 -27 -28 -29 -30 -31
leaf_value=-0.072534371394178149 -0.053624277832833203 0.041417455035917011 0.011447708487450596 -0.0093614764040571528 -0.01165958621693727 -0.0020064652825486128 0.0070526034713729356 0.025557167373736884 -0.046921595875340116 0.0081510149530761491 -0.010832771203539072 0.058108074784754438 -0.014267792925238609 0.0083556312482822113 0.024875797734083448 -0.0069045436162162915 -0.031449778572964472 0.00755193439933161 -0.0053320656926379344 -0.013845552142952548 -0.010359220480727023 -0.034750551773555655 -0.036032646242529158 0.019385659454330323 -0.020312319748397721 0.027425269254793723 0.0096711260752053926 -0.0096949776867404584 -0.045236034424084692 0.0093184670749591834
leaf_weight=23 22 597 62 87 232 123 212 107 56 281 287 47 22 671 573 55 142 24 1067 1059 183 465 72 93 95 129 100 32 23 81
leaf_count=23 22 597 62 87 232 123 212 107 56 281 287 47 22 671 573 55 142 24 1067 1059 183 465 72 93 95 129 100 32 23 81
internal_value=0 0.0153673 -0.0133932 0.0310741 0.00799044 0.0103099 -0.000184447 0.0368894 -0.00932771 -0.00540242 -0.0167248 0.0172228 0.010124 0.014348 0.0201251 -0.0284425 -0.0145832 0.0410187 -0.00252142 -0.015927 -0.027134 -0.0318053 -0.0176082 0.00214824 -0.00175219 0.0213508 -0.00523467 0.0174416 -0.0111322 -0.00667542
internal_weight=0 3270 3752 1045 2225 1893 526 736 2954 1691 343 309 238 1367 696 798 1263 71 1348 1201 775 520 255 504 411 151 332 139 199 176
internal_count=7022 3270 3752 1045 2225 1893 526 736 2954 1691 343 309 238 1367 696 798 1263 71 1348 1201 775 520 255 504 411 151 332 139 199 176
is_linear=0
shrinkage=0.1


Tree=32
num_leaves=31
num_cat=0
split_feature=0 0 0 15 12 6 0 0 15 17 0 12 2 10 6 4 16 14 18 8 18 5 6 11 11 14 12 3 15 6
split_gain=117.157 27.9684 20.7796 7.21063 6.83291 7.0941 6.16181 5.8874 5.657 5.22376 5.14235 4.77414 5.39378 4.18663 3.99548 5.70527 3.72985 4.46053 6.57316 4.99437 3.69509 3.58264 4.19925 3.51492 3.43309 3.42311 3.40662 5.33714 3.37619 3.31637
threshold=27.850000000000005 22.750000000000004 32.350000000000001 0.60355339059327384 5.5000000000000009 53.500000000000007 18.450000000000003 24.650000000000002 -0.91597561503675329 -0.6830127018922193 37.050000000000004 15.500000000000002 39.150000000000013 92.500000000000014 53.500000000000007 31.050000000000004 0.1294095225512602 11.500000000000002 1.0000000180025095e-35 94.500000000000014 0.25000000000000017 30.150000000000002 24.500000000000004 48.500000000000007 40.500000000000007 6.5000000000000009 18.500000000000004 25.550000000000004 0.25881904510252091 46.500000000000007
decision_type=2 2 2 2 2 2 2 2 2 2 2 2 2 2 2 2 2 2 2 2 2 2 2 2 2 2 2 2 2 2
left_child=1 6 8 7 -5 -6 -1 13 21 -7 28 -12 -13 -3 15 20 17 18 19 -8 -10 -2 -23 -18 26 -11 27 -9 -4 -24
right_child=2 3 10 4 5 9 16 24 14 25 11 12 -14 -15 -16 -17 23 -19 -20 -21 -22 22 29 -25 -26 -27 -28 -29 -30 -31
leaf_value=-0.036836347834087249 -0.014152243329226622 -0.013035491991793456 0.024323251756907707 -0.00651423295494169 0.03313009705822411 0.018789823877089377 -0.011198018601292051 0.015712118302198017 0.03106303034598526 0.00458753330320386 0.061686059333225518 0.0034283537128104429 0.06535362425175581 -0.051829359895581829 0.0060119152703083344 0.0069446621942223013 -0.029446255166900078 -0.031710235896136828 0.003676591821369419 -0.051832048029660488 0.015744204205651216 -0.019150876297748518 0.04558666275015899 -0.016335608421158925 -0.00073958889839032178 -0.018910990476918719 0.00034397600882852728 -0.027710855320640548 0.046219644011400739 0.0052835145005386101
leaf_weight=202 128 683 539 410 111 166 102 34 302 175 94 39 22 29 444 336 365 85 242 43 329 35 35 465 1083 96 129 169 81 49
leaf_count=202 128 683 539 410 111 166 102 34 302 175 94 39 22 29 444 336 365 85 242 43 329 35 35 465 1083 96 129 169 81 49
internal_value=0 -0.00940515 0.0177395 -0.00395421 0.00324956 0.0105546 -0.0205861 -0.00719879 0.0114211 0.00482031 0.0312568 0.0475482 0.0257621 -0.0146156 0.013865 0.0174708 -0.0180649 -0.0109674 -0.00641147 -0.0232481 0.0230759 -0.00253985 0.0099508 -0.0221011 -0.0034668 -0.00373667 -0.0123631 -0.020438 0.0271839 0.0220765
internal_weight=0 4589 2433 3085 958 548 1504 2127 1658 437 775 155 61 712 1411 967 1302 472 387 145 631 247 119 830 1415 271 332 203 620 84
internal_count=7022 4589 2433 3085 958 548 1504 2127 1658 437 775 155 61 712 1411 967 1302 472 387 145 631 247 119 830 1415 271 332 203 620 84
is_linear=0
shrinkage=0.1


Tree=33
num_leaves=31
num_cat=0
split_feature=0 0 18 16 16 15 12 9 6 5 6 9 3 2 6 16 12 6 16 18 12 11 6 18 3 11 4 5 5 10
split_gain=96.2958 24.6961 16.529 8.56186 5.90326 5.29032 6.56502 5.08612 5.03312 4.76568 4.51491 5.45806 4.3671 3.68737 3.8271 3.59771 4.72874 4.66999 8.52107 4.62012 3.73627 3.49379 3.31596 3.28111 3.25878 3.7673 2.83456 2.83486 2.73285 2.85849
threshold=26.350000000000005 31.150000000000002 0.6830127018922193 -0.60355339059327384 -0.12940952255126037 0.60355339059327384 6.5000000000000009 51.500000000000007 34.500000000000007 34.550000000000004 66.500000000000014 27.500000000000004 20.750000000000004 16.850000000000005 28.500000000000004 -0.70710678118654757 5.5000000000000009 56.500000000000007 -0.37940952255126015 -0.24999999999999994 8.5000000000000018 29.500000000000004 77.500000000000014 1.0000000180025095e-35 31.150000000000002 40.500000000000007 25.450000000000003 31.350000000000005 38.650000000000013 17.500000000000004
decision_type=2 2 2 2 2 2 2 2 2 2 2 2 2 2 2 2 2 2 2 2 2 2 2 2 2 2 2 2 2 2
left_child=2 5 12 -4 8 10 -7 -8 -3 21 11 -2 -1 -5 -15 22 19 18 20 -17 -18 -6 -14 -20 25 26 -13 -28 29 -11
right_child=1 4 3 13 9 6 7 -9 -10 28 -12 24 15 14 -16 16 17 -19 23 -21 -22 -23 -24 -25 -26 -27 27 -29 -30 -31
leaf_value=0.029034044173146995 -0.0042566605900327221 0.034084903834706685 -0.0022961903995581037 -0.064123223078521821 -0.037067896037780011 0.0048987467430520416 0.057171440296324677 0.018941480771306602 0.012956684243215397 -1.6017730561006502e-05 -0.0065827808030393363 0.018479185318574311 -0.00019524092735207825 -0.057979855692634988 -0.021752884855256387 -0.0033386795496831846 0.079350605153519174 -0.0037635288083895449 0.036481942458166959 -0.017079361412959734 0.022351248893866558 0.015122054258118507 -0.029089699867033653 -0.0068883936558352806 0.026091871664851041 0.01011018363668837 -0.035021732852834726 0.0016274133267310952 0.041593368556350471 0.023774416599776454
leaf_weight=35 353 597 228 22 29 161 58 87 139 83 302 28 58 30 1043 463 23 1058 21 519 23 23 126 103 112 1039 46 39 45 129
leaf_count=35 353 597 228 22 29 161 58 87 139 83 302 28 58 30 1043 463 23 1058 21 519 23 23 126 103 112 1039 46 39 45 129
internal_value=0 0.0125438 -0.0109324 -0.0199258 0.0252247 0.00658814 0.0187992 0.0342335 0.0300947 0.013625 0.00464099 0.0067372 -0.00603396 -0.0235967 -0.0227658 -0.00654665 -0.00542808 -0.00129158 0.0140927 -0.0106008 0.0508509 -0.0139839 -0.0199817 0.000456583 0.00980748 0.00822428 -0.00911605 -0.0182062 0.0192112 0.0144602
internal_weight=0 3270 3752 1323 1045 2225 306 145 736 309 1919 1617 2429 1095 1073 2394 2210 1228 170 982 46 52 184 124 1264 1152 113 85 257 212
internal_count=7022 3270 3752 1323 1045 2225 306 145 736 309 1919 1617 2429 1095 1073 2394 2210 1228 170 982 46 52 184 124 1264 1152 113 85 257 212
is_linear=0
shrinkage=0.1


Tree=34
num_leaves=31
num_cat=0
split_feature=0 0 18 16 14 16 5 15 12 16 18 3 8 6 16 12 6 16 0 18 1 12 18 1 0 6 6 3 9 11
split_gain=78.0633 20.601 13.6326 6.75403 6.10128 6.93218 4.39285 4.11695 5.51789 4.04132 4.44044 4.85556 3.88287 3.56333 4.57965 4.41449 4.88659 4.93056 5.55483 4.30507 3.37715 4.09664 3.30585 3.01906 2.8952 3.1483 2.82202 2.73704 3.19031 3.11562
threshold=26.250000000000004 30.650000000000002 0.6830127018922193 -0.37940952255126015 7.5000000000000009 -0.12940952255126037 33.850000000000001 0.60355339059327384 6.5000000000000009 -0.78656609248549325 -0.9330127018922193 28.750000000000004 53.500000000000007 92.500000000000014 -0.37940952255126015 5.5000000000000009 74.500000000000014 -0.37940952255126015 23.850000000000005 -0.24999999999999994 34.95000000000001 13.500000000000002 -0.24999999999999994 26.350000000000005 20.750000000000004 29.500000000000004 57.500000000000007 32.150000000000013 23.500000000000004 40.500000000000007
decision_type=2 2 2 2 2 2 2 2 2 2 2 2 2 2 2 2 2 2 2 2 2 2 2 2 2 2 2 2 2 2
left_child=2 7 13 -4 5 20 -7 9 -9 26 11 -11 -10 15 -15 19 17 18 -17 -1 21 -3 -19 -14 -5 -26 -2 29 -29 -12
right_child=1 4 3 24 -6 6 -8 8 12 10 27 -13 23 14 -16 16 -18 22 -20 -21 -22 -23 -24 -25 25 -27 -28 28 -30 -31
leaf_value=-0.0024424200028788749 0.015158542829673631 0.031920912404614254 -0.0049091754962928497 -0.02805057591341233 -0.013636212555810105 -0.015795672785490752 0.016117800779456785 0.0037825004778331128 0.049412661630870602 -0.014472414793576614 -0.013873204145403134 0.024405956499628709 0.034866101426096301 -0.041991023869629496 -0.0091124465389910963 0.056365643904821294 -0.005064907715876147 0.015607342140448064 0.011624811531130021 -0.01644161234368291 0.037699451561455571 0.014049860850046586 -0.0066103653733141643 -0.0052928711753338579 -0.051991633258294312 -0.015694040795719313 0.0025281386503526694 0.0016113967995396725 0.037801847366790757 -0.00075283171765131666
leaf_weight=423 384 281 297 449 47 50 314 166 62 43 273 127 39 57 165 37 835 99 111 457 262 236 207 36 25 541 328 102 32 537
leaf_count=423 384 281 297 449 47 50 314 166 62 43 273 127 39 57 165 37 835 99 111 457 262 236 207 36 25 541 328 102 32 537
internal_value=0 0.011137 -0.00998205 -0.018173 0.0216749 0.0231269 0.0117341 0.0052468 0.016042 0.00345549 -0.000305558 0.014572 0.0308965 -0.00548747 -0.0175542 -0.00425242 -0.000524852 0.00782525 0.02281 -0.00971246 0.0284503 0.0237631 0.000577716 0.0155898 -0.0220542 -0.0172973 0.00934004 -0.00298478 0.0102539 -0.00517488
internal_weight=0 3319 3703 1312 1190 1143 364 2129 303 1826 1114 170 137 2391 222 2169 1289 454 148 880 779 517 306 75 1015 566 712 944 134 810
internal_count=7022 3319 3703 1312 1190 1143 364 2129 303 1826 1114 170 137 2391 222 2169 1289 454 148 880 779 517 306 75 1015 566 712 944 134 810
is_linear=0
shrinkage=0.1


Tree=35
num_leaves=31
num_cat=0
split_feature=0 0 0 15 6 9 15 14 6 0 6 0 12 2 4 0 8 2 5 18 14 10 1 8 11 3 1 6 10 6
split_gain=63.2407 15.456 12.1293 4.22922 4.14186 5.07152 5.67766 4.42632 5.15123 3.64939 3.62162 3.34201 3.68251 4.38909 3.24561 3.10112 3.07201 2.90349 4.1705 2.95215 2.74223 3.18308 2.52611 2.5 2.47952 2.46436 3.39538 6.85275 4.00823 3.40868
threshold=26.550000000000004 32.350000000000001 21.650000000000002 -0.91597561503675329 66.500000000000014 27.500000000000004 -0.98296291314453399 9.5000000000000018 43.500000000000007 23.650000000000002 32.500000000000007 37.050000000000004 15.500000000000002 39.150000000000013 27.550000000000004 17.150000000000002 38.500000000000007 23.550000000000004 23.550000000000004 1.0000000180025095e-35 4.5000000000000009 31.500000000000004 17.450000000000003 81.500000000000014 84.500000000000014 38.250000000000007 36.45000000000001 16.500000000000004 18.500000000000004 34.500000000000007
decision_type=2 2 2 2 2 2 2 2 2 2 2 2 2 2 2 2 2 2 2 2 2 2 2 2 2 2 2 2 2 2
left_child=2 4 15 10 5 6 -2 8 -7 -5 -4 25 20 -14 -9 -1 -10 18 19 -11 21 -13 -17 -6 -12 26 28 -28 -3 -30
