tree
version=v4
num_class=1
num_tree_per_iteration=1
label_index=0
max_feature_idx=18
objective=regression
feature_names=temp_lag_1 temp_lag_2 temp_lag_3 temp_lag_4 temp_lag_5 temp_lag_6 humidity_lag_1 humidity_lag_2 humidity_lag_3 humidity_lag_4 humidity_lag_5 humidity_lag_6 hour dayofweek month hour_sin hour_cos month_sin month_cos
feature_infos=[15.6:40.200000000000003] [15.4:40.200000000000003] [15.4:40.200000000000003] [15.4:40.200000000000003] [15.4:40.200000000000003] [15.6:40.200000000000003] [5:98] [4:98] [4:98] [4:98] [5:98] [5:98] [0:23] [0:6] [1:12] [-1:1] [-1:1] [-1:1] [-1:1]
tree_sizes=2675 2722 2723 2723 2724 2716 2729 2736 2721 2748 2756 2765 2746 2764 2738 2771 2759 2742 2761 2778 2767 2753 2763 2765 2767 2770 2767 2762 2778 2776 2786 2783 2774 2779 2786 2784 2779 2767 2773 2787 2747 2799 2791 2749 2767 2771 2779 2802 2781 2784 2748 2778 2764 2776 2732 2794 2759 2768 2739 2774 2735 2747 2768 2772 2780 2788 2795 2752 2800 2779 2768 2775 2804 2761 2763 2767 2787 2799 2754 2762 2764 2777 2744 2745 2740 2770 2746 2766 2768 2751 2757 2749 2775 2759 2744 2764 2749 2787 2796 2758

Tree=0
num_leaves=31
num_cat=0
split_feature=6 6 6 6 6 6 6 6 16 6 6 6 6 6 16 16 6 6 7 7 8 8 16 12 16 16 6 6 16 18
split_gain=2.91373e+06 422134 316085 51053.4 45033.2 42804.1 36797.4 11020.5 7627.45 7397.67 6705.93 6176.55 5896.4 5653.59 5195.96 4255.45 3802.14 3272.24 3144.9 3056.13 2852.37 2427.58 2323.06 2069.98 2069.4 1845.21 1653.89 1555.66 1239.94 1136.3
threshold=52.500000000000007 73.500000000000014 31.500000000000004 85.500000000000014 63.500000000000007 41.500000000000007 20.500000000000004 80.500000000000014 -0.37940952255126015 26.500000000000004 58.500000000000007 91.500000000000014 46.500000000000007 15.500000000000002 -0.60355339059327384 -0.37940952255126015 68.500000000000014 36.500000000000007 64.500000000000014 52.500000000000007 47.500000000000007 64.500000000000014 -0.60355339059327384 13.500000000000002 -0.12940952255126037 -0.60355339059327384 67.500000000000014 35.500000000000007 -0.12940952255126037 1.0000000180025095e-35
decision_type=2 2 2 2 2 2 2 2 2 2 2 2 2 2 2 2 2 2 2 2 2 2 2 2 2 2 2 2 2 2
left_child=2 4 6 7 10 14 13 15 23 25 21 28 20 -1 27 29 -10 -16 -12 -14 -7 -2 -11 26 -9 -8 -6 -4 -5 -3
right_child=1 3 5 11 8 12 9 24 16 22 18 -13 19 -15 17 -17 -18 -19 -20 -21 -22 -23 -24 -25 -26 -27 -28 -29 -30 -31
leaf_value=50.97667802230329 55.394550318127145 57.117406583228451 52.74032324989512 58.250697459240726 55.741723257464912 54.324109862201553 51.856823411066081 57.702823251149958 56.494238912617533 52.346977949481399 55.952025381517771 59.063020802776862 54.815323259674791 51.590861067347667 53.336271866660823 57.557250963496109 56.992165355241937 53.836356460711102 55.330707879306885 54.245792001466725 53.71620044308672 54.810672097361966 52.857661961302995 56.608473935153228 58.143773961105133 52.248435887623373 56.238081871324695 53.240171734743605 58.592346882552242 56.531602320217026
leaf_weight=251 414 144 100 147 125 239 200 152 332 139 376 304 357 372 253 415 285 271 104 128 114 86 248 73 355 302 145 165 383 43
leaf_count=251 414 144 100 147 125 239 200 152 332 139 376 304 357 372 253 415 285 271 104 128 114 86 248 73 355 302 145 165 383 43
internal_value=55.2392 57.0707 52.9737 58.1126 56.0273 53.941 51.9327 57.6681 56.5141 52.3457 55.5504 58.7037 54.4387 51.3434 53.4124 57.3788 56.7242 53.5949 55.8174 54.665 54.1278 55.2941 52.6742 56.136 58.0116 52.0924 56.0083 53.0515 58.4976 56.9827
internal_weight=0 3883 3139 1943 1940 1627 1512 1109 960 889 980 834 838 623 789 602 617 524 480 485 353 500 387 343 507 502 270 265 530 187
internal_count=7022 3883 3139 1943 1940 1627 1512 1109 960 889 980 834 838 623 789 602 617 524 480 485 353 500 387 343 507 502 270 265 530 187
is_linear=0
shrinkage=1


Tree=1
num_leaves=31
num_cat=0
split_feature=6 6 6 6 6 6 6 6 6 6 6 16 16 6 7 6 16 12 6 16 16 16 8 12 16 16 6 6 12 12
split_gain=2.36012e+06 343457 256029 49121.3 34704.9 31116.9 30075.5 8759.62 7414.23 6655.31 6270.35 4706.52 3971 3929.68 3729.72 3535.94 3276.8 2773.27 2665.98 2577.12 2321.19 2157.08 2104.17 1764.91 1649.63 1419.72 1301.58 1249.48 1231.48 1115.52
threshold=52.500000000000007 75.500000000000014 31.500000000000004 65.500000000000014 43.500000000000007 86.500000000000014 19.500000000000004 59.500000000000007 25.500000000000004 81.500000000000014 37.500000000000007 -0.37940952255126015 -0.37940952255126015 92.500000000000014 64.500000000000014 13.500000000000002 -0.12940952255126037 12.500000000000002 70.500000000000014 -0.37940952255126015 -0.60355339059327384 -0.60355339059327384 62.500000000000007 12.500000000000002 -0.12940952255126037 -0.60355339059327384 55.500000000000007 48.500000000000007 13.500000000000002 11.500000000000002
decision_type=2 2 2 2 2 2 2 2 2 2 2 2 2 2 2 2 2 2 2 2 2 2 2 2 2 2 2 2 2 2
left_child=2 3 6 7 10 9 15 22 25 16 20 23 17 -7 -9 -1 29 -6 -13 28 -4 -10 26 -5 -11 -8 -2 -14 -12 -3
right_child=1 5 4 11 12 13 8 14 21 24 19 18 27 -15 -16 -17 -18 -19 -20 -21 -22 -23 -24 -25 -26 -27 -28 -29 -30 -31
leaf_value=-3.9845097993549552 0.0050425753068695798 1.5822960909294046 -2.1365266788005832 0.87689461398017787 -1.1789953259650818 3.0096955157381671 -3.11275486217931 0.79445288215685528 -2.638700793210198 2.2916187729374058 -1.7698422118907666 1.3001624748014635 -0.58318432310018042 3.5024477537473042 0.25810828115991369 -3.4150954281110217 2.2556589162688154 -0.54085863048615657 1.721232264090891 -1.1277884514356147 -1.6643331338395209 -2.1912000948069048 -0.27167925209105015 1.429537588510758 2.6788566584322888 -2.7719001619357631 0.34108066567100209 -0.22984287598255007 -1.2023397110126637 2.137717745255451
leaf_weight=152 209 138 160 223 167 497 203 428 170 155 131 310 232 240 186 386 317 115 292 294 298 294 125 78 379 307 257 176 54 49
leaf_count=152 209 138 160 223 167 497 203 428 170 155 131 310 232 240 186 386 317 115 292 294 298 294 125 78 379 307 257 176 54 49
internal_value=0 1.64835 -2.03903 0.785336 -1.16841 2.67326 -2.97588 0.367457 -2.64441 2.32046 -1.56474 1.34297 -0.630206 3.17016 0.631977 -3.57597 2.05982 -0.918762 1.5044 -1.31179 -1.82929 -2.35516 0.0926425 1.0201 2.56646 -2.90757 0.190368 -0.430763 -1.60419 1.72783
internal_weight=0 3883 3139 2108 1627 1775 1512 1205 974 1038 937 903 690 737 614 538 504 282 602 479 458 464 591 301 534 510 466 408 185 187
internal_count=7022 3883 3139 2108 1627 1775 1512 1205 974 1038 937 903 690 737 614 538 504 282 602 479 458 464 591 301 534 510 466 408 185 187
is_linear=0
shrinkage=0.1


Tree=2
num_leaves=31
num_cat=0
split_feature=6 6 6 6 6 6 6 6 6 6 6 6 16 6 7 16 16 16 8 12 16 6 6 16 12 16 16 6 16 14
split_gain=1.9117e+06 278417 207574 35104.2 29036.4 28103 24888.8 7154.4 6377.24 5498.56 5057.46 4419.69 3746.69 3729.09 2779.49 2689.25 2577.12 2565.85 2202.97 1988.08 1775.64 1690.54 1515.21 1511.18 1447.43 1406.59 1243.53 1113.88 1000.93 951.529
threshold=52.500000000000007 74.500000000000014 32.500000000000007 65.500000000000014 85.500000000000014 22.500000000000004 44.500000000000007 60.500000000000007 16.500000000000004 80.500000000000014 39.500000000000007 90.500000000000014 -0.37940952255126015 27.500000000000004 65.500000000000014 -0.37940952255126015 -0.12940952255126037 -0.60355339059327384 64.500000000000014 12.500000000000002 -0.37940952255126015 70.500000000000014 56.500000000000007 -0.78656609248549325 13.500000000000002 -0.37940952255126015 -0.78656609248549325 10.500000000000002 -0.12940952255126037 5.5000000000000009
decision_type=2 2 2 2 2 2 2 2 2 2 2 2 2 2 2 2 2 2 2 2 2 2 2 2 2 2 2 2 2 2
left_child=2 3 5 7 9 8 10 18 27 16 17 28 24 26 -9 19 -3 -4 22 -8 29 -14 -2 -15 -5 -11 -7 -1 -6 -12
right_child=1 4 6 12 11 13 15 14 -10 25 20 -13 21 23 -16 -17 -18 -19 -20 -21 -22 -23 -24 -25 -26 -27 -28 -29 -30 -31
leaf_value=-3.8622603209122368 0.044394789313102936 1.5037468600155686 -1.8273547356327375 0.76105804656716913 2.3438732391748673 -2.6762595140296996 -1.0107337513874317 0.75413902877171834 -2.8304166047323136 1.9410841334579338 -1.6237189625936843 3.0575253274982348 1.1701462362850865 -2.3081837009248281 0.23857297557189355 -0.34558931600831738 1.9626849502712103 -1.3737995375826788 -0.25389597244965012 -0.43616789223499669 -0.88828337803800062 1.521222964874128 0.37469476215265418 -1.8617795596629272 1.3571095218658449 2.3364168729537571 -2.3010098756019484 -3.329174571487139 2.683751653911111 -1.1192752081414927
leaf_weight=46 286 203 192 220 117 131 145 375 496 117 63 383 310 105 145 366 308 356 129 103 235 246 270 273 50 390 271 265 334 92
leaf_count=46 286 203 192 220 117 131 145 375 496 117 63 383 310 105 145 366 308 356 129 103 235 246 270 273 50 390 271 265 334 92
internal_value=0 1.48351 -1.83513 0.67492 2.37026 -2.6393 -1.01283 0.330711 -3.05301 2.01186 -1.33682 2.80772 1.17706 -2.21127 0.610375 -0.517862 1.78037 -1.53271 0.118412 -0.772104 -1.06157 1.32548 0.204792 -1.98578 0.871438 2.24519 -2.42329 -3.40802 2.59558 -1.32431
internal_weight=0 3883 3139 2031 1852 1587 1552 1205 807 1018 938 834 826 780 520 614 511 548 685 248 390 556 556 378 270 507 402 311 451 155
internal_count=7022 3883 3139 2031 1852 1587 1552 1205 807 1018 938 834 826 780 520 614 511 548 685 248 390 556 556 378 270 507 402 311 451 155
is_linear=0
shrinkage=0.1


Tree=3
num_leaves=31
num_cat=0
split_feature=6 6 6 6 6 6 6 6 6 6 16 6 16 16 16 7 16 8 12 6 6 6 12 6 16 16 14 12 12 16
split_gain=1.5491e+06 214809 179653 29684 29153.1 20517.5 17388.4 7321 4824.32 4357.67 3090.01 2725.37 2647.63 2638.96 2528.53 2251.38 2158.83 1969.77 1723.81 1713.05 1581.39 1458.84 1225.43 1225.08 1169.17 1096.64 1064.16 996.524 934.311 910.332
threshold=53.500000000000007 75.500000000000014 34.500000000000007 24.500000000000004 65.500000000000014 86.500000000000014 44.500000000000007 17.500000000000004 60.500000000000007 81.500000000000014 -0.37940952255126015 92.500000000000014 -0.37940952255126015 -0.60355339059327384 -0.37940952255126015 65.500000000000014 -0.12940952255126037 61.500000000000007 12.500000000000002 70.500000000000014 40.500000000000007 29.500000000000004 12.500000000000002 12.500000000000002 -0.37940952255126015 -0.12940952255126037 5.5000000000000009 12.500000000000002 10.500000000000002 -0.12940952255126037
decision_type=2 2 2 2 2 2 2 2 2 2 2 2 2 2 2 2 2 2 2 2 2 2 2 2 2 2 2 2 2 2
left_child=2 4 3 7 8 9 13 23 17 16 22 29 27 26 18 -10 28 -2 -8 -12 -15 -14 -6 -1 -9 -11 -4 -5 -3 -7
right_child=1 5 6 12 10 11 14 24 15 25 19 -13 21 20 -16 -17 -18 -19 -20 -21 -22 -23 -24 -25 -26 -27 -28 -29 -30 -31
leaf_value=-3.2947889947054678 0.24694151525082214 1.2438605804291984 -1.6126511146711267 -2.2150322561105971 0.70510627459985264 2.2262479442439669 -0.89692171814018173 -2.6003101819137049 0.67872511176665629 1.8547248791110134 1.0531316271135884 2.8464506530761717 -1.875417664791774 -1.1328023639256741 -0.28197978019214082 0.21471567179622322 1.827811825989925 -0.15153761897669282 -0.38121019585997656 1.3906608282652213 -0.77499150104820735 -1.509022158332493 1.1656044715490097 -2.9020783912134536 -2.3191869659534357 2.1704558533540186 -1.2065376971043698 -1.869563833052112 1.7206386644332134 2.5233790237339817
leaf_weight=114 445 126 115 181 223 146 152 290 375 155 310 240 206 323 417 145 317 172 113 292 200 230 78 262 302 379 147 155 61 351
leaf_count=114 445 126 115 181 223 146 152 290 375 155 310 240 206 323 417 145 317 172 113 292 200 230 78 262 302 379 147 155 61 351
internal_value=0 1.3618 -1.61997 -2.30721 0.661853 2.16624 -0.804842 -2.67607 0.324961 1.87976 1.08605 2.56972 -1.84471 -1.12574 -0.435476 0.549338 1.66885 0.135858 -0.677015 1.21685 -0.995972 -1.68214 0.824438 -3.02114 -2.4569 2.07881 -1.38479 -2.05566 1.39939 2.43609
internal_weight=0 3815 3207 1740 2040 1775 1467 968 1137 1038 903 737 772 785 682 520 504 617 265 602 523 436 301 376 592 534 262 336 187 497
internal_count=7022 3815 3207 1740 2040 1775 1467 968 1137 1038 903 737 772 785 682 520 504 617 265 602 523 436 301 376 592 534 262 336 187 497
is_linear=0
shrinkage=0.1


Tree=4
num_leaves=31
num_cat=0
split_feature=6 6 6 6 6 6 6 6 6 16 6 6 6 16 6 7 1 7 7 6 16 7 7 16 8 6 16 2 6 12
split_gain=1.25646e+06 193611 126839 25372.4 19451.3 16539.2 15998.9 5261.73 3952.67 3578.66 3403.94 2821.75 2813.73 2036.95 1931.07 1803.96 1764.74 1684.67 1481.25 1464.28 1453.55 1363.55 1326.44 1251.91 1222.91 1152.17 1027.85 908.595 897.868 819.187
threshold=51.500000000000007 72.500000000000014 31.500000000000004 83.500000000000014 62.500000000000007 19.500000000000004 40.500000000000007 89.500000000000014 26.500000000000004 -0.37940952255126015 77.500000000000014 45.500000000000007 56.500000000000007 -0.60355339059327384 14.500000000000002 62.500000000000007 24.450000000000003 50.500000000000007 45.500000000000007 66.500000000000014 -0.12940952255126037 77.500000000000014 56.500000000000007 -0.12940952255126037 30.500000000000004 36.500000000000007 -0.37940952255126015 23.250000000000004 94.500000000000014 11.500000000000002
decision_type=2 2 2 2 2 2 2 2 2 2 2 2 2 2 2 2 2 2 2 2 2 2 2 2 2 2 2 2 2 2
left_child=2 4 5 10 12 14 13 23 26 16 21 18 22 29 -1 -14 -6 -13 -8 -11 -12 -3 -2 -5 -10 -15 -7 -17 -9 -4
right_child=1 3 6 7 9 8 11 28 24 19 20 17 15 25 -16 27 -18 -19 -20 -21 -22 -23 -24 -25 -26 -27 -28 -29 -30 -31
leaf_value=-2.8579881054017604 0.044413351009111451 1.3729852482720206 -1.6819523316509319 1.7747657775878907 0.10376649759709836 -2.2307060300868797 -0.66720815420150759 2.3689341109374475 -1.5186089166929557 0.73774292879259062 1.4165519763484147 -0.28297085888004186 0.39058705522436515 -1.2611721867393602 -2.4678742443119086 -0.45254818353097187 0.64271179577206361 -0.67506132649964301 -1.1023424438528113 1.0539023665918243 1.7795181705429031 0.95305380029976383 -0.37652689216522073 2.0896843969164043 -1.8763500817986423 -0.94788192837205654 -1.965468146321111 0.12989149806233719 2.6966919361461295 -1.3073910815899188
leaf_weight=205 307 341 106 175 77 274 265 348 215 247 165 296 419 253 333 37 288 174 111 360 333 100 99 453 172 219 313 97 110 130
leaf_count=205 307 341 106 175 77 274 265 348 215 247 165 296 419 253 333 37 288 174 111 360 333 100 99 453 172 219 313 97 110 130
internal_value=0 1.17761 -1.51945 1.86076 0.461206 -2.17151 -0.885007 2.1899 -1.92571 0.776459 1.48009 -0.591478 0.141679 -1.23575 -2.61652 0.288447 0.529016 -0.428128 -0.795665 0.925251 1.65926 1.27776 -0.0582297 2.00193 -1.6776 -1.11581 -2.08928 -0.0309314 2.44765 -1.47563
internal_weight=0 3956 3066 2025 1931 1512 1554 1086 974 972 939 846 959 708 538 553 365 470 376 607 498 441 406 628 387 472 587 134 458 236
internal_count=7022 3956 3066 2025 1931 1512 1554 1086 974 972 939 846 959 708 538 553 365 470 376 607 498 441 406 628 387 472 587 134 458 236
is_linear=0
shrinkage=0.1


Tree=5
num_leaves=31
num_cat=0
split_feature=6 6 6 6 6 6 6 6 16 6 6 6 6 12 12 14 6 8 6 7 16 7 7 8 12 16 16 6 6 12
split_gain=1.01773e+06 156825 102825 20551.6 15909.7 15303.7 11530.9 4262 3423.36 2757.19 2449.22 2313.04 2015.98 1863.9 1776.58 1742.8 1621.76 1508.39 1451 1272.3 1177.38 1138.74 1104.48 1091.8 1088.49 1063.17 1014.05 919.459 806.784 758.15
threshold=51.500000000000007 72.500000000000014 30.500000000000004 83.500000000000014 61.500000000000007 40.500000000000007 19.500000000000004 89.500000000000014 -0.37940952255126015 77.500000000000014 24.500000000000004 46.500000000000007 35.500000000000007 14.500000000000002 6.5000000000000009 4.5000000000000009 13.500000000000002 47.500000000000007 67.500000000000014 53.500000000000007 -0.12940952255126037 39.500000000000007 77.500000000000014 37.500000000000007 11.500000000000002 -0.60355339059327384 -0.12940952255126037 66.500000000000014 55.500000000000007 11.500000000000002
decision_type=2 2 2 2 2 2 2 2 2 2 2 2 2 2 2 2 2 2 2 2 2 2 2 2 2 2 2 2 2 2
left_child=2 4 6 9 13 12 16 26 15 22 -8 17 23 14 -2 -6 -1 -7 -10 -13 -11 -14 -3 -4 -16 -12 -5 29 -15 -17
right_child=1 3 5 7 8 11 10 -9 18 20 25 19 21 28 24 27 -18 -19 -20 -21 -22 -23 -24 -25 -26 -27 -28 -29 -30 -31
leaf_value=-2.6315486406025137 0.18831817501066056 1.2356867268987415 -1.1971236604945104 1.5972892025538854 -0.34565744583423319 -0.56614227165543551 -1.9389516273764678 2.2028879163567154 0.6813822564147004 1.2748967698126128 -1.8077968726675195 -0.27972043250364081 -0.86965739523572683 0.074016769041291217 -0.35730857987888159 0.12923474197470866 -2.2459205659559971 -0.96647055205227683 0.98035483084644481 -0.73512478228410094 1.6015663725477798 -1.2176506802025768 0.85774842113256455 -1.564771972031429 0.02166432737786737 -1.4902526150937725 1.8807160425922991 0.66518172307146928 0.40316412345362967 0.518936074381115
leaf_weight=152 235 341 266 175 26 296 430 458 364 165 166 337 271 116 160 86 386 138 293 75 333 144 100 116 144 289 453 180 208 119
leaf_count=152 235 341 266 175 26 296 430 458 364 165 166 337 271 116 160 86 386 138 293 75 333 144 100 116 144 289 453 180 208 119
internal_value=0 1.05985 -1.3675 1.67468 0.415085 -0.828557 -1.98977 1.97091 0.673109 1.33208 -1.76783 -0.53233 -1.143 0.0957696 -0.0181724 0.446747 -2.35487 -0.693436 0.814714 -0.362622 1.49333 -0.990407 1.14999 -1.30877 -0.177795 -1.6061 1.80174 0.50026 0.285321 0.355452
internal_weight=0 3956 3066 2025 1931 1643 1423 1086 1068 939 885 846 797 863 539 411 538 434 657 412 498 415 441 382 304 455 628 385 324 205
internal_count=7022 3956 3066 2025 1931 1643 1423 1086 1068 939 885 846 797 863 539 411 538 434 657 412 498 415 441 382 304 455 628 385 324 205
is_linear=0
shrinkage=0.1


Tree=6
num_leaves=31
num_cat=0
split_feature=6 6 6 6 6 6 6 6 6 6 6 16 15 8 6 16 12 12 16 12 6 16 16 12 2 6 6 2 16 16
split_gain=825563 106640 103964 14247 13679.1 12497.2 11214.7 2835.88 2382.95 2262.93 2077.18 1829.27 1772.88 1772.64 1639.22 1605.07 1505.1 1497.68 1305.3 1286.26 1049.81 979.321 811.914 1076.02 791.111 786.751 721.849 712.062 676.071 675.451
threshold=54.500000000000007 75.500000000000014 33.500000000000007 22.500000000000004 66.500000000000014 44.500000000000007 86.500000000000014 17.500000000000004 59.500000000000007 81.500000000000014 27.500000000000004 -0.37940952255126015 0.25881904510252091 66.500000000000014 93.500000000000014 -0.37940952255126015 12.500000000000002 6.5000000000000009 -0.37940952255126015 11.500000000000002 39.500000000000007 0.91597561503675351 -0.12940952255126037 11.500000000000002 20.750000000000004 9.5000000000000018 48.500000000000007 21.550000000000004 -0.12940952255126037 -0.37940952255126015
decision_type=2 2 2 2 2 2 2 2 2 2 2 2 2 2 2 2 2 2 2 2 2 2 2 2 2 2 2 2 2 2
left_child=2 4 3 7 8 11 9 25 22 18 29 19 -6 -10 28 16 -7 -14 27 -4 -13 -12 23 -2 -15 -1 -17 -3 -8 -5
right_child=1 6 5 10 12 15 14 -9 13 -11 21 20 17 24 -16 26 -18 -19 -20 -21 -22 -23 -24 -25 -26 -27 -28 -29 -30 -31
leaf_value=-2.7308545924999095 -0.30389846469136494 0.41080713428556925 -1.2400169592399104 -1.7260559084514779 0.97284150027647254 -0.67145889626275856 1.6258207816563681 -1.8349995715435587 0.49961351785193947 1.5125459351343162 -1.341093452699444 -0.85924218462213231 0.88582168274455597 -0.38799296474705142 2.1405952200705176 -0.3298038625913231 -0.21788073653398557 0.49185695760310272 1.3198921926194729 -0.85338388991661562 -0.57165045710320173 -0.93455430782267035 0.24430410584426043 0.14708440570919604 0.22321909308640497 -2.1705581031077914 -0.07799184459883024 1.053103062084743 1.8663681580658744 -1.4665485749925886
leaf_weight=27 87 20 154 192 410 169 167 431 515 534 386 276 180 24 181 190 129 208 358 195 235 70 211 135 180 349 284 126 389 210
leaf_count=27 87 20 154 192 410 169 167 431 515 534 386 276 180 24 181 190 129 208 358 195 235 70 211 135 180 349 284 126 389 210
internal_value=0 1.0201 -1.15252 -1.70847 0.509617 -0.585329 1.5809 -2.01009 0.289179 1.3691 -1.42478 -0.847513 0.827844 0.400791 1.87921 -0.293259 -0.475111 0.674624 1.21712 -1.02399 -0.726984 -1.27869 0.103846 -0.0296521 0.151312 -2.21079 -0.178929 0.965117 1.79412 -1.59049
internal_weight=0 3725 3297 1665 1950 1632 1775 807 1152 1038 858 860 798 719 737 772 298 388 504 349 511 456 433 222 204 376 474 146 556 402
internal_count=7022 3725 3297 1665 1950 1632 1775 807 1152 1038 858 860 798 719 737 772 298 388 504 349 511 456 433 222 204 376 474 146 556 402
is_linear=0
shrinkage=0.1


Tree=7
num_leaves=31
num_cat=0
split_feature=6 6 6 6 6 6 6 6 6 6 16 12 16 15 6 12 8 6 7 6 16 16 6 7 7 12 7 12 6 6
split_gain=668706 86478.3 84464.2 12934.2 10370.6 9589.49 8722.33 2800.02 1996.15 1754.67 1683.02 2049.86 1540.86 1530.05 1426.38 1420.93 1203.68 1151.05 998.151 887.035 859.122 840.013 816.668 809.331 778.315 754.351 594.784 577.689 562.881 541.941
threshold=54.500000000000007 74.500000000000014 34.500000000000007 23.500000000000004 85.500000000000014 65.500000000000014 45.500000000000007 16.500000000000004 79.500000000000014 90.500000000000014 -0.37940952255126015 10.500000000000002 -0.37940952255126015 1.0000000180025095e-35 39.500000000000007 6.5000000000000009 58.500000000000007 61.500000000000007 39.500000000000007 29.500000000000004 -0.37940952255126015 -0.60355339059327384 50.500000000000007 39.500000000000007 86.500000000000014 13.500000000000002 26.500000000000004 14.500000000000002 10.500000000000002 68.500000000000014
decision_type=2 2 2 2 2 2 2 2 2 2 2 2 2 2 2 2 2 2 2 2 2 2 2 2 2 2 2 2 2 2
left_child=2 5 3 7 8 10 14 28 20 -6 11 -2 25 29 23 -15 22 -12 -16 -14 -3 -9 -8 -4 -10 -5 -21 -20 -1 -7
right_child=1 4 6 12 9 13 16 21 24 -11 17 -13 19 15 18 -17 -18 -19 27 26 -22 -23 -24 -25 -26 -27 -28 -29 -30 -31
leaf_value=-2.3476588829703955 -0.23570704192861466 0.80943225501387417 -0.76523324619476685 -1.48859286707236 1.5304099965254114 0.68428363375591506 -0.28517809136562761 -1.7977552013882137 1.3415705906715962 1.8214767971487023 0.23849380708181522 0.22910962799547124 -1.2500807755334038 0.75193477715386292 -0.34744817223869456 0.40034154008202094 -0.52754714378148071 0.5264326707051511 -0.76136838505192417 -0.51614296293258677 1.1180252363807277 -1.5524889300092619 -0.045900193538439459 -1.0819696140500297 0.95007880511028431 -1.1879238058090211 -1.0327933050310467 -0.46622114300727846 -1.9687048239078164 0.93769243142734737
leaf_weight=46 133 132 282 251 451 132 327 236 545 383 355 331 245 225 119 235 121 228 252 25 285 342 253 113 56 125 205 90 265 234
leaf_count=46 133 132 282 251 451 132 327 236 545 383 355 331 245 225 119 235 121 228 252 25 285 342 253 113 56 125 205 90 265 234
internal_value=0 0.918087 -1.03727 -1.51606 1.40264 0.438969 -0.502202 -1.78281 1.18845 1.66408 0.237993 0.0958755 -1.2374 0.693718 -0.716389 0.572316 -0.240655 0.351101 -0.5969 -1.11768 1.02034 -1.65263 -0.180803 -0.855844 1.30509 -1.38864 -0.976636 -0.683698 -2.02476 0.846299
internal_weight=0 3725 3297 1740 1852 1873 1557 889 1018 834 1047 464 851 826 856 460 701 583 461 475 417 578 580 395 601 376 230 342 311 366
internal_count=7022 3725 3297 1740 1852 1873 1557 889 1018 834 1047 464 851 826 856 460 701 583 461 475 417 578 580 395 601 376 230 342 311 366
is_linear=0
shrinkage=0.1


Tree=8
num_leaves=31
num_cat=0
split_feature=6 6 6 6 6 6 6 6 15 12 6 16 6 16 12 6 12 16 7 6 7 6 7 7 6 6 16 6 3 2
split_gain=542007 84037.6 54936.5 10970.2 8538.76 8269.51 6328.21 2429.31 1535.67 1556.89 1483.23 1431.39 1429.93 1256.3 1201.62 1190.87 1113.45 1065.63 990.878 888.263 839.741 801.992 778.948 770.25 684.86 668.345 648.21 596.425 550.206 537.216
threshold=51.500000000000007 72.500000000000014 30.500000000000004 83.500000000000014 62.500000000000007 41.500000000000007 20.500000000000004 88.500000000000014 0.25881904510252091 6.5000000000000009 57.500000000000007 -0.12940952255126037 36.500000000000007 -0.37940952255126015 11.500000000000002 14.500000000000002 12.500000000000002 -0.78656609248549325 64.500000000000014 78.500000000000014 37.500000000000007 26.500000000000004 40.500000000000007 56.500000000000007 66.500000000000014 94.500000000000014 -0.37940952255126015 67.500000000000014 20.750000000000004 22.650000000000002
decision_type=2 2 2 2 2 2 2 2 2 2 2 2 2 2 2 2 2 2 2 2 2 2 2 2 2 2 2 2 2 2
left_child=2 4 6 11 10 12 15 26 24 -10 23 14 20 16 28 -1 -7 -8 -12 -13 -4 -19 -14 -2 -6 -9 29 -11 -3 -5
right_child=1 3 5 7 8 13 17 25 9 27 18 19 22 -15 -16 -17 -18 21 -20 -21 -22 -23 -24 -25 -26 -27 -28 -29 -30 -31
leaf_value=-1.889195186335866 0.048073794947421485 0.23745640596747397 -0.86505536390762572 0.74658342157091417 0.50331332502943105 -0.67275924316064561 -1.4388954489461838 1.5342338421961645 0.57594158099141235 0.04941973553293131 0.28440179769433555 0.95109336326365868 -0.57408760556048066 -0.25875850673358253 1.0939834835505722 -1.5949491929209403 -0.28246361514980284 -1.2838008627938162 -0.104397296528273 1.1935336046235663 -1.1988705325633922 -1.035526568747702 -0.86588325977325453 -0.22830653053754613 0.73649090016361607 1.8105266987193716 1.3436017980468407 0.35907610773574561 0.73423737648838361 1.2299796510098586
leaf_weight=205 354 25 380 35 231 187 248 429 215 121 385 323 264 458 101 418 120 342 79 284 94 210 140 141 277 110 445 128 206 67
leaf_count=205 354 25 380 35 231 187 248 429 215 121 385 323 264 458 101 418 120 342 79 284 94 210 140 141 277 110 445 128 206 67
internal_value=0 0.773446 -0.997962 1.22352 0.301459 -0.604024 -1.4528 1.43995 0.510332 0.378812 0.0897541 0.973214 -0.813437 -0.363677 0.80627 -1.69177 -0.520201 -1.26671 0.218205 1.06453 -0.931255 -1.18935 -0.675205 -0.0306527 0.630459 1.59062 1.29148 0.208601 0.680473 1.06411
internal_weight=0 3956 3066 2025 1931 1643 1423 1086 972 464 959 939 878 765 332 623 307 800 464 607 474 552 404 495 508 539 547 249 231 102
internal_count=7022 3956 3066 2025 1931 1643 1423 1086 972 464 959 939 878 765 332 623 307 800 464 607 474 552 404 495 508 539 547 249 231 102
is_linear=0
shrinkage=0.1


Tree=9
num_leaves=31
num_cat=0
split_feature=6 6 6 6 6 6 6 6 16 1 6 16 15 3 15 12 16 12 6 18 8 6 12 6 6 6 12 15 16 18
split_gain=439347 59931.4 53303.4 8646.38 7357.57 6820.37 5233.51 1569.07 1451.63 1671.79 1412.37 1356.64 1096.29 1059.02 1056.87 938.036 903.594 854.433 826.585 758.714 725.744 721.389 668.026 605.117 593.461 515.392 487.14 471.097 464.25 469.085
threshold=55.500000000000007 34.500000000000007 76.500000000000014 22.500000000000004 67.500000000000014 45.500000000000007 87.500000000000014 17.500000000000004 -0.37940952255126015 24.450000000000003 27.500000000000004 -0.37940952255126015 0.25881904510252091 28.950000000000003 1.0000000180025095e-35 6.5000000000000009 -0.12940952255126037 6.5000000000000009 61.500000000000007 1.0000000180025095e-35 32.500000000000007 93.500000000000014 11.500000000000002 82.500000000000014 38.500000000000007 11.500000000000002 14.500000000000002 1.0000000180025095e-35 -0.12940952255126037 0.25000000000000017
decision_type=2 2 2 2 2 2 2 2 2 2 2 2 2 2 2 2 2 2 2 2 2 2 2 2 2 2 2 2 2 2
left_child=1 3 4 7 8 12 11 25 9 -2 27 19 24 16 -6 -16 22 -14 -10 -4 -12 28 -7 -13 -3 -1 -11 -5 29 -8
right_child=2 5 6 10 14 13 21 -9 18 26 20 23 17 -15 15 -17 -18 -19 -20 -21 -22 -23 -24 -25 -26 -27 -28 -29 -30 -31
leaf_value=-1.8485510974735408 -0.25290135908295813 -0.62768727585149175 0.92220557004508419 -1.0851157286425808 0.77168893942110983 -0.50551809968370376 1.3132932032308271 -1.3383139450699437 0.22254757474083453 0.14122012691957683 -0.81308025559379726 1.0075917767532026 -0.55272999606453455 0.0010999536171835307 0.69466907384171006 0.40213741987559931 -0.1185862935476856 -0.87289407093431692 0.44673767290845678 0.47990982085466388 -1.0492641355907708 1.5741733674844984 -0.19617170291252373 1.1822776673878828 -0.40802246460333902 -1.5584283994591754 0.38676565812451635 -1.3135099588519465 1.4058695414555578 0.91999911242061205
leaf_weight=77 97 199 202 265 355 165 93 431 300 290 303 359 156 238 207 233 266 179 364 48 228 181 121 443 322 299 112 137 307 45
leaf_count=77 97 199 202 265 355 165 93 431 300 290 303 359 156 238 207 233 266 179 364 48 228 181 121 443 322 299 112 137 307 45
internal_value=0 -0.819675 0.763317 -1.22886 0.408867 -0.387118 1.17691 -1.46855 0.248596 0.11972 -1.02155 1.04068 -0.582672 -0.175227 0.643326 0.53976 -0.251252 -0.723803 0.345447 0.837285 -0.914493 1.40585 -0.374641 1.10408 -0.491925 -1.61784 0.209631 -1.16295 1.33739 1.18505
internal_weight=0 3386 3636 1740 1958 1646 1678 807 1163 499 933 1052 856 790 795 440 552 335 664 250 531 626 286 802 521 376 402 402 445 138
internal_count=7022 3386 3636 1740 1958 1646 1678 807 1163 499 933 1052 856 790 795 440 552 335 664 250 531 626 286 802 521 376 402 402 445 138
is_linear=0
shrinkage=0.1


Tree=10
num_leaves=31
num_cat=0
split_feature=6 6 6 6 6 6 6 6 6 5 12 4 15 12 12 12 15 12 6 12 16 12 16 7 6 8 6 16 16 1
split_gain=356851 58939 33008.2 8085.76 5468.82 5206.98 3625.68 1635.97 1163.64 1149.57 1124.16 1108.71 1072.74 963.335 888.725 866.535 655.948 649.361 648.217 557.681 527.567 519.642 476.345 444.512 438.039 489.005 416.4 410.953 372.627 626.294
threshold=50.500000000000007 71.500000000000014 29.500000000000004 83.500000000000014 61.500000000000007 39.500000000000007 19.500000000000004 90.500000000000014 78.500000000000014 25.050000000000004 14.500000000000002 26.050000000000004 0.25881904510252091 6.5000000000000009 1.0000000180025095e-35 14.500000000000002 0.25881904510252091 10.500000000000002 13.500000000000002 6.5000000000000009 -0.60355339059327384 6.5000000000000009 -0.12940952255126037 84.500000000000014 48.500000000000007 50.500000000000007 68.500000000000014 -0.78656609248549325 1.0000000180025095e-35 23.550000000000004
decision_type=2 2 2 2 2 2 2 2 2 2 2 2 2 2 2 2 2 2 2 2 2 2 2 2 2 2 2 2 2 2
left_child=2 4 6 8 10 12 18 22 16 28 13 -7 27 -2 -8 -16 -3 -15 -1 -18 -20 -14 -5 -10 25 -13 -11 -4 29 -6
right_child=1 3 5 7 9 11 14 -9 23 26 -12 24 21 17 15 -17 19 -19 20 -21 -22 -23 -24 -25 -26 -27 -28 -29 -30 -31
leaf_value=-1.5735871565969368 0.10347629105796181 0.78367119255908002 -0.79642356644689516 0.9458598149781251 -0.04368683031410911 -0.48843601897194244 -0.55515549652504192 1.3337372006415622 0.94352644530476126 0.42499598593580762 0.18598882659574631 -0.25362382804390771 -0.71797598470918478 -0.31362575105020218 -1.1943748433820225 -0.98238048657175892 0.72649503365852119 -0.034267339535319623 -1.4687297424674035 0.44292871555685998 -1.2314184732516751 -0.99426675152469002 1.1285843485463707 0.64774578163179308 -0.049405290594413169 -0.56124742763941404 0.62623871356892069 -0.58063469754841657 0.38934609805477549 0.28324536468289352
leaf_weight=152 263 321 113 199 80 362 33 383 366 395 344 338 122 143 374 398 129 199 160 150 226 154 504 59 84 61 139 403 149 219
leaf_count=152 263 321 113 199 80 362 33 383 366 395 344 338 122 143 374 398 129 199 160 150 226 154 504 59 84 61 139 403 149 219
internal_value=0 0.612101 -0.830239 0.977318 0.212841 -0.528788 -1.19768 1.16745 0.775867 0.378278 0.0416509 -0.356124 -0.713007 -0.0404189 -1.06336 -1.08508 0.686193 -0.151075 -1.39867 0.57404 -1.32979 -0.872138 1.07686 0.902465 -0.256959 -0.300654 0.477379 -0.627891 0.260153 0.195772
internal_weight=0 4042 2980 2111 1931 1637 1343 1086 1025 982 949 845 792 605 805 772 600 342 538 279 386 276 703 425 483 399 534 516 448 299
internal_count=7022 4042 2980 2111 1931 1637 1343 1086 1025 982 949 845 792 605 805 772 600 342 538 279 386 276 703 425 483 399 534 516 448 299
is_linear=0
shrinkage=0.1


Tree=11
num_leaves=31
num_cat=0
split_feature=6 6 6 6 6 6 6 15 12 15 16 15 6 16 12 16 12 6 2 14 12 6 16 12 4 12 7 6 6 6
split_gain=289457 37426 36716.1 5560.73 5142.58 4442.65 3516.32 1067.17 1305.77 932.767 932.141 845.935 837.002 785.109 805.469 742.071 689.889 619.343 601.891 589.002 541.469 517.376 452.916 450.317 440.377 436.073 374.958 510.58 374.15 372.304
threshold=54.500000000000007 76.500000000000014 32.500000000000007 66.500000000000014 43.500000000000007 21.500000000000004 87.500000000000014 1.0000000180025095e-35 6.5000000000000009 0.25881904510252091 -0.37940952255126015 0.25881904510252091 15.500000000000002 -0.37940952255126015 13.500000000000002 -0.37940952255126015 6.5000000000000009 59.500000000000007 22.550000000000004 4.5000000000000009 6.5000000000000009 94.500000000000014 -0.60355339059327384 1.0000000180025095e-35 25.350000000000005 13.500000000000002 41.500000000000007 48.500000000000007 38.500000000000007 82.500000000000014
decision_type=2 2 2 2 2 2 2 2 2 2 2 2 2 2 2 2 2 2 2 2 2 2 2 2 2 2 2 2 2 2
left_child=2 3 5 7 9 12 10 17 -9 24 18 -5 -1 14 -6 25 -13 -2 -3 -10 -11 -8 -14 -17 -4 -7 -15 -28 -26 -12
right_child=1 6 4 11 13 15 21 8 19 20 29 16 22 26 -16 23 -18 -19 -20 -21 -22 -23 -24 -25 28 -27 27 -29 -30 -31
leaf_value=-1.3601828086898622 0.13707300873708214 0.40366802871707946 -0.61970001626605831 0.59752411505868364 -0.41645799520598281 -1.0553533289581538 1.0998087671087233 0.23749362616084713 -0.34863816316602597 -0.52587919351238532 0.81932596363397026 0.53813421839653564 -1.253192674735236 0.1238800388684527 -0.086289263392488158 -0.47963683420703529 0.28426613803123285 0.35013143788917267 0.76296551546200797 0.0026321772232651714 -0.78459074900480319 1.3386829792369497 -1.0525542884421863 -0.82266255214706652 -0.48599065746874254 -0.83584907548768195 -0.26988454009150414 -0.053652313344552428 -0.29439905768467323 0.95634686936105084
leaf_weight=251 222 62 121 465 221 256 516 267 59 149 359 201 189 61 111 42 229 354 188 250 177 110 278 431 235 140 182 273 180 443
leaf_count=251 222 62 121 465 221 256 516 267 59 149 359 201 189 61 111 42 229 354 188 250 177 110 278 431 235 140 182 273 180 443
internal_value=0 0.604029 -0.682441 0.317043 -0.360957 -1.02884 0.954125 0.171767 0.0755194 -0.53296 0.842457 0.504034 -1.21291 -0.186114 -0.30607 -0.876757 0.402935 0.268015 0.67386 -0.0644389 -0.666345 1.14178 -1.13375 -0.792204 -0.451835 -0.977751 -0.108933 -0.140145 -0.402891 0.895012
internal_weight=0 3725 3297 2047 1710 1587 1678 1152 576 862 1052 895 718 848 332 869 430 576 250 309 326 626 467 473 536 396 516 455 415 802
internal_count=7022 3725 3297 2047 1710 1587 1678 1152 576 862 1052 895 718 848 332 869 430 576 250 309 326 626 467 473 536 396 516 455 415 802
is_linear=0
shrinkage=0.1


Tree=12
num_leaves=31
num_cat=0
split_feature=6 6 6 6 6 6 6 6 16 2 6 15 16 12 12 12 12 6 12 15 6 7 12 12 12 7 6 14 12 14
split_gain=234610 38962 21842 5320.79 3630.29 3399.12 2374.08 1023.54 960.071 963.988 849.447 832.149 798.711 613.17 609.835 603.55 589.583 504.158 455.201 451.251 415.447 411.825 407.563 391.073 384.174 381.934 371.742 329.697 319.151 300.861
threshold=50.500000000000007 71.500000000000014 29.500000000000004 84.500000000000014 58.500000000000007 40.500000000000007 19.500000000000004 78.500000000000014 -0.37940952255126015 20.750000000000004 91.500000000000014 0.25881904510252091 -0.37940952255126015 1.0000000180025095e-35 14.500000000000002 14.500000000000002 14.500000000000002 9.5000000000000018 6.5000000000000009 0.25881904510252091 64.500000000000014 92.500000000000014 16.500000000000004 6.5000000000000009 6.5000000000000009 86.500000000000014 36.500000000000007 4.5000000000000009 15.500000000000002 5.5000000000000009
decision_type=2 2 2 2 2 2 2 2 2 2 2 2 2 2 2 2 2 2 2 2 2 2 2 2 2 2 2 2 2 2
left_child=2 4 6 7 15 11 17 19 9 -6 21 26 16 -8 -15 18 29 -1 -2 -3 -10 -5 -19 -21 -13 -9 -4 -20 -11 -7
right_child=1 3 5 10 8 12 13 25 20 28 -12 24 -14 14 -16 -17 -18 22 27 23 -22 -23 -24 -25 -26 -27 -28 -29 -30 -31
leaf_value=-1.5558515407420972 0.027069139587593841 0.63969822362575945 -0.55137194095609288 0.91816282648319447 -0.23074246528473769 -0.59541687883723238 -0.44125959358432082 0.76866641761237431 0.25850869284072769 0.18312877825663987 1.1066021378985362 -0.57185488805282036 -0.18877829599459439 -0.97311812251965635 -0.7952748408194763 0.11102840651292355 -0.11652532690515122 -1.1843777382758356 -0.42478584849172168 0.59349277204321338 0.40762876858231878 0.45719521239399913 -1.0015556000951511 0.35603263199329382 -0.79659005956990381 0.43622970129992517 -0.38326952346392629 -0.12435152553809213 0.45077314721047879 -0.3718811047686772
leaf_weight=27 188 321 364 626 55 104 33 524 334 409 304 139 453 374 398 232 60 310 45 129 424 20 201 150 168 37 206 194 50 143
leaf_count=27 188 321 364 626 55 104 33 524 334 409 304 139 453 374 398 232 60 310 45 129 424 20 201 150 168 37 206 194 50 143
internal_value=0 0.49631 -0.673182 0.79325 0.171689 -0.427965 -0.972081 0.649638 0.27038 0.164878 0.968759 -0.562107 -0.273172 -0.863388 -0.881432 -0.0188042 -0.3977 -1.13472 -0.0893456 0.558848 0.341922 0.903891 -1.11247 0.465826 -0.694837 0.746741 -0.490619 -0.180919 0.212284 -0.466001
internal_weight=0 4042 2980 2111 1931 1637 1343 1161 1272 514 950 877 760 805 772 659 307 538 427 600 758 646 511 279 307 561 570 239 459 247
internal_count=7022 4042 2980 2111 1931 1637 1343 1161 1272 514 950 877 760 805 772 659 307 538 427 600 758 646 511 279 307 561 570 239 459 247
is_linear=0
shrinkage=0.1


Tree=13
num_leaves=31
num_cat=0
split_feature=6 6 6 6 6 6 6 16 6 16 14 18 15 12 15 12 12 15 7 6 16 12 6 14 6 16 6 1 16 18
split_gain=190335 26143.5 22937.6 3574.6 3387.1 3031.21 2369.28 941.242 934.142 870.702 676.708 653.967 653.301 738.667 606.46 527.24 499.073 487.742 472.938 547.694 416.843 412.256 407.213 378.667 368.581 345.658 326.022 321.673 293.201 486.053
threshold=55.500000000000007 33.500000000000007 74.500000000000014 24.500000000000004 47.500000000000007 87.500000000000014 64.500000000000014 -0.37940952255126015 17.500000000000004 -0.37940952255126015 5.5000000000000009 1.0000000180025095e-35 1.0000000180025095e-35 6.5000000000000009 1.0000000180025095e-35 6.5000000000000009 1.5000000000000002 -0.60355339059327362 31.500000000000004 40.500000000000007 1.0000000180025095e-35 13.500000000000002 81.500000000000014 4.5000000000000009 94.500000000000014 -0.37940952255126015 8.5000000000000018 30.550000000000004 -0.12940952255126037 0.25000000000000017
decision_type=2 2 2 2 2 2 2 2 2 2 2 2 2 2 2 2 2 2 2 2 2 2 2 2 2 2 2 2 2 2
left_child=1 3 6 8 7 9 12 10 26 11 -3 -4 -2 -14 -8 -16 27 -6 -9 -20 -19 -18 -11 -17 28 -10 -1 -5 29 -7
right_child=2 4 5 16 17 24 14 18 25 22 -12 -13 13 -15 15 23 21 20 19 -21 -22 -23 -24 -25 -26 -27 -28 -29 -30 -31
leaf_value=-1.4344048500061035 0.21121079488751385 -0.63538525347175501 0.58586317229954921 -0.5547595529179824 0.060540851148612365 0.89414140721162161 0.4492791199708 0.013854721900489595 -0.94603054005524223 0.63105926684813929 -0.38099861360903159 0.22446835825131056 0.17927824986964158 -0.088115668210002912 0.3923808975852266 -0.13884788155555725 -0.7646064596367883 -0.23638484164521165 -0.42035555190092061 -0.22996932472794868 -0.048502350391530662 -0.6027629946470261 0.76517337091339455 0.23245102912033 1.0941544948924671 -0.79317476305592538 -1.0458377520693598 -0.080936260003110647 0.94537269121218981 0.52304181069135669
leaf_weight=23 446 183 244 38 170 120 406 45 290 404 244 63 194 221 245 31 286 223 293 312 251 350 515 241 110 302 353 23 346 50
leaf_count=23 446 183 244 38 170 120 406 45 290 404 244 63 194 221 245 31 286 223 293 312 251 350 515 241 110 302 353 23 346 50
internal_value=0 -0.539508 0.502413 -0.82201 -0.266198 0.748925 0.246504 -0.37468 -0.946343 0.657508 -0.490021 0.511701 0.127185 0.0368829 0.357808 0.285976 -0.649336 -0.0847763 -0.298909 -0.322173 -0.136894 -0.675542 0.706216 0.190134 0.927963 -0.868053 -1.06961 -0.376105 0.892535 0.784994
internal_weight=0 3386 3636 1665 1721 1852 1784 1077 968 1226 427 307 861 415 923 517 697 644 650 605 474 636 919 272 626 592 376 61 516 170
internal_count=7022 3386 3636 1665 1721 1852 1784 1077 968 1226 427 307 861 415 923 517 697 644 650 605 474 636 919 272 626 592 376 61 516 170
is_linear=0
shrinkage=0.1


Tree=14
num_leaves=31
num_cat=0
split_feature=6 6 6 6 6 6 6 6 4 15 12 7 16 12 5 15 12 12 12 6 17 16 12 16 18 1 7 6 3 0
split_gain=154246 22842.7 17392.7 3598.5 2839.49 2468.49 1708.83 767.51 725.22 715.884 824.435 565.383 519.171 523.282 490.956 479.305 450.706 444.587 430.093 358.372 351.626 333.877 270.604 264.467 258.229 251.521 243.471 233.634 220.937 217.366
threshold=56.500000000000007 35.500000000000007 77.500000000000014 24.500000000000004 68.500000000000014 47.500000000000007 88.500000000000014 16.500000000000004 26.050000000000004 0.25881904510252091 6.5000000000000009 31.500000000000004 -0.12940952255126037 10.500000000000002 24.550000000000004 0.25881904510252091 1.5000000000000002 6.5000000000000009 13.500000000000002 61.500000000000007 -0.5 -0.37940952255126015 17.500000000000004 -0.12940952255126037 1.0000000180025095e-35 27.050000000000004 74.500000000000014 94.500000000000014 27.150000000000002 19.650000000000002
decision_type=2 2 2 2 2 2 2 2 2 2 2 2 2 2 2 2 2 2 2 2 2 2 2 2 2 2 2 2 2 2
left_child=1 3 4 7 9 8 12 22 -3 19 -11 -10 13 -4 -6 -7 24 -17 -18 -2 -13 -9 -1 -22 -5 -16 -12 -8 -21 -14
right_child=2 5 6 16 14 15 27 21 11 10 26 20 29 -15 25 17 18 -19 -20 28 23 -23 -24 -25 -26 -27 -28 -29 -30 -31
leaf_value=-1.0369482417294031 0.14611267661774538 -0.4199960704970484 0.44763310046349591 -0.1095116737484932 0.30954204462965329 0.0024392676544262143 0.82138216156503818 -0.86184048917962286 0.21411639810181582 0.20593447430913026 -0.024442758118814748 -0.085951523025236704 1.0073238492012024 0.73035301559645205 0.43604168062349341 -0.048749254958792815 -0.6732530661627778 -0.28478461904941421 -0.52227335573703637 0.21473267331417217 -0.42392512518167502 -0.71926627030488577 -0.82524728229859989 -0.25162160737109524 -0.48350894401470823 0.61420374711354575 -0.38820269525051121 0.98473905520005656 0.36414199154422972 0.67301599682221669
leaf_weight=229 283 384 227 30 300 410 429 328 26 240 230 92 20 92 397 168 351 152 408 188 125 329 82 310 48 99 20 110 209 706
leaf_count=229 283 384 227 30 300 410 429 328 26 240 230 92 20 92 397 168 351 152 408 188 125 329 82 310 48 99 20 110 209 706
internal_value=0 -0.473916 0.463503 -0.720414 0.264822 -0.207012 0.710098 -0.851708 -0.314421 0.165695 0.0735477 -0.24111 0.635503 0.52917 0.410524 -0.0691466 -0.56857 -0.160866 -0.592094 0.232096 -0.263569 -0.790445 -0.98113 -0.301134 -0.339664 0.471602 -0.0535436 0.85472 0.293389 0.682226
internal_weight=0 3472 3550 1805 1966 1667 1584 968 937 1170 490 553 1045 319 796 730 837 320 759 680 527 657 311 435 78 496 250 539 397 726
internal_count=7022 3472 3550 1805 1966 1667 1584 968 937 1170 490 553 1045 319 796 730 837 320 759 680 527 657 311 435 78 496 250 539 397 726
is_linear=0
shrinkage=0.1


Tree=15
num_leaves=31
num_cat=0
split_feature=6 6 6 6 6 6 6 15 7 12 15 16 12 6 7 15 12 14 12 16 15 17 15 6 14 16 18 6 6 15
split_gain=125167 21993.7 11105.8 2928.31 2199 2017.34 975.018 602.716 718.538 551.884 522.319 521.323 665.697 479.531 475.077 471.221 439.423 408.497 387.068 379.597 369.144 343.238 319.778 316.748 297.527 291.195 556.452 257.578 249.239 245.433
threshold=49.500000000000007 71.500000000000014 27.500000000000004 84.500000000000014 61.500000000000007 37.500000000000007 17.500000000000004 -0.78656609248549303 34.500000000000007 14.500000000000002 0.25881904510252091 -0.12940952255126037 10.500000000000002 92.500000000000014 27.500000000000004 -0.37940952255126059 3.5000000000000004 4.5000000000000009 6.5000000000000009 1.0000000180025095e-35 1.0000000180025095e-35 0.68301270189221941 1.0000000180025095e-35 76.500000000000014 5.5000000000000009 -0.37940952255126015 0.25000000000000017 8.5000000000000018 43.500000000000007 -0.91597561503675329
decision_type=2 2 2 2 2 2 2 2 2 2 2 2 2 2 2 2 2 2 2 2 2 2 2 2 2 2 2 2 2 2
left_child=2 4 6 11 9 14 27 -7 -9 16 29 12 17 25 15 -4 -2 -3 -12 24 -16 -20 -8 -13 -10 26 -5 -1 -21 -6
right_child=1 3 5 13 10 7 22 8 19 -11 18 23 -14 -15 20 -17 -18 -19 21 28 -22 -23 -24 -25 -26 -27 -28 -29 -30 -31
leaf_value=-1.1918717591658883 0.10088353108840459 -0.10322352434694766 -0.42310271109059711 0.64802151513331152 0.42026982325582934 -0.075803946877655751 -0.633508489264756 0.27182167151375958 -0.47097875397160371 0.11285765259450747 0.2467749765365603 0.4361422181634349 0.54479410294201469 0.83250938375790917 -0.4187016172104337 0.035986245878868638 -0.087843303346781712 0.32305927331404838 0.096905457496838279 -0.30725813221410325 -0.56795681190106184 -0.33507549535483122 -0.76932741999626164 0.57075254738545478 -0.28850409095963081 0.69989184898634749 0.16477711450669075 -0.84649187207390841 -0.1428818663271765 0.25593029339546086
leaf_weight=23 165 25 59 103 117 182 587 23 159 368 209 273 154 240 356 36 489 223 229 183 310 20 246 486 204 576 31 353 186 407
leaf_count=23 165 25 59 103 117 182 587 23 159 368 209 273 154 240 356 36 489 223 229 183 310 20 246 486 204 576 31 353 186 407
internal_value=0 0.354855 -0.502315 0.580107 0.117576 -0.337386 -0.733953 -0.239156 -0.278534 0.0148943 0.224441 0.473568 0.381492 0.71031 -0.458334 -0.249132 -0.0402287 0.280087 0.146432 -0.295826 -0.488175 0.0622082 -0.673618 0.522335 -0.368431 0.669003 0.536226 -0.867619 -0.224402 0.292624
internal_weight=0 4115 2907 2111 2004 1698 1209 937 755 1022 982 1161 402 950 761 95 654 248 458 732 666 249 833 759 363 710 134 376 369 524
internal_count=7022 4115 2907 2111 2004 1698 1209 937 755 1022 982 1161 402 950 761 95 654 248 458 732 666 249 833 759 363 710 134 376 369 524
is_linear=0
shrinkage=0.1


Tree=16
num_leaves=31
num_cat=0
split_feature=6 6 6 6 6 6 6 7 6 15 12 3 6 16 12 15 16 12 7 1 7 7 12 12 14 14 6 7 16 18
split_gain=101622 14989.2 11424.9 2079.48 1923.08 1876.18 1166.26 499.434 577.042 492.856 579.97 442.837 424.449 369.652 360.666 355.167 329.912 378.635 325.113 324.817 321.022 308.103 299.954 264.664 292.242 217.171 209.634 203.374 199.708 402.818
threshold=56.500000000000007 33.500000000000007 77.500000000000014 43.500000000000007 22.500000000000004 68.500000000000014 88.500000000000014 41.500000000000007 49.500000000000007 0.25881904510252091 6.5000000000000009 26.350000000000005 12.500000000000002 -0.60355339059327384 1.5000000000000002 1.0000000180025095e-35 -0.12940952255126037 9.5000000000000018 49.500000000000007 30.550000000000004 62.500000000000007 31.500000000000004 13.500000000000002 6.5000000000000009 4.5000000000000009 3.5000000000000004 62.500000000000007 52.500000000000007 -0.12940952255126037 0.25000000000000017
decision_type=2 2 2 2 2 2 2 2 2 2 2 2 2 2 2 2 2 2 2 2 2 2 2 2 2 2 2 2 2 2
left_child=1 4 5 11 12 9 16 -5 18 26 25 -3 -1 -14 19 -7 17 -4 -9 -6 27 -13 -16 -17 -25 -11 -2 -10 29 -8
right_child=2 3 6 7 14 15 28 8 20 10 -12 21 13 -15 22 23 -18 -19 -20 -21 -22 -23 -24 24 -26 -27 -28 -29 -30 -31
leaf_value=-0.89075074530484388 0.1349967467180197 -0.39591582207644188 0.34955060074942701 0.17262062672803652 -0.44636960390002234 0.40788809040331109 0.70147149330679925 -0.13884909649724486 0.03384394014303789 0.35944432144363725 -0.048439117071125665 0.028880562005858673 -0.76913567994229703 -0.6209386162183903 -0.58407163301252585 0.35772801826495937 0.55169816097198443 0.57780108675360686 -0.33133270498078604 0.0013672790346810453 -0.42743998056366328 -0.2685856635861385 -0.46016431744737391 -0.1367035813305689 0.23833544306630314 0.12163145184749738 0.2460556806301448 -0.089484231580589796 0.74028497157778061 0.37257382356945207
leaf_weight=114 345 330 207 67 43 356 138 270 263 48 250 38 288 405 356 202 726 112 130 26 21 416 433 23 215 192 335 272 350 51
leaf_count=114 345 330 207 67 43 356 138 270 263 48 250 38 288 405 356 202 726 112 130 26 21 416 433 23 215 192 335 272 350 51
internal_value=0 -0.38467 0.376218 -0.185223 -0.601127 0.215191 0.576078 -0.0913117 -0.109809 0.134615 0.0581567 -0.307763 -0.711942 -0.682527 -0.496899 0.333627 0.514453 0.429689 -0.201406 -0.277657 -0.0439119 -0.243688 -0.516072 0.273543 0.202092 0.169194 0.18971 -0.0288575 0.695555 0.612721
internal_weight=0 3472 3550 1807 1665 1966 1584 1023 956 1170 490 784 807 693 858 796 1045 319 400 69 556 454 789 440 238 240 680 535 539 189
internal_count=7022 3472 3550 1807 1665 1966 1584 1023 956 1170 490 784 807 693 858 796 1045 319 400 69 556 454 789 440 238 240 680 535 539 189
is_linear=0
shrinkage=0.1


Tree=17
num_leaves=31
num_cat=0
split_feature=6 6 6 6 6 6 6 7 7 16 6 6 6 15 12 15 17 15 7 16 7 3 7 12 14 16 18 12 7 12
split_gain=82480.5 10804.5 10577.7 1581.17 1477.41 1364.24 1120.56 463.684 412.782 366.482 347.083 345.132 340.34 335.37 449.113 324.4 322.743 317.737 316.618 306.971 286.256 262.109 259.978 225.069 321.236 221.225 225.869 240.582 199.948 197.098
threshold=54.500000000000007 73.500000000000014 32.500000000000007 84.500000000000014 43.500000000000007 20.500000000000004 63.500000000000007 69.500000000000014 41.500000000000007 -0.37940952255126015 26.500000000000004 48.500000000000007 93.500000000000014 0.60355339059327384 5.5000000000000009 -0.60355339059327362 -0.24999999999999994 -0.91597561503675329 27.500000000000004 -0.37940952255126015 52.500000000000007 20.750000000000004 56.500000000000007 6.5000000000000009 4.5000000000000009 -0.12940952255126037 0.25000000000000017 7.5000000000000009 31.500000000000004 17.500000000000004
decision_type=2 2 2 2 2 2 2 2 2 2 2 2 2 2 2 2 2 2 2 2 2 2 2 2 2 2 2 2 2 2
left_child=2 6 5 13 9 19 7 15 -6 16 -7 -10 25 -3 -15 -2 -4 -8 29 -1 -17 -16 -13 -19 -25 26 -5 -28 -11 -12
right_child=1 3 4 12 8 10 17 -9 11 28 18 22 -14 14 21 20 -18 23 -20 -21 -22 -23 -24 24 -26 -27 27 -29 -30 -31
leaf_value=-0.731481578901095 0.16802920501134042 0.44374196633462959 -0.21474669298120574 0.52402516762641349 0.14616904060676461 -0.53324775679400604 0.37091659903526308 -0.32700067753593132 -0.196805919316454 -0.062301994091080087 -0.1284290849016263 -0.031012128599995404 0.70113643513200041 0.44822273548848623 -0.11444659978151323 0.28765317883342506 -0.4268266931145398 0.26653107524018838 -0.46355497427782161 -0.59081625011685779 0.0097052360112754778 0.26523728476208636 -0.24416647109745157 -0.13485547993864333 0.17832258631931802 0.58419750088843236 0.53889091710249593 0.1253675665377694 -0.25370325038797764 -0.38319012457377294
leaf_weight=331 249 606 102 176 64 502 119 30 325 62 52 392 181 167 20 40 242 296 337 292 503 200 67 35 510 535 24 34 456 73
leaf_count=331 249 606 102 176 64 502 119 30 325 62 52 392 181 167 20 40 242 296 337 292 503 200 67 35 510 535 24 34 456 73
internal_value=0 0.322435 -0.364291 0.485535 -0.191737 -0.550219 0.144598 0.0589016 -0.0980224 -0.28393 -0.475684 -0.117956 0.577764 0.3973 0.324578 0.0735191 -0.363943 0.217976 -0.413137 -0.665552 0.0301802 0.230721 -0.0621262 0.196335 0.15821 0.548726 0.467625 0.296481 -0.230794 -0.27721
internal_weight=0 3725 3297 1943 1710 1587 1782 822 848 862 964 784 950 993 387 792 344 960 462 623 543 220 459 841 545 769 234 58 518 125
internal_count=7022 3725 3297 1943 1710 1587 1782 822 848 862 964 784 950 993 387 792 344 960 462 623 543 220 459 841 545 769 234 58 518 125
is_linear=0
shrinkage=0.1


Tree=18
num_leaves=31
num_cat=0
split_feature=6 6 6 6 6 6 6 6 7 7 7 3 14 16 5 15 15 9 1 14 8 15 7 6 18 12 15 17 14 9
split_gain=66993.4 10697.3 7007.11 1800.21 1170.95 936.682 701.745 390.389 384.844 374.874 339.831 318.251 293.996 288.464 285.185 284.012 276.034 268.494 279.116 258.561 235.499 222.958 193.721 188.641 183.948 182.79 295.778 190.794 180.585 167.839
threshold=57.500000000000007 36.500000000000007 78.500000000000014 24.500000000000004 68.500000000000014 47.500000000000007 88.500000000000014 14.500000000000002 69.500000000000014 32.500000000000007 63.500000000000007 21.650000000000002 4.5000000000000009 -0.37940952255126015 23.850000000000005 1.0000000180025095e-35 -0.60355339059327362 65.500000000000014 19.650000000000002 5.5000000000000009 91.500000000000014 -0.78656609248549303 53.500000000000007 63.500000000000007 -0.68301270189221952 3.5000000000000004 -0.78656609248549303 -0.24999999999999994 7.5000000000000009 72.500000000000014
decision_type=2 2 2 2 2 2 2 2 2 2 2 2 2 2 2 2 2 2 2 2 2 2 2 2 2 2 2 2 2 2
left_child=1 3 4 7 8 9 20 -1 21 -3 16 -11 -10 19 17 -9 28 -6 -19 -5 29 -2 -23 -24 -16 -13 27 -27 -7 -4
right_child=2 5 6 13 14 10 -8 15 12 11 -12 25 -14 -15 24 -17 -18 18 -20 -21 -22 22 23 -25 -26 26 -28 -29 -30 -31
leaf_value=-0.68478702984205109 0.22847348735309564 0.18814619086682796 0.549299568738285 -0.48788913404430034 0.53353205563500528 -0.042090686914161783 0.56646521021931651 -0.49409732677928225 -0.38632450288250331 -0.33715008981275885 -0.45038662470877172 -0.062599618991805342 0.022911948829053719 -0.3193669349283651 0.25011134697439225 -0.63493400618668006 -0.069623289179435235 -0.18710603483698585 0.18807035584364143 -0.3151238644262776 0.17321601594901748 0.40611487369645727 0.058912853176959538 0.16269780229272879 0.35909765513546338 0.057795713396379879 -0.2463626602256988 -0.16854105938484176 0.13965156202710521 0.4183221567652442
leaf_weight=205 221 25 111 268 20 96 539 572 21 149 20 118 107 533 281 191 576 22 201 128 36 22 396 314 345 59 393 101 127 825
leaf_count=205 221 25 111 268 20 96 539 572 21 149 20 118 107 533 281 191 576 22 201 128 36 22 396 314 345 59 393 101 127 825
internal_value=0 -0.304509 0.313308 -0.466837 0.188056 -0.119452 0.474949 -0.56227 0.118578 -0.193316 -0.0432426 -0.204946 -0.0442284 -0.367398 0.274484 -0.529353 -0.0330513 0.182537 0.151057 -0.432046 0.424201 0.140445 0.113868 0.104812 0.310176 -0.175589 -0.199698 -0.0850794 0.0614127 0.433855
internal_weight=0 3561 3461 1897 1950 1664 1511 968 1081 845 819 820 128 929 869 763 799 243 223 396 972 953 732 710 626 671 553 160 223 936
internal_count=7022 3561 3461 1897 1950 1664 1511 968 1081 845 819 820 128 929 869 763 799 243 223 396 972 953 732 710 626 671 553 160 223 936
is_linear=0
shrinkage=0.1


Tree=19
num_leaves=31
num_cat=0
split_feature=6 6 6 6 6 6 6 16 7 15 12 15 12 15 15 17 6 16 12 12 8 17 0 3 18 10 14 4 17 5
split_gain=54264.7 8664.78 5675.76 1474.13 951.677 769.773 575.928 397.476 323.757 321.016 322.023 317.733 339.502 258.744 253.414 210.025 205.266 202.945 268.329 199.787 199.489 175.733 174.781 168.004 166.935 166.807 166.165 154.058 173.154 150.302
threshold=57.500000000000007 36.500000000000007 78.500000000000014 25.500000000000004 69.500000000000014 46.500000000000007 89.500000000000014 -0.37940952255126015 32.500000000000007 0.25881904510252091 6.5000000000000009 0.25881904510252091 6.5000000000000009 -0.91597561503675329 1.0000000180025095e-35 0.68301270189221941 16.500000000000004 -0.12940952255126037 10.500000000000002 6.5000000000000009 50.500000000000007 0.68301270189221941 19.250000000000004 19.350000000000005 -0.24999999999999994 21.500000000000004 3.5000000000000004 27.550000000000004 -0.6830127018922193 19.950000000000003
decision_type=2 2 2 2 2 2 2 2 2 2 2 2 2 2 2 2 2 2 2 2 2 2 2 2 2 2 2 2 2 2
left_child=1 3 4 7 9 8 17 16 -3 -2 26 27 -13 -6 25 -9 -1 18 24 -16 -10 29 -19 -15 -4 -5 -11 -7 -29 -12
right_child=2 5 6 14 13 11 -8 15 20 10 21 12 -14 23 19 -17 -18 22 -20 -21 -22 -23 -24 -25 -26 -27 -28 28 -30 -31
leaf_value=-0.65071515195509966 0.15634550643505196 0.17946104941268762 0.33476193766844903 -0.37583608021659237 0.39852733488352793 -0.049750124122510897 0.52106685188790081 -0.27843993496563701 -0.16799450911777586 0.30191021493457737 -0.20016541907098145 -0.023690569248050453 -0.21138144765269531 -0.054841445684432992 -0.29512706837720343 -0.46258957141139972 -0.51756408461279779 0.70706419944763188 0.46801889541304925 -0.44747514354987683 -0.2992967529597485 -0.2650971064876233 0.40735110282492687 0.23925866470718826 0.16120059444912171 -0.24168192276309883 0.091689319575720643 0.20227424470358529 0.013409558437134497 0.033837163050470812
leaf_weight=170 662 24 133 124 106 256 458 72 589 47 32 200 186 20 144 443 363 20 88 214 144 28 717 674 95 367 188 64 201 193
leaf_count=170 662 24 133 124 106 256 458 72 589 47 32 200 186 20 144 443 363 20 88 214 144 28 717 674 95 367 188 64 201 193
internal_value=0 -0.274058 0.281977 -0.420153 0.16925 -0.107506 0.427454 -0.499496 -0.181956 0.110983 0.0494466 -0.0453696 -0.114132 0.253009 -0.322213 -0.436844 -0.560033 0.386738 0.319693 -0.386195 -0.193789 -0.0288436 0.415484 0.230783 0.262445 -0.275562 0.133733 0.00557551 0.0590222 0.000556796
internal_weight=0 3561 3461 1897 1950 1664 1511 1048 757 1150 488 907 386 800 849 515 533 1053 316 358 733 253 737 694 228 491 235 521 265 225
internal_count=7022 3561 3461 1897 1950 1664 1511 1048 757 1150 488 907 386 800 849 515 533 1053 316 358 733 253 737 694 228 491 235 521 265 225
is_linear=0
shrinkage=0.1


Tree=20
num_leaves=31
num_cat=0
split_feature=6 6 6 6 6 6 6 7 15 8 15 7 6 15 6 7 7 9 3 6 14 12 14 16 17 15 16 18 6 4
split_gain=44029.9 6248.02 5292.09 1034.15 925.736 612.986 599.751 454.739 318.886 348.736 282.342 277.835 272.891 247.018 241.923 241.703 212.259 206.845 272.548 195.621 175.448 167.044 165.99 165.883 163.417 156.415 149.886 217.373 147.909 146.749
threshold=53.500000000000007 72.500000000000014 30.500000000000004 82.500000000000014 40.500000000000007 63.500000000000007 18.500000000000004 26.500000000000004 1.0000000180025095e-35 53.500000000000007 -0.60355339059327362 51.500000000000007 90.500000000000014 1.0000000180025095e-35 48.500000000000007 40.500000000000007 73.500000000000014 65.500000000000014 20.750000000000004 10.500000000000002 4.5000000000000009 12.500000000000002 4.5000000000000009 -0.12940952255126037 0.68301270189221941 0.60355339059327384 -0.12940952255126037 0.25000000000000017 44.500000000000007 18.550000000000004
decision_type=2 2 2 2 2 2 2 2 2 2 2 2 2 2 2 2 2 2 2 2 2 2 2 2 2 2 2 2 2 2
left_child=2 5 6 17 7 8 19 -4 -2 -10 -9 14 -5 21 15 -6 -7 -3 -19 -1 -13 -8 -23 -21 29 -18 27 -14 -17 -11
right_child=1 3 4 12 11 16 13 10 9 24 -12 20 26 -15 -16 28 25 18 -20 23 -22 22 -24 -25 -26 -27 -28 -29 -30 -31
leaf_value=-0.70741311156231435 0.092520093670372602 0.39551006233284497 0.18120235031843188 0.3768841142971463 0.018857190012565164 0.17267457141730158 -0.1368089890632874 -0.15930472728998768 0.13488230184986466 -0.27693362167248359 -0.29153568161809579 -0.33230121034212062 0.4724381492385325 -0.44517762060925553 0.021054288951512592 -0.20372294926721801 0.10279774694758304 -0.085367242495218917 0.257278243845594 -0.53608098475450883 -0.13549409381804928 -0.37764973837471805 -0.25179959670710028 -0.40168723302228115 -0.26804148144064804 -0.14838313416710922 0.52802639579299104 0.19367236840587698 -0.083650679401051031 -0.028059692658511888
leaf_weight=46 477 106 25 803 127 758 39 230 103 26 542 64 106 316 228 190 85 24 709 267 155 481 134 140 39 35 239 38 223 267
leaf_count=46 477 106 25 803 127 758 39 230 103 26 542 64 106 316 228 190 85 24 709 267 155 481 134 140 39 35 239 38 223 267
internal_value=0 0.229586 -0.273112 0.349906 -0.158384 0.0934698 -0.416945 -0.238548 0.0360517 -0.0258689 -0.25214 -0.0936526 0.410012 -0.37258 -0.0653206 -0.10179 0.153111 0.264941 0.246059 -0.511944 -0.193009 -0.337502 -0.350229 -0.489852 -0.0757405 0.0295367 0.479468 0.398875 -0.13889 -0.0501441
internal_weight=0 3815 3207 2025 1784 1790 1423 797 912 435 772 987 1186 970 768 540 878 839 733 453 219 654 615 407 332 120 383 144 413 293
internal_count=7022 3815 3207 2025 1784 1790 1423 797 912 435 772 987 1186 970 768 540 878 839 733 453 219 654 615 407 332 120 383 144 413 293
is_linear=0
shrinkage=0.1


Tree=21
num_leaves=31
num_cat=0
split_feature=6 6 6 6 6 6 6 7 16 7 7 15 3 0 1 15 7 15 12 15 7 17 11 12 7 12 12 6 6 8
split_gain=35762.5 5749.53 3754.84 1077.12 703.487 416.4 332.81 297.41 294.797 264.7 244.87 238.128 222.173 278.075 251.412 198.173 190.268 181.942 169.088 162.696 183.42 159.427 153.886 150.822 162.031 143.361 196.863 142.073 133.52 133.219
threshold=57.500000000000007 37.500000000000007 79.500000000000014 25.500000000000004 68.500000000000014 48.500000000000007 88.500000000000014 34.500000000000007 -0.37940952255126015 71.500000000000014 63.500000000000007 -0.91597561503675329 25.850000000000005 30.450000000000003 30.750000000000004 0.60355339059327384 89.500000000000014 -0.91597561503675329 6.5000000000000009 0.78656609248549325 48.500000000000007 0.68301270189221941 14.500000000000002 1.0000000180025095e-35 54.500000000000007 5.5000000000000009 10.500000000000002 95.500000000000014 62.500000000000007 72.500000000000014
decision_type=2 2 2 2 2 2 2 2 2 2 2 2 2 2 2 2 2 2 2 2 2 2 2 2 2 2 2 2 2 2
left_child=1 3 4 8 9 7 16 -3 22 17 19 -9 -5 14 -14 -6 29 -2 -17 -7 -21 -10 -1 -19 -25 -13 -27 -8 -26 -4
right_child=2 5 6 12 15 10 27 11 21 -11 -12 25 13 -15 -16 18 -18 23 -20 20 -22 -23 -24 24 28 26 -28 -29 -30 -31
leaf_value=-0.71118626594543466 0.20876545259585746 0.14505127388983965 0.50153995141750429 -0.32783092713706491 0.2366571166107638 0.0082652668655000937 0.39676621594155831 0.018376967146815287 -0.21406383259842793 -0.11619110590144686 -0.37091844211332503 -0.087858419065258195 -0.18913247672458874 -0.29783780162999346 0.11868514480261967 0.21208510200651187 0.11007913947105408 0.27441249568110859 0.065546979389798185 0.15003279241854731 -0.15724804398119452 -0.37450538674205475 -0.44675414209929754 0.29772395741555002 0.018866290658691519 -0.27351962906122207 -0.14404513680047412 0.56120461649813902 0.10025340243004821 0.31678876139836049
leaf_weight=23 130 38 41 304 630 566 480 84 72 61 20 203 312 277 29 159 43 39 156 23 125 443 510 31 357 175 357 59 463 812
leaf_count=23 130 38 41 304 630 566 480 84 72 61 20 203 312 277 29 159 43 39 156 23 125 443 510 31 357 175 357 59 463 812
internal_value=0 -0.222484 0.228912 -0.336675 0.141252 -0.0810906 0.352674 -0.128436 -0.406031 0.0861572 -0.0258113 -0.141125 -0.257841 -0.223412 -0.162954 0.204276 0.315323 0.0982585 0.139514 -0.0161444 -0.109495 -0.352075 -0.458165 0.082117 0.0733044 -0.159354 -0.186635 0.414766 0.0648202 0.325669
internal_weight=0 3561 3461 1970 2026 1591 1435 857 1048 1081 734 819 922 618 341 945 896 1020 315 714 148 515 533 890 851 735 532 539 820 853
internal_count=7022 3561 3461 1970 2026 1591 1435 857 1048 1081 734 819 922 618 341 945 896 1020 315 714 148 515 533 890 851 735 532 539 820 853
is_linear=0
shrinkage=0.1


Tree=22
num_leaves=31
num_cat=0
split_feature=6 6 6 6 6 6 6 3 15 7 15 15 7 12 15 5 6 9 1 4 6 15 15 12 14 12 7 12 1 6
split_gain=29000.3 4889.68 2883.51 778.958 569.33 483.043 295.953 279.254 249.686 248.2 308.617 239.034 216.459 193.475 188.182 182.394 184.114 171.679 239.669 174.496 164.899 156.522 152.324 150.583 210.882 171.897 145.446 137.305 140.767 130.543
threshold=50.500000000000007 71.500000000000014 27.500000000000004 83.500000000000014 38.500000000000007 60.500000000000007 17.500000000000004 21.650000000000002 -0.91597561503675329 27.500000000000004 -0.37940952255126059 0.60355339059327384 52.500000000000007 6.5000000000000009 0.78656609248549325 20.050000000000004 90.500000000000014 63.500000000000007 19.550000000000004 23.650000000000002 55.500000000000007 -0.60355339059327362 1.0000000180025095e-35 5.5000000000000009 9.5000000000000018 10.500000000000002 34.500000000000007 1.0000000180025095e-35 23.150000000000002 10.500000000000002
decision_type=2 2 2 2 2 2 2 2 2 2 2 2 2 2 2 2 2 2 2 2 2 2 2 2 2 2 2 2 2 2
left_child=2 5 6 17 9 12 29 -6 -7 10 -4 26 20 -13 -14 -5 -17 19 -19 -3 -2 -11 -8 24 27 -25 -9 -10 -29 -1
right_child=1 3 4 15 7 8 22 11 23 21 -12 13 14 -15 -16 16 -18 18 -20 -21 -22 -23 -24 25 -26 -27 -28 28 -30 -31
leaf_value=-0.5871968295263208 0.043055802543914348 0.6069167828559876 -0.20358472128351363 0.053698744015260182 -0.21372802835374072 0.23475207429291914 -0.29481144555049787 0.17544720139482928 0.42884498779420499 -0.16358705478381705 0.16794603847795064 -0.085506620288249999 -0.0024370152095079794 -0.29342639302022949 -0.14519290095031787 0.31409579635761964 0.40133050348489513 -0.11485185231203619 0.21203091510329705 0.27539062441943529 0.25502433005306457 -0.26403767911030313 -0.38855025356378015 -0.0077315175788430102 0.046492662433630386 0.097555639885465381 -0.054449281678405459 0.33251424751998415 0.11080144202336668 -0.4073779621898112
leaf_weight=46 199 20 59 22 179 128 587 29 27 220 36 105 486 78 114 692 372 23 905 77 45 526 246 238 117 445 539 42 90 330
leaf_count=46 199 20 59 22 179 128 587 29 27 220 36 105 486 78 114 692 372 23 905 77 45 526 246 238 117 445 539 42 90 330
internal_value=0 0.174494 -0.236679 0.279688 -0.155405 0.0594948 -0.355735 -0.101487 0.103566 -0.215028 -0.0627941 -0.0747346 0.00273438 -0.174128 -0.0295606 0.338702 0.344595 0.217161 0.203929 0.343747 0.0821484 -0.234414 -0.322494 0.0860567 0.148392 0.060867 -0.0427116 0.223374 0.181346 -0.429377
internal_weight=0 4042 2980 2111 1771 1931 1209 930 1087 841 95 751 844 183 600 1086 1064 1025 928 97 244 746 833 959 276 683 568 159 132 376
internal_count=7022 4042 2980 2111 1771 1931 1209 930 1087 841 95 751 844 183 600 1086 1064 1025 928 97 244 746 833 959 276 683 568 159 132 376
is_linear=0
shrinkage=0.1


Tree=23
num_leaves=31
num_cat=0
split_feature=6 6 6 6 6 6 6 7 5 7 8 1 10 15 7 17 16 6 15 17 16 15 12 18 16 6 1 0 18 16
split_gain=23561.4 3127.33 3085.47 492.758 451.217 442.87 345.612 282.988 231.729 208.906 207.999 175.679 169.246 154.277 154.03 171.007 158.373 151.98 150.186 149.882 171.025 146.878 194.925 146.464 145.535 134.899 132.076 122.912 267.813 120.145
threshold=54.500000000000007 76.500000000000014 32.500000000000007 66.500000000000014 20.500000000000004 43.500000000000007 85.500000000000014 41.500000000000007 19.950000000000003 31.500000000000004 64.500000000000014 20.050000000000004 25.500000000000004 0.25881904510252091 52.500000000000007 0.68301270189221941 1.0000000180025095e-35 11.500000000000002 1.0000000180025095e-35 -0.24999999999999994 -0.37940952255126015 0.12940952255126045 6.5000000000000009 -0.24999999999999994 -0.78656609248549325 95.500000000000014 21.150000000000002 30.750000000000004 1.0000000180025095e-35 -0.12940952255126037
decision_type=2 2 2 2 2 2 2 2 2 2 2 2 2 2 2 2 2 2 2 2 2 2 2 2 2 2 2 2 2 2
left_child=2 3 4 8 17 9 21 -7 -2 12 26 -12 -4 -9 -10 -16 -17 -1 27 -11 -21 -3 -23 -24 -19 29 -5 28 -6 -8
right_child=1 6 5 10 18 7 25 13 14 19 11 -13 -14 -15 15 16 -18 24 -20 20 -22 22 23 -25 -26 -27 -28 -29 -30 -31
leaf_value=-0.49297215087073187 -0.15611263793996641 0.28140124059319188 -0.15127156823873522 0.48390287578105928 0.13288580322265625 0.15198812058661135 0.2496584065240223 -0.026454986982524048 0.19642071103906797 -0.064886128534412668 -0.063778612200015544 0.13427646267913446 0.17460212236379877 -0.11559487885958647 0.05747257071748213 -0.27264447688095034 0.023866535080488513 -0.42380637911301627 -0.30683931456456737 -0.25203527249666358 -0.14693423567993641 0.24704744830727576 0.19381782853555296 0.027289785261920135 -0.30995558684634184 0.46495108675148533 0.211144367954399 -0.27013889021178089 -0.20743830373825189 0.33462207644730529
leaf_weight=77 54 323 30 20 25 64 242 430 73 124 48 669 34 354 951 31 43 158 331 241 433 305 124 92 388 59 158 300 308 533
leaf_count=77 54 323 30 20 25 64 242 430 73 124 48 669 34 354 951 31 43 158 331 241 433 305 124 92 388 59 158 300 308 533
internal_value=0 0.172332 -0.194703 0.0893736 -0.295121 -0.101509 0.273533 -0.0501993 0.0461279 -0.151984 0.145037 0.121018 0.0218488 -0.0667044 0.0560741 0.0460787 -0.100348 -0.361449 -0.252256 -0.165926 -0.184515 0.22842 0.195573 0.122889 -0.342901 0.319188 0.241791 -0.223713 -0.181888 0.308091
internal_weight=0 3725 3297 2047 1587 1710 1678 848 1152 862 895 717 64 784 1098 1025 74 623 964 798 674 844 521 216 546 834 178 633 333 775
internal_count=7022 3725 3297 2047 1587 1710 1678 848 1152 862 895 717 64 784 1098 1025 74 623 964 798 674 844 521 216 546 834 178 633 333 775
is_linear=0
shrinkage=0.1


Tree=24
num_leaves=31
num_cat=0
split_feature=6 6 6 6 6 15 12 12 6 14 7 6 5 12 17 4 1 16 14 1 12 14 16 10 9 9 14 12 6 7
split_gain=19181.8 3061.12 2016.94 600.072 376.448 250.477 304.216 301.564 219.045 212.202 188.918 188.305 180.926 165.845 165.032 161.118 158.556 158.299 169.664 157.154 156.53 150.672 147.724 145.118 167.629 137.092 129.756 127.159 122.686 120.743
threshold=57.500000000000007 37.500000000000007 79.500000000000014 22.500000000000004 69.500000000000014 -0.78656609248549303 17.500000000000004 3.5000000000000004 49.500000000000007 7.5000000000000009 69.500000000000014 92.500000000000014 20.050000000000004 1.5000000000000002 -0.24999999999999994 21.750000000000004 27.050000000000004 -0.12940952255126037 3.5000000000000004 30.550000000000004 14.500000000000002 4.5000000000000009 -0.37940952255126015 21.500000000000004 29.500000000000004 67.500000000000014 4.5000000000000009 8.5000000000000018 11.500000000000002 34.500000000000007
decision_type=2 2 2 2 2 2 2 2 2 2 2 2 2 2 2 2 2 2 2 2 2 2 2 2 2 2 2 2 2 2
left_child=1 3 4 20 10 6 9 15 -9 -3 -2 12 -4 19 -15 -7 17 26 -19 23 -1 -12 27 -5 -25 -14 -6 -16 -22 -17
right_child=2 5 11 13 16 7 -8 8 -10 -11 21 -13 25 14 22 29 -18 18 -20 -21 28 -23 -24 24 -26 -27 -28 -29 -30 -31
leaf_value=-0.36506223026719004 0.081657890914622916 -0.022242766277243697 -0.035636720709178761 -0.37844071862372486 -0.13427232104138687 -0.16919448295874256 -0.060960158447410852 -0.14486918021065853 -0.050139041213424641 0.24632758317809356 -0.28648262705121724 0.3391871978963415 0.43699787911531091 -0.072190806584862571 -0.50646627630506247 0.27829636722803114 0.26223238092725693 0.4112738880727973 0.15735078360331278 0.096371955534114567 -0.42543507321756718 0.0018976232604913865 -0.18828003634664198 0.12736993056276572 -0.24324377351082288 0.24139705959906485 0.099633237581562117 -0.25430264705147482 -0.25832848110312923 0.021808195811583591
leaf_weight=333 997 48 23 22 26 42 181 579 422 76 21 240 37 78 21 20 115 28 437 34 49 132 540 23 26 1135 270 419 425 223
leaf_count=333 997 48 23 22 26 42 181 579 422 76 21 240 37 78 21 20 115 28 437 34 49 132 540 23 26 1135 270 419 425 223
internal_value=0 -0.162941 0.167649 -0.246262 0.103402 -0.0597709 0.0217031 -0.079094 -0.104933 0.142365 0.0657802 0.258355 0.242121 -0.200288 -0.212184 0.0116596 0.152791 0.136252 0.172641 -0.0804179 -0.312518 -0.037684 -0.223326 -0.165078 -0.0692822 0.247572 0.0790875 -0.266338 -0.275603 0.0429183
internal_weight=0 3561 3461 1970 2026 1591 305 1286 1001 124 1150 1435 1195 1163 1058 285 876 761 465 105 807 153 980 71 49 1172 296 440 474 243
internal_count=7022 3561 3461 1970 2026 1591 305 1286 1001 124 1150 1435 1195 1163 1058 285 876 761 465 105 807 153 980 71 49 1172 296 440 474 243
is_linear=0
shrinkage=0.1


Tree=25
num_leaves=31
num_cat=0
split_feature=6 6 6 6 6 6 2 7 15 12 12 7 14 14 16 12 12 0 11 7 6 3 16 14 3 8 2 5 15 12
split_gain=15537.3 2493.55 1659.26 370.097 369.745 322.494 196.257 194.167 177.302 170.369 190.203 168.899 159.78 157.238 193.568 148.875 144.677 139.517 138.187 136.683 127.085 126.435 126.381 125.662 121.686 116.33 113.881 111.764 110.775 140.058
threshold=57.500000000000007 34.500000000000007 81.500000000000014 70.500000000000014 20.500000000000004 44.500000000000007 26.050000000000004 63.500000000000007 -0.78656609248549303 6.5000000000000009 10.500000000000002 41.500000000000007 8.5000000000000018 4.5000000000000009 -0.37940952255126015 3.5000000000000004 1.0000000180025095e-35 23.150000000000002 58.500000000000007 81.500000000000014 93.500000000000014 29.350000000000005 -0.12940952255126037 3.5000000000000004 34.250000000000007 26.500000000000004 21.450000000000003 20.050000000000004 -0.78656609248549303 17.500000000000004
decision_type=2 2 2 2 2 2 2 2 2 2 2 2 2 2 2 2 2 2 2 2 2 2 2 2 2 2 2 2 2 2
left_child=1 4 3 8 22 6 -3 11 18 12 -11 -7 16 14 -6 21 -10 -18 -2 -5 27 -8 -1 -24 -16 -15 -21 -4 29 -13
right_child=2 5 20 19 13 7 15 -9 9 10 -12 28 -14 25 24 -17 17 -19 -20 26 -22 -23 23 -25 -26 -27 -28 -29 -30 -31
leaf_value=-0.32784181124760053 0.061689614791050555 -0.1744319207800232 0.010786229631175167 0.16022244252042203 -0.28142220668447843 0.15721925088763239 0.2538564413138058 -0.32919258360884024 0.36381536875048592 -0.06281610209937101 0.05199515479121436 0.14381634737799565 0.02175503100201585 -0.036568890720167578 -0.15724524689333344 -0.096054381611756987 0.2563166196147601 0.063011691596913194 0.20867136894824798 -0.1662738174909637 0.31936921729649631 -0.031297252691971762 -0.27607033979474455 -0.10108646050923401 -0.28048522854596375 -0.17512999250602101 0.090809174481546517 0.23358733905680068 -0.047554395813970085 -0.034754306655201427
leaf_weight=398 125 314 23 818 318 50 23 21 29 219 423 75 153 85 403 400 54 121 131 21 181 48 171 54 100 211 96 1067 784 106
leaf_count=398 125 314 23 818 318 50 23 21 29 219 423 75 153 85 403 400 54 121 131 21 181 48 171 54 100 211 96 1067 784 106
internal_value=0 -0.146647 0.150884 0.0981356 -0.232252 -0.0648487 -0.113194 -0.0282167 0.0626526 0.0436255 0.0128306 -0.0219896 0.0990047 -0.197826 -0.220354 -0.072368 0.156942 0.12266 0.136903 0.145762 0.241772 0.0610765 -0.293977 -0.234074 -0.181746 -0.13534 0.0446661 0.228886 -0.031275 0.0392391
internal_weight=0 3561 3461 2190 1740 1821 785 1036 1255 999 642 1015 357 1117 821 471 204 175 256 935 1271 71 623 225 503 296 117 1090 965 181
internal_count=7022 3561 3461 2190 1740 1821 785 1036 1255 999 642 1015 357 1117 821 471 204 175 256 935 1271 71 623 225 503 296 117 1090 965 181
is_linear=0
shrinkage=0.1


Tree=26
num_leaves=31
num_cat=0
split_feature=6 6 6 6 6 3 17 12 12 6 7 12 15 15 12 15 12 7 17 5 11 16 18 12 7 17 0 12 7 15
split_gain=12661 2126.49 1291.55 299.527 295.114 241.996 214.177 273.867 182.906 178.195 170.162 152.705 163.907 151.007 166.007 144.763 150.601 132.586 128.497 128.43 114.493 107.518 186.876 145.473 99.9949 97.8466 97.5435 106.537 96.8479 95.7712
threshold=50.500000000000007 73.500000000000014 29.500000000000004 85.500000000000014 63.500000000000007 21.650000000000002 -0.24999999999999994 6.5000000000000009 10.500000000000002 12.500000000000002 69.500000000000014 1.0000000180025095e-35 -0.5 0.25881904510252091 5.5000000000000009 0.78656609248549325 6.5000000000000009 73.500000000000014 0.68301270189221941 27.950000000000003 70.500000000000014 -0.12940952255126037 0.25000000000000017 7.5000000000000009 60.500000000000007 0.68301270189221941 24.850000000000005 7.5000000000000009 27.500000000000004 -0.98296291314453399
decision_type=2 2 2 2 2 2 2 2 2 2 2 2 2 2 2 2 2 2 2 2 2 2 2 2 2 2 2 2 2 2
left_child=2 4 9 13 10 25 19 -8 -9 -1 15 -11 18 -3 -15 -2 -17 24 -13 -7 -19 22 -5 -24 -6 -4 27 -18 -10 -20
right_child=1 3 5 21 17 6 7 8 28 11 -12 12 -14 14 -16 16 26 20 29 -21 -22 -23 23 -25 -26 -27 -28 -29 -30 -31
leaf_value=-0.34866819793456483 0.034854273880502051 0.19612197285550476 -0.15710650630388054 0.23198722059910115 0.24169582220104835 -0.02869586847478249 -0.024113158017354714 -0.22725279360102157 0.072553197217398682 -0.020633448581946524 -0.22391732136408488 -0.11878812362213394 -0.26279639520472725 0.18261008104055773 0.075769817908781012 0.007303043849110096 0.06942904169360796 -0.21910147553398496 -0.092424489410137242 0.15662419960853902 0.034321638822587118 0.26019227943703349 0.18577663921045537 -0.11115010597489097 0.092948126061034864 -0.33297156873676514 -0.30577826884485065 -0.23522936281832785 -0.1147673347372223 -0.23591779858462122
leaf_weight=114 900 517 261 195 48 183 353 156 29 38 30 185 573 257 335 132 24 21 53 47 118 573 33 33 773 36 31 22 572 380
leaf_count=114 900 517 261 195 48 183 353 156 29 38 30 185 573 257 335 132 24 21 53 47 118 573 33 33 773 36 31 22 572 380
internal_value=0 0.115296 -0.156384 0.190684 0.0455105 -0.0967551 -0.0786539 -0.0968525 -0.130772 -0.229067 0.0110864 -0.217974 -0.22427 0.156635 0.122151 0.0174436 -0.0575305 0.0863533 -0.188549 0.00917388 -0.00396531 0.23596 0.182759 0.0373133 0.101645 -0.178423 -0.168674 -0.0762772 -0.105729 -0.218354
internal_weight=0 4042 2980 1943 2099 1637 1340 1110 757 1343 1139 1229 1191 1109 592 1109 209 960 618 230 139 834 261 66 821 297 77 46 601 433
internal_count=7022 4042 2980 1943 2099 1637 1340 1110 757 1343 1139 1229 1191 1109 592 1109 209 960 618 230 139 834 261 66 821 297 77 46 601 433
is_linear=0
shrinkage=0.1


Tree=27
num_leaves=31
num_cat=0
split_feature=6 6 6 6 17 16 17 6 7 7 10 2 15 17 3 11 16 14 7 18 15 6 6 15 11 5 17 14 17 2
split_gain=10269.8 1814.75 985.259 302.72 213.004 305.11 207.863 189.583 249.996 198.348 266.661 168.547 166.223 142.77 146.179 144.845 141.012 145.955 128.057 139.201 136.782 110.532 105.015 102.455 97.7542 95.0538 95.0167 94.7831 92.8115 88.9526
threshold=49.500000000000007 71.500000000000014 27.500000000000004 82.500000000000014 -0.6830127018922193 -0.12940952255126037 0.68301270189221941 39.500000000000007 49.500000000000007 27.500000000000004 25.500000000000004 29.050000000000004 -0.37940952255126059 -0.5 29.750000000000004 33.500000000000007 -0.12940952255126037 10.500000000000002 71.500000000000014 -0.68301270189221952 0.60355339059327384 74.500000000000014 96.500000000000014 -0.60355339059327362 50.500000000000007 18.850000000000005 0.93301270189221952 4.5000000000000009 0.68301270189221941 27.250000000000004
decision_type=2 2 2 2 2 2 2 2 2 2 2 2 2 2 2 2 2 2 2 2 2 2 2 2 2 2 2 2 2 2
left_child=2 4 16 18 11 6 24 9 29 10 12 -2 -4 -7 -15 -16 17 26 19 -3 -20 -21 -5 -11 -6 -26 -1 -18 -10 -9
right_child=1 3 7 22 5 13 -8 8 28 23 -12 -13 -14 14 15 -17 27 -19 20 21 -22 -23 -24 -25 25 -27 -28 -29 -30 -31
leaf_value=-0.23081014393293794 0.054445706772287675 0.054864320179066541 -0.20877524132645409 0.19516514042249217 -0.19060051380656662 -0.019106283506702092 -0.21440559289147779 -0.066370352338927879 -0.1282260960117648 -0.08576075150105307 0.30773789416188779 0.18237126318170974 0.097923703143994012 0.10164014119249561 -0.18908938465373859 0.043011550464795843 -0.18269280283214739 -0.094346903688969072 0.13960958511277691 0.19963661684076997 0.052615660363072185 0.41527724252904163 0.39115525388291905 -0.16335204899430833 -0.16941843869430678 0.0013674666089828799 -0.31492739966575134 0.00077206885442137729 -0.30908738125703838 0.0093398818730530322
leaf_weight=470 406 44 43 1158 32 213 62 325 112 239 23 138 30 494 35 116 459 62 477 79 291 34 28 591 35 473 188 30 38 297
leaf_count=470 406 44 43 1158 32 213 62 325 112 239 23 138 30 494 35 116 459 62 477 79 291 34 28 591 35 473 188 30 38 297
internal_value=0 0.101646 -0.143884 0.166349 0.0334874 0.0135867 -0.0409887 -0.0947601 -0.0581646 -0.125269 0.0108161 0.0868974 -0.0827346 0.0518786 0.0753201 -0.0107867 -0.212878 -0.241023 0.12347 0.205763 0.106647 0.26452 0.199792 -0.141009 -0.0210779 -0.0103993 -0.254844 -0.171437 -0.174044 -0.0302193
internal_weight=0 4115 2907 2111 2004 1460 602 1698 772 926 96 544 73 858 645 151 1209 720 925 157 768 113 1186 830 540 508 658 489 150 622
internal_count=7022 4115 2907 2111 2004 1460 602 1698 772 926 96 544 73 858 645 151 1209 720 925 157 768 113 1186 830 540 508 658 489 150 622
is_linear=0
shrinkage=0.1


Tree=28
num_leaves=31
num_cat=0
split_feature=6 6 6 6 3 15 12 15 7 12 14 16 14 14 4 1 11 14 6 8 3 14 2 12 9 12 6 6 12 6
split_gain=8399.23 1431.51 829.538 274.096 225.004 207.762 165.237 143.874 231.235 184.119 146.102 135.866 250.28 123.94 124.853 122.128 117.417 122.329 102.645 99.3146 99.2766 118.929 117.173 122.598 214.087 98.1384 96.5924 94.6728 93.5414 91.9076
threshold=58.500000000000007 37.500000000000007 81.500000000000014 22.500000000000004 17.550000000000004 -0.91597561503675329 5.5000000000000009 -0.78656609248549303 34.500000000000007 17.500000000000004 7.5000000000000009 1.0000000180025095e-35 6.5000000000000009 9.5000000000000018 27.650000000000002 28.150000000000002 51.500000000000007 7.5000000000000009 8.5000000000000018 33.500000000000007 34.45000000000001 4.5000000000000009 25.350000000000005 1.5000000000000002 21.500000000000004 13.500000000000002 40.500000000000007 67.500000000000014 10.500000000000002 95.500000000000014
decision_type=2 2 2 2 2 2 2 2 2 2 2 2 2 2 2 2 2 2 2 2 2 2 2 2 2 2 2 2 2 2
left_child=1 3 4 18 -2 16 13 9 -9 10 -3 12 -10 14 -7 -16 -6 -18 -1 20 22 -22 -5 24 -24 -20 -13 28 -8 -4
right_child=2 7 29 19 5 6 27 8 11 -11 -12 26 -14 -15 15 -17 17 -19 25 -21 21 -23 23 -25 -26 -27 -28 -29 -30 -31
leaf_value=-0.41618145289628405 -0.24311807291074233 -0.017361601068314129 0.17132972342376337 -0.17501492530269469 -0.015948993522579259 0.18223003654696823 -0.047958696826740553 0.24357658396116816 -0.14864863908069945 -0.039058457572872823 0.19975897751371319 -0.11543039302155376 -0.026173059103247298 0.047469813703822028 -0.0047734324983321128 0.26619177027827218 0.07840861979116133 0.23879613343499193 -0.25432819488705422 -0.1720871483809947 -0.27376712869752096 -0.086820102140070909 -0.22095191285014151 -0.090925617336508738 0.16846459455167254 -0.17799733952949159 -0.008587206810503796 0.071084999473959576 0.041983169935162268 0.29914161598278305
leaf_weight=23 22 51 1212 138 32 265 162 26 344 195 79 100 324 195 80 21 69 153 245 405 74 63 20 415 48 539 550 709 404 59
leaf_count=23 22 51 1212 138 32 265 162 26 344 195 79 100 324 195 80 21 69 153 245 405 74 63 20 415 48 539 550 709 404 59
internal_value=0 -0.105451 0.11343 -0.163181 0.0750161 0.0783648 0.0666377 -0.0373092 -0.0517472 0.0223973 0.114581 -0.057573 -0.0892443 0.111864 0.146172 0.0515659 0.163132 0.188946 -0.207959 -0.132109 -0.110748 -0.187799 -0.0937503 -0.0705318 0.0539303 -0.201851 -0.0250246 0.0467382 0.0162401 0.177263
internal_weight=0 3639 3383 1970 2112 2090 1836 1669 1344 325 130 1318 668 561 366 101 254 222 807 1163 758 137 621 483 68 784 650 1275 566 1271
internal_count=7022 3639 3383 1970 2112 2090 1836 1669 1344 325 130 1318 668 561 366 101 254 222 807 1163 758 137 621 483 68 784 650 1275 566 1271
is_linear=0
shrinkage=0.1


Tree=29
num_leaves=31
num_cat=0
split_feature=6 6 6 5 6 6 7 0 7 17 16 15 15 15 12 1 14 12 15 6 7 15 0 12 7 6 12 0 12 7
split_gain=6804.68 1190.92 651.906 214.582 207.422 177.484 153.975 150.781 147.06 146.786 161.128 139.401 134.459 129.443 134.046 128.753 123.49 319.504 119.419 109.017 142.079 95.3813 123.064 123.487 90.7217 93.2653 88.0581 80.4273 80.0324 79.7205
threshold=49.500000000000007 74.500000000000014 29.500000000000004 19.350000000000005 62.500000000000007 88.500000000000014 27.500000000000004 18.950000000000003 69.500000000000014 -0.24999999999999994 -0.37940952255126015 0.25881904510252091 -0.60355339059327362 -0.78656609248549303 17.500000000000004 28.450000000000003 3.5000000000000004 3.5000000000000004 -0.91597561503675329 33.500000000000007 31.500000000000004 0.78656609248549325 24.950000000000003 7.5000000000000009 60.500000000000007 67.500000000000014 7.5000000000000009 31.150000000000002 6.5000000000000009 58.500000000000007
decision_type=2 2 2 2 2 2 2 2 2 2 2 2 2 2 2 2 2 2 2 2 2 2 2 2 2 2 2 2 2 2
left_child=2 4 16 -3 8 7 12 -5 21 13 -11 -9 -4 14 -8 24 18 -18 -1 -12 -21 29 23 -23 28 -26 -13 -19 -6 -2
right_child=1 3 6 5 15 -7 9 11 -10 10 19 26 -14 -15 -16 -17 17 27 -20 20 -22 22 -24 -25 25 -27 -28 -29 -30 -31
leaf_value=-0.11301859784635562 0.045030753996672473 -0.18357334055006505 -0.063282518359344633 0.39841629803180695 0.3220388787920061 0.19467757224549795 0.18353488472375004 0.15784370707376744 -0.26529415755299851 -0.14173640549641128 -0.14135242722169231 0.11643179784748395 0.29456734439092025 -0.059985845134456144 -0.069046065693392486 0.16633479797726011 0.26294956080615522 -0.065845327359615 -0.20941053978066099 0.15363331818670939 -0.059303358174711822 0.059427041695358201 -0.14527100128066892 -0.20778875911519645 0.0090631883056548138 0.071753069129338404 0.040945279081554514 -0.16638304709295434 0.060995785333216195 -0.017009120675638045
leaf_weight=158 568 20 21 20 23 528 55 583 20 439 157 471 21 183 34 111 20 101 689 33 621 98 85 21 397 590 230 375 24 326
leaf_count=158 568 20 21 20 23 528 55 583 20 439 157 471 21 183 34 111 20 101 689 33 621 98 85 21 397 590 230 375 24 326
internal_value=0 0.0827391 -0.117121 0.142206 0.0340721 0.145763 -0.0732389 0.125957 0.00343369 -0.0784512 -0.0929377 0.121713 0.115642 -0.011877 0.0870433 0.0639881 -0.168225 -0.128599 -0.19143 -0.0665226 -0.0485588 0.00832855 -0.0533713 0.0122713 0.0530012 0.0465374 0.0916645 -0.14505 0.18874 0.0224077
internal_weight=0 4115 2907 1852 2263 1832 1564 1304 1118 1522 1250 1284 42 272 89 1145 1343 496 847 811 654 1098 204 119 1034 987 701 476 47 894
internal_count=7022 4115 2907 1852 2263 1832 1564 1304 1118 1522 1250 1284 42 272 89 1145 1343 496 847 811 654 1098 204 119 1034 987 701 476 47 894
is_linear=0
shrinkage=0.1


Tree=30
num_leaves=31
num_cat=0
split_feature=6 6 6 6 15 3 7 12 15 12 17 12 18 15 14 12 0 0 18 16 12 11 17 6 12 9 5 6 12 14
split_gain=5562.68 947.742 552.832 222.285 167.22 149.572 144.081 122.035 108.268 144.163 119.49 113.96 147.94 104.183 99.2026 106.958 235.147 99.1286 474.417 110.477 102.505 94.1378 92.4484 82.809 79.0435 75.569 76.4253 86.3766 73.094 71.7577
threshold=58.500000000000007 38.500000000000007 81.500000000000014 18.500000000000004 -0.91597561503675329 17.550000000000004 33.500000000000007 5.5000000000000009 -0.60355339059327362 6.5000000000000009 0.68301270189221941 17.500000000000004 -0.68301270189221952 1.0000000180025095e-35 2.5000000000000004 1.0000000180025095e-35 24.650000000000002 30.350000000000005 1.0000000180025095e-35 0.1294095225512602 16.500000000000004 50.500000000000007 -0.6830127018922193 73.500000000000014 6.5000000000000009 66.500000000000014 20.050000000000004 90.500000000000014 17.500000000000004 6.5000000000000009
decision_type=2 2 2 2 2 2 2 2 2 2 2 2 2 2 2 2 2 2 2 2 2 2 2 2 2 2 2 2 2 2
left_child=1 3 4 -1 21 -6 -3 14 11 -10 -11 12 -8 17 -7 16 -16 18 -5 20 -20 -2 -23 -18 -15 -4 -27 -28 -22 -9
right_child=2 6 25 13 5 7 8 29 9 10 -12 -13 -14 24 15 -17 23 -19 19 -21 28 22 -24 -25 -26 26 27 -29 -30 -31
leaf_value=-0.19257437553190962 -0.051407797960564494 0.23234701078562511 0.32814568010243506 0.33079329708526872 -0.20864822663874791 0.21635673529115218 -0.052903557974678377 -0.002476310428925032 -0.0033556264991472873 -0.056430611380142263 -0.16383108567798466 -0.035616882393096988 0.13025998271308667 -0.10180123302945283 0.012863221634989201 0.056133716398437943 0.45008264642495377 -0.1245636089099663 -0.078298841941135899 -0.13349192647738811 0.16845816733581681 0.21086308425502445 0.082481702870314894 0.18647292852401734 -0.17610708752500953 -0.043550347739999946 0.12706296434050021 0.18487644459750202 -0.046224906012929723 0.050972160264358496
leaf_weight=453 24 21 22 29 22 58 67 344 448 562 127 235 129 239 46 409 26 507 162 239 35 133 97 22 357 22 857 370 29 931
leaf_count=453 24 21 22 29 22 58 67 344 448 562 127 235 129 239 46 409 26 507 162 239 35 133 97 22 357 22 857 370 29 931
internal_value=0 -0.0858166 0.0923106 -0.130747 0.0609509 0.0505472 -0.0278512 0.053653 -0.031336 -0.0475144 -0.0762272 0.0113435 0.067648 -0.113209 0.0925199 0.0782405 0.174428 -0.0935007 -0.0616204 -0.0860935 -0.0359686 0.137054 0.15672 0.329262 -0.14631 0.14442 0.141184 0.144497 0.0711799 0.0365516
internal_weight=0 3639 3383 2050 2112 1858 1589 1836 1568 1137 689 431 196 1597 561 503 94 1001 494 465 226 254 230 48 596 1271 1249 1227 64 1275
internal_count=7022 3639 3383 2050 2112 1858 1589 1836 1568 1137 689 431 196 1597 561 503 94 1001 494 465 226 254 230 48 596 1271 1249 1227 64 1275
is_linear=0
shrinkage=0.1


Tree=31
num_leaves=31
num_cat=0
split_feature=6 6 6 15 6 7 7 5 0 15 5 14 6 11 6 7 15 12 3 14 15 12 6 8 12 5 2 2 0 14
split_gain=4511.01 623.407 611.617 144.168 136.457 152.784 148.382 126.244 131.157 119.23 110.926 120.392 103.507 97.9497 95.2302 91.6612 89.5642 90.6034 82.7013 77.6587 75.3871 74.1625 73.8737 88.381 86.2704 222.393 77.1268 73.5454 93.4047 72.9368
threshold=54.500000000000007 76.500000000000014 29.500000000000004 -0.91597561503675329 43.500000000000007 27.500000000000004 51.500000000000007 19.550000000000004 18.950000000000003 -0.60355339059327362 19.950000000000003 1.5000000000000002 11.500000000000002 50.500000000000007 90.500000000000014 41.500000000000007 -0.98296291314453399 1.0000000180025095e-35 22.050000000000004 4.5000000000000009 0.37940952255126054 15.500000000000002 61.500000000000007 47.500000000000007 1.0000000180025095e-35 27.550000000000004 20.150000000000002 23.950000000000003 30.350000000000005 7.5000000000000009
decision_type=2 2 2 2 2 2 2 2 2 2 2 2 2 2 2 2 2 2 2 2 2 2 2 2 2 2 2 2 2 2
left_child=2 3 12 13 5 9 15 -3 -9 -4 -5 -12 -1 -2 18 -6 -14 -18 -10 -19 27 -21 23 -13 25 -24 -26 -7 -29 -15
right_child=1 7 4 10 6 20 -8 8 14 -11 11 22 16 29 -16 -17 17 19 -20 21 -22 -23 24 -25 26 -27 -28 28 -30 -31
leaf_value=-0.24971540438664427 -0.02402663373631304 -0.123057606674376 -0.049618494439692726 -0.091586669609957455 0.12239963602914941 -0.13410803166986246 -0.079851629944534361 0.33086658537387853 0.011607488828783116 0.29154270865023135 0.15735687232017517 0.15051619765701404 -0.029230554823951073 0.056012806663774464 0.16492261184420398 -0.0045623295989764088 0.014614094205592809 -0.15323867538972544 0.11374278211723693 -0.1336867976282696 -0.11843693734060019 0.00087354746373260724 0.0040616479225274995 -0.016678569025562421 -0.10156754568219184 0.37366950335326021 0.039918700118782444 -0.017077822074116695 -0.09834268032738 0.17945750443023636
leaf_weight=77 46 21 21 74 64 117 274 30 85 20 75 34 82 73 364 510 38 975 1178 103 344 68 41 451 40 27 1047 378 226 139
leaf_count=77 46 21 21 74 64 117 274 30 85 20 75 34 82 73 364 510 38 975 1178 103 344 68 41 451 40 27 1047 378 226 139
internal_value=0 0.0754054 -0.0851942 0.0383664 -0.049487 -0.0726265 -0.0193073 0.12059 0.123677 0.116802 0.0282882 0.0334607 -0.137146 0.108249 0.119857 0.00959371 -0.1303 -0.1373 0.106869 -0.142337 -0.0799191 -0.0801774 0.0277947 -0.0049577 0.0415479 0.150818 0.0347122 -0.0615416 -0.0474849 0.136951
internal_weight=0 3725 3297 2047 1954 1106 848 1678 1657 41 1789 1715 1343 258 1627 574 1266 1184 1263 1146 1065 171 1640 485 1155 68 1087 721 604 212
internal_count=7022 3725 3297 2047 1954 1106 848 1678 1657 41 1789 1715 1343 258 1627 574 1266 1184 1263 1146 1065 171 1640 485 1155 68 1087 721 604 212
is_linear=0
shrinkage=0.1


Tree=32
num_leaves=31
num_cat=0
split_feature=6 6 6 5 0 3 12 17 14 15 17 16 17 1 14 16 14 10 18 16 18 17 12 6 0 7 6 15 12 11
split_gain=3688.09 658.531 353.952 143.785 142.34 108.013 145.963 138.998 102.229 98.3149 95.8483 142.448 126.97 112.285 92.5593 90.0872 89.8669 93.4331 85.555 81.8127 104.613 76.8951 94.824 76.4649 76.3895 73.4586 72.7073 72.5454 107.163 70.4448
threshold=49.500000000000007 70.500000000000014 27.500000000000004 19.750000000000004 22.750000000000004 21.550000000000004 2.5000000000000004 -0.24999999999999994 4.5000000000000009 0.60355339059327384 -0.6830127018922193 -0.12940952255126037 0.68301270189221941 29.050000000000004 1.5000000000000002 -0.12940952255126037 3.5000000000000004 31.500000000000004 0.6830127018922193 -0.12940952255126037 1.0000000180025095e-35 -0.5 1.0000000180025095e-35 38.500000000000007 29.450000000000003 64.500000000000014 30.500000000000004 -0.78656609248549303 17.500000000000004 23.500000000000004
decision_type=2 2 2 2 2 2 2 2 2 2 2 2 2 2 2 2 2 2 2 2 2 2 2 2 2 2 2 2 2 2
left_child=2 10 15 -3 14 -4 8 27 23 -6 13 12 -12 -2 -5 18 -13 -18 -1 20 -16 -19 -23 26 -10 -14 -7 28 -8 -28
right_child=1 3 5 4 9 6 7 -9 24 -11 11 16 25 -15 19 -17 17 21 -20 -21 -22 22 -24 -25 -26 -27 29 -29 -30 -31
leaf_value=-0.16805464478124055 0.026034187751041878 -0.10904375910758973 -0.11317797910171978 0.30439529590534442 0.10344317387864566 0.086798527565869421 0.16146377231610023 -0.074762581533386871 0.30424729245049614 0.050529309072945686 -0.017612189514815663 0.098601477071877178 -0.084816074724260129 0.13090670012624553 0.13937470150294201 -0.09445476730093208 -0.14412458119647845 -0.026877750530196677 -0.083988640561409589 0.15546132588068715 -0.021361552589181543 0.20811883481116694 0.034008052605359107 0.071426017220531199 0.047816952855254599 -0.31124428959320422 -0.27390802445865814 -0.035334704779652941 -0.061430569113615691 -0.049591941650335987
leaf_weight=566 370 33 283 33 1004 22 59 988 21 540 515 159 38 141 98 489 35 203 154 429 69 34 391 70 26 23 21 132 34 42
leaf_count=566 370 33 283 33 1004 22 59 988 21 540 515 159 38 141 98 489 35 203 154 429 69 34 391 70 26 23 21 132 34 42
internal_value=0 0.0609127 -0.0862249 0.0981265 0.101273 -0.0567811 -0.0455018 -0.0586083 0.0332024 0.084937 0.0179093 0.00436221 -0.0337707 0.0549716 0.141372 -0.127578 0.0310831 0.0148909 -0.150074 0.132345 0.0729627 0.0237532 0.0479369 -0.00597123 0.162392 -0.170191 -0.0697101 0.0123269 0.0799755 -0.124364
internal_weight=0 4115 2907 2206 2173 1698 1415 1213 202 1544 1909 1398 576 511 629 1209 822 663 720 596 167 628 425 155 47 61 85 225 93 63
internal_count=7022 4115 2907 2206 2173 1698 1415 1213 202 1544 1909 1398 576 511 629 1209 822 663 720 596 167 628 425 155 47 61 85 225 93 63
is_linear=0
shrinkage=0.1


Tree=33
num_leaves=31
num_cat=0
split_feature=6 6 6 6 3 15 15 18 2 7 15 0 11 12 11 5 0 8 9 11 16 4 12 6 6 14 3 16 12 8
split_gain=3001.75 489.247 337.598 102.78 100.55 99.8428 98.1219 94.4546 97.6951 87.7609 86.0094 89.975 111.3 85.0942 88.5631 83.6764 91.2554 82.7966 75.7664 163.322 76.4824 79.4273 75.4204 69.857 69.2191 65.5024 77.8705 75.967 67.8862 63.4593
threshold=57.500000000000007 33.500000000000007 76.500000000000014 16.500000000000004 21.850000000000005 0.91597561503675362 -0.91597561503675329 -0.24999999999999994 29.050000000000004 32.500000000000007 0.78656609248549325 30.350000000000005 25.500000000000004 6.5000000000000009 28.500000000000004 19.550000000000004 18.950000000000003 46.500000000000007 24.500000000000004 24.500000000000004 0.91597561503675351 31.650000000000002 17.500000000000004 96.500000000000014 46.500000000000007 4.5000000000000009 36.95000000000001 -0.37940952255126015 9.5000000000000018 38.500000000000007
decision_type=2 2 2 2 2 2 2 2 2 2 2 2 2 2 2 2 2 2 2 2 2 2 2 2 2 2 2 2 2 2
left_child=1 3 6 -1 5 -3 -2 10 9 -9 11 18 -13 14 -12 -4 -17 -8 -6 -20 21 -21 -10 -18 -11 27 -27 28 -5 -26
right_child=2 4 15 25 7 -7 17 8 22 24 13 12 -14 -15 -16 16 23 -19 19 20 -22 -23 -24 -25 29 26 -28 -29 -30 -31
leaf_value=-0.15585264723562303 0.097595241311649109 -0.10348215176081155 -0.099847470578693212 -0.25156853165270554 -0.17131254701387316 0.037525907555808785 0.21970523426478561 0.13823571150644207 0.11639159797666083 -0.0495782226174864 -0.22400354380192966 -0.29603137934580442 -0.051052915234776113 -0.21257661492987112 0.0034257180543977826 0.27385067636768023 0.095099157760288308 0.024323021297063225 0.28687338625842873 0.0015844015893636898 0.11086677167674197 -0.17348343188003187 -0.061974598232967165 0.25442845949104859 0.17864918871359392 -0.063866140948573374 0.14076458826661109 -0.081035152370275296 -0.1219865155303336 0.0023549999087445544
leaf_weight=311 226 284 21 45 21 61 22 37 113 362 23 20 255 55 67 30 1599 1535 22 158 51 31 30 28 22 265 20 626 398 284
leaf_count=311 226 284 21 45 21 61 22 37 113 362 23 20 255 55 67 30 1599 1535 22 158 51 31 30 28 22 265 20 626 398 284
internal_value=0 -0.0644572 0.0663196 -0.104011 -0.0297223 -0.0785503 0.0360212 -0.0188612 0.00360792 -0.0116787 -0.0459647 -0.0281343 -0.0688695 -0.114581 -0.0546951 0.0985139 0.101028 0.0270837 0.0114495 0.0260984 0.00219398 -0.0271304 0.0789721 0.0978411 -0.0199824 -0.0921037 -0.0495061 -0.10346 -0.135149 0.0150297
internal_weight=0 3561 3461 1665 1896 345 1783 1551 848 705 703 558 275 145 90 1678 1657 1557 283 262 240 189 143 1627 668 1354 285 1069 443 306
internal_count=7022 3561 3461 1665 1896 345 1783 1551 848 705 703 558 275 145 90 1678 1657 1557 283 262 240 189 143 1627 668 1354 285 1069 443 306
is_linear=0
shrinkage=0.1


Tree=34
num_leaves=31
num_cat=0
split_feature=6 6 6 15 12 12 6 3 7 17 15 0 18 15 12 1 17 16 14 14 6 2 16 18 12 0 12 0 0 14
split_gain=2441.85 448.433 247.555 116.09 136.84 113.266 105.199 73.2531 67.6509 67.606 66.3337 74.1833 395.435 77.8763 111.28 69.2606 62.5909 71.025 100.951 88.3388 80.2723 69.4849 62.2683 167.952 82.3447 96.3426 81.277 68.433 64.6047 61.579
threshold=59.500000000000007 37.500000000000007 82.500000000000014 -0.78656609248549303 18.500000000000004 5.5000000000000009 18.500000000000004 17.550000000000004 33.500000000000007 -0.6830127018922193 0.25881904510252091 30.350000000000005 1.0000000180025095e-35 -0.91597561503675329 17.500000000000004 37.850000000000001 -0.6830127018922193 -0.37940952255126015 3.5000000000000004 3.5000000000000004 56.500000000000007 29.350000000000005 -0.12940952255126037 0.25000000000000017 10.500000000000002 23.650000000000002 7.5000000000000009 22.650000000000002 22.350000000000005 9.5000000000000018
decision_type=2 2 2 2 2 2 2 2 2 2 2 2 2 2 2 2 2 2 2 2 2 2 2 2 2 2 2 2 2 2
left_child=1 6 3 4 9 29 -1 -7 -3 -2 11 12 -8 14 -14 -13 21 18 -18 20 -19 -10 23 24 25 -4 -25 -28 -24 -5
right_child=2 8 22 5 -6 7 10 -9 16 -11 -12 15 13 -15 -16 -17 17 19 -20 -21 -22 -23 28 26 -26 -27 27 -29 -30 -31
leaf_value=-0.13046035358217642 0.18294369621459267 0.13835588988882525 0.110822209856258 0.090233862212197369 0.025736024513677819 -0.17272807643527077 0.27449828492183437 0.015805018955195798 -0.014901699187398396 0.068887100750465446 -0.11007787945659726 -0.097178186985102027 0.17024447996959544 -0.078465071887610705 -0.057711497779752388 0.052144707581310561 -0.14429212039750483 0.0158883056895254 -0.035783989506252022 -0.032488341355259805 0.19358770975044795 0.10164420620379289 0.15756145619187761 0.048218512955384381 0.17421295467545006 -0.043256422072270158 -0.28109946162218141 -0.036231392581015827 0.09621746861218719 0.020509386479021296
leaf_weight=453 145 27 130 380 183 21 38 1106 136 81 407 529 33 416 61 33 108 276 416 687 28 82 247 39 102 59 21 25 563 190
leaf_count=453 145 27 130 380 183 21 38 1106 136 81 407 529 33 416 61 33 108 276 416 687 28 82 247 39 102 59 21 25 563 190
internal_value=0 -0.0553993 0.0627702 0.0421914 0.0900156 0.0306651 -0.0881724 0.012292 -0.0187158 0.142065 -0.0755445 -0.0628823 -0.0367023 -0.0598898 0.0223156 -0.0884101 -0.0211629 -0.028372 -0.0581483 -0.0126275 0.0322554 0.0289367 0.0993122 0.0656812 0.101802 0.0627236 -0.0579806 -0.148019 0.114924 0.0669924
internal_weight=0 3730 3292 2106 409 1697 1970 1127 1760 226 1517 1110 548 510 94 562 1733 1515 524 991 304 218 1186 376 291 189 85 46 810 570
internal_count=7022 3730 3292 2106 409 1697 1970 1127 1760 226 1517 1110 548 510 94 562 1733 1515 524 991 304 218 1186 376 291 189 85 46 810 570
is_linear=0
shrinkage=0.1


Tree=35
num_leaves=31
num_cat=0
split_feature=6 6 6 6 8 7 5 14 15 16 18 12 0 15 5 7 9 15 12 18 6 8 4 6 18 12 11 18 4 15
split_gain=1988.46 372.595 196.867 93.6621 82.4809 74.2461 71.3824 110.911 71.361 66.498 94.6135 73.0628 77.1341 64.6881 61.2222 109.538 204.735 78.2633 102.689 101.458 64.8613 89.5019 71.9953 60.6927 60.1002 99.9453 56.8823 56.5581 54.5409 99.7897
threshold=49.500000000000007 69.500000000000014 26.500000000000004 86.500000000000014 60.500000000000007 74.500000000000014 19.850000000000005 1.5000000000000002 -0.98296291314453399 1.0000000180025095e-35 -0.68301270189221952 10.500000000000002 22.950000000000003 -0.91597561503675329 35.550000000000004 26.500000000000004 21.500000000000004 -0.91597561503675329 17.500000000000004 -0.24999999999999994 40.500000000000007 37.500000000000007 28.450000000000003 8.5000000000000018 0.25000000000000017 7.5000000000000009 26.500000000000004 -0.24999999999999994 31.650000000000002 -0.78656609248549303
decision_type=2 2 2 2 2 2 2 2 2 2 2 2 2 2 2 2 2 2 2 2 2 2 2 2 2 2 2 2 2 2
left_child=2 5 8 6 14 28 -3 -8 -1 10 -5 12 24 -9 15 16 -4 18 19 -17 -19 22 -22 -10 -12 -26 -16 -11 29 -2
right_child=1 3 4 9 -6 -7 7 13 23 27 11 -13 -14 -15 26 17 -18 20 -20 -21 21 -23 -24 -25 25 -27 -28 -29 -30 -31
leaf_value=-0.0037906753711211376 0.065516841199875511 -0.1255974062851497 -0.062884352537916938 0.15824238091599252 -0.16433766378710668 -0.15391243897654394 0.2882682673987888 0.11603030251423743 -0.27546940701082351 0.082855730380141074 0.11227291487504115 0.13252612904391506 -0.13891043870432959 0.049745262740546088 -0.17946559773491963 -0.05370271450475507 0.27462830818258227 -0.065467101567728517 -0.039257987363352669 0.20352859957062683 0.23914373804415978 -0.036762397247511229 0.017837634667450069 -0.099579295606607221 0.065846329473424711 -0.21911958817392591 0.0045411785598844295 0.15165470343184956 -0.083067982245171285 0.0045566020538982087
leaf_weight=78 333 21 41 69 54 27 21 165 20 209 47 44 37 1367 56 23 32 848 105 46 21 483 49 1027 32 20 24 279 57 1387
leaf_count=78 333 21 41 69 54 27 21 165 20 209 47 44 37 1367 56 23 32 848 105 46 21 483 49 1027 32 20 24 279 57 1387
internal_value=0 0.0447265 -0.0633126 0.0713125 -0.0426356 0.0106688 0.0575368 0.0600131 -0.0960649 0.100733 0.0586815 0.0205166 -0.0157218 0.0568843 -0.0388324 -0.0346853 0.0850664 -0.0402357 0.0230176 0.117785 -0.0480916 -0.021447 0.0842295 -0.102939 0.0303184 -0.0437559 -0.124264 0.12219 0.0131695 0.0163588
